svm_type c_svc
kernel_type rbf
gamma 0.5
nr_class 2
total_sv 730
rho 0.0197369
label 1 2
nr_sv 367 363
SV
0.9433163911712766 1:0.18408 2:-0.369915 3:-0.370226 4:-0.207838 5:-0.840579 6:0.492491 7:-0.568842 8:-0.865507 9:-0.938647 10:-0.57488 11:-0.879227 12:-0.721739 13:-0.821255 14:-0.855072 15:-0.666668 16:-1 17:-1 18:-1 19:-1 20:-1 21:-1 22:-1 23:-1 24:-1 28:-1 30:-0.110506 31:-0.288205 32:0.135004 33:-0.288205 34:-0.382799 35:0.135004 36:-0.110506 37:-0.288205 38:0.135004 39:-0.288205 40:-0.382799 41:0.135004 42:0.526168 43:0.508209 44:0.541131 45:0.195897 46:0.143979 47:0.20347 48:-0.66267 49:-0.895666 50:-0.162489 51:0.184438 52:-0.139154 53:-0.179155 54:0.0858263 55:0.199388 56:-0.0328214 57:-0.429975 58:-0.450373 59:-0.801749 60:0.662229 61:1 
0.9908115459653289 1:1 2:-0.570815 3:-0.434624 4:-0.440906 5:-0.95 6:0.308045 7:-0.252275 8:-0.873455 9:-0.499696 10:-0.733334 11:-0.924242 12:-0.825455 13:-0.943939 14:-0.727272 15:-1 16:-1 17:-1 18:-1 19:-1 20:-1 21:-1 22:-1 23:-1 24:-1 28:-1 30:-0.439789 31:-0.196141 32:0.0166099 33:-0.196141 34:0.422586 35:0.0166099 36:-0.439789 37:-0.196141 38:0.0166099 39:-0.196141 40:0.422586 41:0.0166099 42:0.0644002 43:-0.175455 44:-0.0295155 45:0.10422 46:-0.00268666 47:0.0192152 48:-0.613199 49:0.0399505 50:0.840283 51:-1 52:1 53:1 54:1 55:1 56:0.512905 57:0.735296 58:-0.372998 59:0.812604 60:0.844773 61:-1 
0.2940604837448612 1:-0.671642 2:0.543452 3:-0.749802 4:-0.619395 5:-1 6:0.69531 7:-0.596153 8:-0.910769 9:-1 10:-0.717949 11:-1 12:-0.63077 13:-1 14:-1 15:-1 16:-1 17:-1 18:-1 19:-1 20:-1 21:-1 22:-1 23:-1 24:-1 28:-1 30:-0.792025 31:0.355229 32:-0.401163 33:0.355229 34:0.0962917 35:-0.401163 36:-0.792025 37:0.355229 38:-0.401163 39:0.355229 40:0.0962917 41:-0.401163 42:-0.556771 43:-0.566014 44:-0.589534 45:-0.619928 46:-0.566009 47:-0.474524 48:-0.705078 49:-0.88838 50:-1 51:-1 52:0.40256 53:0.15252 54:0.385893 55:0.393555 56:0.43961 57:0.147428 58:-0.718877 59:-0.7038 60:-1 61:-1 
0.09657709327797188 1:-0.572139 2:0.500562 3:-0.43994 4:-0.184459 5:-0.645161 6:0.47952 7:-0.60484 8:-1 9:-0.863441 10:-0.526882 11:-1 12:-0.0709707 13:-0.60215 14:-1 15:-1 16:-1 17:-1 18:-1 19:-1 20:-1 21:-1 22:-1 23:-1 24:-1 28:-1 30:-0.304877 31:-0.473091 32:-0.425819 33:-0.473091 34:-0.433892 35:-0.425819 36:-0.304877 37:-0.473091 38:-0.425819 39:-0.473091 40:-0.433892 41:-0.425819 42:0.143659 43:0.0100213 44:0.125633 45:-0.00444178 46:0.174784 47:0.094756 48:-0.805866 49:-0.987563 50:-0.708221 51:-1 52:0.0506254 53:0.252411 54:0.0456301 55:-0.130543 56:-0.201254 57:-0.461323 58:-0.712131 59:-0.790215 60:-0.916003 61:-1 
0.2154705755891053 1:-0.691542 2:0.54956 3:-0.640589 4:-0.380641 5:-0.78 6:0.723218 7:-0.79 8:-1 9:-0.830666 10:-0.706667 11:-1 12:-1 13:-0.506666 14:-1 15:-1 16:-1 17:-1 18:-1 19:-1 20:-1 21:-1 22:-1 23:-1 24:-1 28:-1 30:-0.419548 31:-0.39643 32:-0.533878 33:-0.39643 34:-0.457592 35:-0.533878 36:-0.419548 37:-0.39643 38:-0.533878 39:-0.39643 40:-0.457592 41:-0.533878 42:-0.133102 43:-0.282679 44:-0.118214 45:-0.17931 46:0.0208233 47:-1 48:-0.107798 49:-0.747355 50:-0.893464 51:-0.603466 52:-0.0778622 53:-0.0150975 54:0.096329 55:0.15074 56:-0.0839374 57:-1 58:-0.560274 59:-0.78969 60:-0.906241 61:-0.676134 
1.433258184586958 1:-0.343284 2:0.13848 3:-0.946495 4:-0.966266 5:-0.611765 6:0.788495 7:-0.711765 8:-0.945412 9:-1 10:-1 11:-1 12:-1 13:-1 14:-1 15:-1 16:-1 17:-1 18:-1 19:-1 20:-1 21:-1 22:-1 23:-1 24:-1 28:-1 30:-0.0582167 31:0.366808 32:0.237253 33:0.366808 34:-0.461201 35:0.237253 36:-0.0582167 37:0.366808 38:0.237253 39:0.366808 40:-0.461201 41:0.237253 42:-0.420426 43:-0.552356 44:0.368641 45:0.37356 46:0.518644 47:0.380494 48:-0.690646 49:-0.798884 50:-0.0772867 51:-1 52:-0.0994253 53:-0.0557329 54:0.0947737 55:-0.0611071 56:-0.256234 57:-0.316775 58:-0.794056 59:-0.837034 60:0.145918 61:-1 
0.0841042434471888 1:-0.671642 2:0.54568 3:-0.682424 4:-0.41874 5:-0.576923 6:0.572192 7:-0.596153 8:-1 9:-1 10:-0.717949 11:-0.358975 12:-1 13:-0.76282 14:-1 15:-1 16:-1 17:-1 18:-1 19:-1 20:-1 21:-1 22:-1 23:-1 24:-1 28:-1 30:-0.404272 31:-0.380185 32:0.178435 33:-0.380185 34:-0.498323 35:0.178435 36:-0.404272 37:-0.380185 38:0.178435 39:-0.380185 40:-0.498323 41:0.178435 42:-0.361542 43:-0.213983 44:-0.152984 45:-0.206645 46:-0.0418808 47:-0.607101 48:-0.767402 49:-0.874839 50:-0.670873 51:-1 52:-0.136342 53:-0.132333 54:-0.0651125 55:0.0799653 56:-0.101352 57:-0.661779 58:-0.770138 59:-0.630838 60:-0.685497 61:-1 
0.4468419433375634 1:-0.19403 2:-0.519845 3:-0.452323 4:-0.385508 5:-0.89 6:0.48847 7:-0.615 8:-0.8608 9:-0.576666 10:-0.560001 11:-0.666667 12:-1 13:-1 14:-0.6 15:-1 16:-1 17:-1 18:-1 19:-1 20:-1 21:-1 22:-1 23:-1 24:-1 28:-1 30:-0.669887 31:0.0912915 32:-0.0516113 33:0.0912915 34:-0.254332 35:-0.0516113 36:-0.669887 37:0.0912915 38:-0.0516113 39:0.0912915 40:-0.254332 41:-0.0516113 42:-0.105955 43:-0.11828 44:-0.0702978 45:-0.183014 46:-0.520516 47:-0.565412 48:-0.839585 49:-0.755639 50:-0.926889 51:-1 52:0.201215 53:0.120582 54:0.315525 55:0.326021 56:0.264355 57:0.113019 58:-0.879569 59:-0.819318 60:-0.862598 61:-1 
0.9066399504033972 1:-0.870647 2:0.518128 3:0.472419 4:0.169945 5:-1 6:0.131013 7:-0.671875 8:-0.855 9:-0.735416 10:-0.0833358 11:0.0416667 12:-1 13:0.927085 14:-1 15:-1 16:-1 17:-1 18:-1 19:-1 20:-1 21:-1 22:-1 23:-1 24:-1 28:-1 30:-0.400834 31:-0.0513081 32:0.114228 33:-0.0513081 34:-0.9287 35:0.114228 36:-0.400834 37:-0.0513081 38:0.114228 39:-0.0513081 40:-0.9287 41:0.114228 42:-0.545957 43:-0.371291 44:-0.339485 45:-0.240079 46:-0.455985 47:0.0676237 48:-0.501272 49:-1 50:-1 51:-1 52:-0.781159 53:-0.735358 54:-0.800186 55:-0.610393 56:-0.634527 57:-0.598596 58:-0.730862 59:-1 60:-1 61:-1 
0.07087555926859575 1:-0.661692 2:0.552493 3:-0.814368 4:-0.61443 5:-0.16981 6:0.500952 7:-0.603772 8:-0.824906 9:-1 10:-0.723272 11:-1 12:-0.637737 13:-1 14:-1 15:-1 16:-1 17:-1 18:-1 19:-1 20:-1 21:-1 22:-1 23:-1 24:-1 28:-1 30:-0.515829 31:-0.338338 32:-0.448956 33:-0.338338 34:-0.393531 35:-0.448956 36:-0.515829 37:-0.338338 38:-0.448956 39:-0.338338 40:-0.393531 41:-0.448956 42:-0.0790226 43:-0.225211 44:-0.129881 45:-0.18103 46:0.0503808 47:-0.439253 48:-0.761641 49:-1 50:-0.828703 51:-0.491274 52:0.0878455 53:0.111759 54:0.221161 55:-0.00353813 56:-0.151203 57:-0.745536 58:-0.714662 59:-1 60:-0.750562 61:-0.539237 
0.06730975250037054 1:-0.731343 2:0.548868 3:-0.773279 4:-0.709388 5:-1 6:0.647134 7:-0.543478 8:-1 9:-0.815942 10:-0.36232 11:-1 12:-1 13:-1 14:-1 15:-1 16:-1 17:-1 18:-1 19:-1 20:-1 21:-1 22:-1 23:-1 24:-1 28:-1 30:-0.43638 31:-0.404396 32:-0.471026 33:-0.404396 34:-0.490088 35:-0.471026 36:-0.43638 37:-0.404396 38:-0.471026 39:-0.404396 40:-0.490088 41:-0.471026 42:-0.330529 43:-0.182324 44:-0.129708 45:-0.132078 46:0.0292274 47:-0.092806 48:-0.815935 49:-0.737676 50:-0.843602 51:-1 52:-0.160845 53:-0.145392 54:-0.0780333 55:0.0339979 56:-0.134826 57:-0.763067 58:-0.700981 59:-0.682772 60:-0.714865 61:-1 
0.3706809551352233 1:-0.402985 2:0.258391 3:-0.573992 4:-0.219145 5:-0.721518 6:0.659467 7:-0.689874 8:-0.941266 9:-0.892827 10:-1 11:-1 12:-1 13:-1 14:-0.240506 15:-1 16:-0.740507 17:-1 18:-1 19:-1 20:-1 21:-1 22:-1 23:-1 24:-1 28:-1 30:0.0230873 31:-0.185213 32:-0.548676 33:-0.185213 34:-0.514294 35:-0.548676 36:0.0230873 37:-0.185213 38:-0.548676 39:-0.185213 40:-0.514294 41:-0.548676 42:0.267926 43:0.265147 44:0.489249 45:0.260756 46:0.291332 47:0.466756 48:-0.331667 49:-0.72753 50:-0.680635 51:-0.76231 52:0.150115 53:0.0832868 54:0.51778 55:-0.524944 56:-0.777488 57:-0.669577 58:-0.872135 59:-0.954005 60:-0.966535 61:-0.996112 
0.0822540685896697 1:-0.671642 2:0.544365 3:-0.692623 4:-0.470896 5:-0.365384 6:0.490111 7:-0.596153 8:-1 9:-0.674359 10:-0.717949 11:-1 12:-0.261542 13:-1 14:-1 15:-1 16:-1 17:-1 18:-1 19:-1 20:-1 21:-1 22:-1 23:-1 24:-1 28:-1 30:-0.607789 31:-0.431122 32:-0.416826 33:-0.431122 34:-0.315761 35:-0.416826 36:-0.607789 37:-0.431122 38:-0.416826 39:-0.431122 40:-0.315761 41:-0.416826 42:-0.492388 43:-0.353811 44:-0.18522 45:-0.310322 46:-0.0575367 47:-0.458667 48:-0.255916 49:-1 50:-0.949016 51:-1 52:-0.0132267 53:-0.00333268 54:0.0864402 55:0.20702 56:0.0146423 57:-0.649592 58:-0.308628 59:-1 60:-0.612372 61:-1 
2 1:-0.711443 2:0.251128 3:-0.981055 4:-0.97037 5:-0.770833 6:0.931289 7:-0.927084 8:-0.903333 9:-1 10:-1 11:-1 12:-1 13:-1 14:-1 15:-1 16:-1 17:-1 18:-1 19:-1 20:-1 21:-1 22:-1 23:-1 24:-1 28:-1 30:-0.585786 31:-0.0644286 32:0.116149 33:-0.0644286 34:-0.820529 35:0.116149 36:-0.585786 37:-0.0644286 38:0.116149 39:-0.0644286 40:-0.820529 41:0.116149 42:-0.473543 43:-0.328681 44:-0.27317 45:-0.44054 46:-0.608537 47:-0.604694 48:-0.288839 49:-0.483374 50:-0.688459 51:-0.512953 52:-0.526827 53:-0.468503 54:-0.480029 55:-0.580852 56:-0.386914 57:-0.436137 58:-0.513573 59:-0.824826 60:-0.74114 61:-0.95122 
0.6082862690580039 1:-0.452736 2:-0.109008 3:-0.593486 4:-0.414475 5:-1 6:0.660926 7:-0.716216 8:-0.937297 9:-0.656756 10:-1 11:-0.774775 12:-0.481083 13:-0.833333 14:-1 15:-1 16:-1 17:-1 18:-1 19:-1 20:-1 21:-1 22:-1 23:-1 24:-1 28:-1 30:-0.366216 31:-0.385057 32:-0.688324 33:-0.385057 34:-0.369002 35:-0.688324 36:-0.366216 37:-0.385057 38:-0.688324 39:-0.385057 40:-0.369002 41:-0.688324 42:0.0181208 43:-0.261488 44:-0.253394 45:-0.176902 46:-0.024414 47:0.011678 48:-0.776478 49:-0.933066 50:-1 51:-0.12694 52:-0.00419162 53:-0.0371744 54:0.178483 55:0.134865 56:-0.369554 57:-0.124782 58:-0.61569 59:-0.8867 60:-1 61:0.210137 
0.700461264640713 1:-0.810945 2:0.566551 3:-0.883514 4:-0.685537 5:-0.710526 6:0.72771 7:-0.723684 8:-0.877895 9:-1 10:-1 11:-0.561403 12:-1 13:-1 14:-1 15:-1 16:-1 17:-1 18:-1 19:-1 20:-1 21:-1 22:-1 23:-1 24:-1 28:-1 30:-0.635819 31:0.00664708 32:0.227728 33:0.00664708 34:-0.727705 35:0.227728 36:-0.635819 37:0.00664708 38:0.227728 39:0.00664708 40:-0.727705 41:0.227728 42:-0.829741 43:-0.750637 44:-0.849167 45:-0.712049 46:-0.708341 47:-1 48:-0.860833 49:-1 50:-0.74134 51:-0.704488 52:-0.482792 53:-0.575726 54:-0.496252 55:-0.151542 56:-0.163371 57:-1 58:-0.370582 59:-1 60:-0.721937 61:0.0575071 
0.4635769573469989 1:-0.711443 2:0.539172 3:-0.963047 4:-0.934645 5:-0.770833 6:0.842369 7:-0.78125 8:-0.903333 9:-1 10:-1 11:-1 12:-1 13:-1 14:-1 15:-1 16:-1 17:-1 18:-1 19:-1 20:-1 21:-1 22:-1 23:-1 24:-1 28:-1 30:-0.380291 31:-0.522722 32:-0.411001 33:-0.522722 34:-0.404659 35:-0.411001 36:-0.380291 37:-0.522722 38:-0.411001 39:-0.522722 40:-0.404659 41:-0.411001 42:-0.0363831 43:-0.204652 44:-0.159751 45:-0.158452 46:0.0569374 47:0.262051 48:-0.811747 49:-0.833816 50:-1 51:-1 52:-0.18873 53:-0.125023 54:0.0679691 55:0.0158933 56:-0.16932 57:-0.260747 58:-0.935809 59:-0.878002 60:-1 61:-1 
0.1510185858952443 1:-0.721393 2:0.512304 3:-0.739276 4:-0.491302 5:-0.765957 6:0.746829 7:-0.851064 8:-1 9:-0.819858 10:-0.375888 11:-1 12:-1 13:-0.737588 14:-1 15:-1 16:-1 17:-1 18:-1 19:-1 20:-1 21:-1 22:-1 23:-1 24:-1 28:-1 30:-0.522763 31:-0.457742 32:-0.406249 33:-0.457742 34:-0.459868 35:-0.406249 36:-0.522763 37:-0.457742 38:-0.406249 39:-0.457742 40:-0.459868 41:-0.406249 42:-0.12561 43:-0.241626 44:-0.153243 45:-0.178453 46:-0.270974 47:0.131352 48:-0.134209 49:-0.775932 50:-0.78956 51:-1 52:-0.0991514 53:-0.081372 54:-0.0566806 55:0.0981991 56:-0.172605 57:-0.449728 58:-0.357092 59:-0.839774 60:-0.816299 61:-1 
0.05375992825992174 1:-0.701493 2:0.531238 3:-0.880408 4:-0.642962 5:-0.32653 6:0.672698 7:-0.714286 8:-0.905306 9:-1 10:-1 11:-1 12:-1 13:-0.748299 14:-1 15:-1 16:-1 17:-1 18:-1 19:-1 20:-1 21:-1 22:-1 23:-1 24:-1 28:-1 30:-0.799046 31:-0.17948 32:-0.426915 33:-0.17948 34:-0.0447999 35:-0.426915 36:-0.799046 37:-0.17948 38:-0.426915 39:-0.17948 40:-0.0447999 41:-0.426915 42:-0.485121 43:-0.718475 44:-0.622329 45:-0.801765 46:-0.454694 47:-0.794499 48:-0.804141 49:-1 50:-0.806355 51:-1 52:0.277417 53:0.222092 54:0.390881 55:0.475612 56:0.370932 57:-0.40978 58:-0.702602 59:-1 60:-0.841372 61:-1 
2 1:-0.651741 2:0.236546 3:-0.400902 4:-0.0185245 5:-0.796296 6:0.669471 7:-0.870371 8:-0.828148 9:-1 10:-1 11:-1 12:-0.644446 13:-0.771605 14:-0.25926 15:-1 16:-0.620371 17:-1 18:-1 19:-1 20:-1 21:-1 22:-1 23:-1 24:-1 28:-1 30:-0.734663 31:-0.00708969 32:0.0206591 33:-0.00708969 34:-0.413588 35:0.0206591 36:-0.734663 37:-0.00708969 38:0.0206591 39:-0.00708969 40:-0.413588 41:0.0206591 42:-0.652558 43:-0.57259 44:-0.383421 45:-0.497497 46:-0.358755 47:-0.796835 48:-0.780738 49:-0.591893 50:-0.760345 51:-1 52:-0.0561934 53:-0.166466 54:-0.38164 55:0.00600067 56:-0.0428319 57:-0.623684 58:-0.215753 59:0.128382 60:-0.21287 61:-1 
0.1992867536044792 1:-0.681592 2:0.510762 3:-0.725776 4:-0.525377 5:-0.568627 6:0.562535 7:-0.519608 8:-1 9:-0.833987 10:-1 11:-1 12:-0.247061 13:-1 14:-1 15:-1 16:-1 17:-1 18:-1 19:-1 20:-1 21:-1 22:-1 23:-1 24:-1 28:-1 30:-0.782148 31:-0.342097 32:-0.398449 33:-0.342097 34:-0.00131597 35:-0.398449 36:-0.782148 37:-0.342097 38:-0.398449 39:-0.342097 40:-0.00131597 41:-0.398449 42:-0.499609 43:-0.648868 44:-0.488492 45:-0.646819 46:-0.522674 47:-0.275652 48:-0.281112 49:-1 50:-0.791832 51:-1 52:0.287735 53:0.211597 54:0.491212 55:0.419575 56:0.363957 57:-0.000701884 58:-0.17951 59:-1 60:-0.691456 61:-1 
0.04945902387738142 1:-0.860697 2:0.556371 3:-0.925156 4:-0.887496 5:-0.333332 6:0.547319 7:-0.469698 8:-0.859394 9:-1 10:-1 11:-1 12:-1 13:-1 14:-1 15:-1 16:-1 17:-1 18:-1 19:-1 20:-1 21:-1 22:-1 23:-1 24:-1 28:-1 30:-0.662414 31:0.0409533 32:0.210037 33:0.0409533 34:-0.707598 35:0.210037 36:-0.662414 37:0.0409533 38:0.210037 39:0.0409533 40:-0.707598 41:0.210037 42:-0.982733 43:-0.79462 44:-0.536334 45:-0.621323 46:-0.671847 47:-0.914291 48:-1 49:-0.963514 50:-0.980127 51:-0.819842 52:-0.948378 53:-0.543178 54:-0.448037 55:-0.483886 56:-0.163787 57:-0.220764 58:-1 59:-0.762852 60:-0.717751 61:-0.348582 
0.6055633561295038 1:-0.422886 2:0.0978536 3:-0.788021 4:-0.334436 5:-0.714286 6:0.842947 7:-0.863637 8:-1 9:-1 10:-0.809525 11:-0.78355 12:-1 13:-1 14:-1 15:-1 16:-1 17:-1 18:-1 19:-0.52381 20:-1 21:-1 22:-1 23:-1 24:-1 28:-1 30:-0.250957 31:0.229581 32:-0.270942 33:0.229581 34:-0.374925 35:-0.270942 36:-0.250957 37:0.229581 38:-0.270942 39:0.229581 40:-0.374925 41:-0.270942 42:0.317117 43:0.271867 44:0.29495 45:0.285444 46:-0.274791 47:-0.250523 48:-0.201492 49:-0.648089 50:-0.586566 51:-1 52:0.625008 53:0.324257 54:0.0704641 55:0.0633255 56:-0.327752 57:-0.57531 58:-0.30731 59:-0.562922 60:-0.648677 61:-1 
0.4239142039724957 1:-0.681592 2:0.556131 3:-0.861935 4:-0.658103 5:-0.784314 6:0.813602 7:-0.794118 8:-0.90902 9:-1 10:-1 11:-1 12:-0.623531 13:-1 14:-1 15:-1 16:-1 17:-1 18:-1 19:-1 20:-1 21:-1 22:-1 23:-1 24:-1 28:-1 30:-0.781394 31:-0.0370275 32:-0.485971 33:-0.0370275 34:-0.0645916 35:-0.485971 36:-0.781394 37:-0.0370275 38:-0.485971 39:-0.0370275 40:-0.0645916 41:-0.485971 42:-0.555312 43:-0.650375 44:-0.688144 45:-0.633681 46:-0.674166 47:-0.653308 48:-0.821752 49:-1 50:-0.874884 51:-0.760596 52:0.340815 53:0.229192 54:0.468384 55:0.437517 56:0.414079 57:-0.130208 58:-0.289382 59:-1 60:-0.742586 61:-0.0281066 
1.32643028451058 1:-0.671642 2:0.772015 3:-0.573511 4:-0.354076 5:-1 6:0.613232 7:-0.596153 8:-1 9:-0.674359 10:-1 11:-1 12:-0.261542 13:-0.76282 14:-1 15:-1 16:-1 17:-1 18:-1 19:-1 20:-1 21:-1 22:-1 23:-1 24:-1 28:-1 30:-0.053232 31:0.304964 32:-0.279882 33:0.304964 34:-0.730601 35:-0.279882 36:-0.053232 37:0.304964 38:-0.279882 39:0.304964 40:-0.730601 41:-0.279882 42:0.143941 43:0.0701639 44:0.164034 45:0.479528 46:0.472767 47:-0.109982 48:-1 49:-0.297995 50:-0.391975 51:-1 52:-0.437544 53:-0.88882 54:-0.488121 55:-0.315433 56:-0.462818 57:-0.352909 58:-1 59:-0.5445 60:-0.807171 61:-1 
0.857907505103397 1:0.552239 2:-0.476627 3:-0.723368 4:-0.716428 5:-0.811428 6:0.552492 7:-0.420001 8:-0.840914 9:-1 10:-0.832381 11:-1 12:-0.780572 13:-1 14:-1 15:-1 16:-1 17:-1 18:-1 19:-1 20:-1 21:-1 22:-1 23:-1 24:-1 28:-1 30:-0.000799358 31:-0.0929996 32:-0.516394 33:-0.0929996 34:-0.369249 35:-0.516394 36:-0.000799358 37:-0.0929996 38:-0.516394 39:-0.0929996 40:-0.369249 41:-0.516394 42:0.454456 43:0.440144 44:0.513315 45:0.488927 46:0.22199 47:-0.0697832 48:-0.340113 49:-0.777034 50:0.322089 51:-1 52:0.226798 53:0.202627 54:0.393838 55:0.0562298 56:-0.0698198 57:-0.113541 58:-0.64589 59:-0.820756 60:0.357237 61:-1 
0.144216022305635 1:-0.721393 2:0.553814 3:-0.820431 4:-0.610919 5:-1 6:0.746829 7:-0.62766 8:-1 9:-1 10:-1 11:-0.29078 12:-1 13:-1 14:-1 15:-1 16:-1 17:-1 18:-1 19:-1 20:-1 21:-1 22:-1 23:-1 24:-1 28:-1 30:-0.637031 31:-0.402979 32:-0.516666 33:-0.402979 34:0.0180666 35:-0.516666 36:-0.637031 37:-0.402979 38:-0.516666 39:-0.402979 40:0.0180666 41:-0.516666 42:-0.482753 43:-0.67341 44:-0.535176 45:-0.498931 46:-0.0850661 47:-0.221823 48:-1 49:-0.927938 50:-0.754983 51:-0.73823 52:0.283562 53:0.197721 54:0.428543 55:0.344435 56:0.20213 57:-0.00462342 58:-1 59:-0.751578 60:-0.820613 61:-0.425605 
0.6129792282149465 1:0.00497512 2:-0.530482 3:0.250806 4:-0.0372107 5:-1 6:-0.358045 7:0.604164 8:-0.806666 9:-0.717777 10:-0.877778 11:-0.305555 12:-0.68 13:-0.588889 14:-1 15:-0.744444 16:-0.829167 17:-0.83 18:-1 19:-1 20:-1 21:-1 22:-1 23:-1 24:-1 28:-1 30:0.142974 31:-0.132761 32:-0.321143 33:-0.132761 34:-0.43328 35:-0.321143 36:0.142974 37:-0.132761 38:-0.321143 39:-0.132761 40:-0.43328 41:-0.321143 42:0.399346 43:0.55619 44:0.56418 45:0.369468 46:0.49536 47:0.681483 48:0.748089 49:0.301823 50:-0.515531 51:-0.46723 52:0.302677 53:0.420245 54:0.147098 55:-0.525756 56:-0.662898 57:-0.475304 58:-0.414774 59:-0.646331 60:-0.918054 61:-0.739161 
0.4198622503756136 1:-0.840796 2:0.563682 3:-0.858486 4:-0.679765 5:-0.371427 6:0.637855 7:-0.599999 8:-1 9:-1 10:-1 11:-0.52381 12:-1 13:-1 14:-1 15:-1 16:-1 17:-1 18:-1 19:-1 20:-1 21:-1 22:-1 23:-1 24:-1 28:-1 30:-0.680455 31:0.0388622 32:0.17607 33:0.0388622 34:-0.783636 35:0.17607 36:-0.680455 37:0.0388622 38:0.17607 39:0.0388622 40:-0.783636 41:0.17607 42:-0.842701 43:-0.764144 44:-0.586141 45:-0.587861 46:-0.586773 47:-0.884925 48:-0.731006 49:-0.910375 50:-1 51:-0.595275 52:-0.455079 53:-0.531021 54:-0.445231 55:-0.417038 56:-0.32919 57:-0.308217 58:-0.784917 59:-0.837611 60:-1 61:-0.797223 
0.2549072000390609 1:-0.711443 2:0.515967 3:-0.607862 4:-0.363966 5:-0.770833 6:0.57561 7:-0.635416 8:-1 9:-0.647221 10:-0.694446 11:-1 12:-1 13:-0.48611 14:-1 15:-1 16:-1 17:-1 18:-1 19:-1 20:-1 21:-1 22:-1 23:-1 24:-1 28:-1 30:-0.50374 31:-0.440542 32:-0.401388 33:-0.440542 34:-0.464188 35:-0.401388 36:-0.50374 37:-0.440542 38:-0.401388 39:-0.440542 40:-0.464188 41:-0.401388 42:-0.122281 43:-0.230126 44:-0.101198 45:-0.173677 46:-0.00414351 47:-1 48:-0.15365 49:-1 50:-0.85639 51:-1 52:-0.102471 53:-0.0968757 54:-0.0692094 55:0.0486246 56:-0.159692 57:-1 58:-0.43871 59:-1 60:-0.69084 61:-1 
1.075154193958188 1:-0.263682 2:-0.0939122 3:-0.721961 4:-0.636716 5:-0.88172 6:0.628676 7:-0.435485 8:-0.950107 9:-1 10:-1 11:-1 12:-0.793549 13:-1 14:-0.784946 15:-1 16:-1 17:-1 18:-1 19:-1 20:-1 21:-1 22:-1 23:-1 24:-1 28:-1 30:-0.426282 31:0.107519 32:0.402072 33:0.107519 34:-0.406547 35:0.402072 36:-0.426282 37:0.107519 38:0.402072 39:0.107519 40:-0.406547 41:0.402072 42:-0.540784 43:-0.695194 44:-0.628238 45:-0.652729 46:-0.433573 47:-0.621114 48:-0.822992 49:-0.0647504 50:0.181142 51:-1 52:-0.137724 53:-0.0574393 54:-0.0814125 55:-0.0716932 56:-0.260357 57:-0.373143 58:-0.468654 59:0.182048 60:0.318753 61:-1 
0.8514795838860346 1:-0.860697 2:0.570455 3:-0.660144 4:-0.577511 5:-1 6:0.676656 7:-0.575758 8:-1 9:-1 10:-0.555557 11:-1 12:-0.418184 13:-1 14:-1 15:-1 16:-1 17:-1 18:-1 19:-1 20:-1 21:-1 22:-1 23:-1 24:-1 28:-1 30:-0.474675 31:0.109343 32:0.13246 33:0.109343 34:-0.797559 35:0.13246 36:-0.474675 37:0.109343 38:0.13246 39:0.109343 40:-0.797559 41:0.13246 42:-0.204463 43:-0.467221 44:-0.371878 45:-0.386899 46:-0.417998 47:-0.433451 48:-0.701555 49:-1 50:-0.812986 51:-1 52:-0.376594 53:-0.599858 54:-0.248458 55:-0.210455 56:-0.619962 57:-0.99394 58:-0.963272 59:-1 60:-0.897496 61:-1 
2 1:-0.61194 2:-0.252337 3:-0.841896 4:-0.923757 5:-1 6:0.807108 7:-0.698276 8:-0.84 9:-1 10:-1 11:-1 12:-1 13:-1 14:-1 15:-1 16:-1 17:-1 18:-1 19:-1 20:-1 21:-1 22:-1 23:-1 24:-1 28:-1 30:-0.770201 31:-0.0947748 32:0.00879372 33:-0.0947748 34:-0.60285 35:0.00879372 36:-0.770201 37:-0.0947748 38:0.00879372 39:-0.0947748 40:-0.60285 41:0.00879372 42:-0.577115 43:-0.497798 44:-0.287915 45:-0.587357 46:-0.39009 47:-0.50402 48:-0.706166 49:-0.601946 50:-0.597984 51:-0.833333 52:-0.169912 53:-0.216866 54:-0.290544 55:-0.196386 56:-0.421154 57:-0.0939108 58:-0.0796279 59:0.174755 60:-0.792151 61:-0.934198 
0.8724397163379104 1:-0.283582 2:-0.127374 3:-0.560534 4:-0.357445 5:-0.516484 6:0.595643 7:-0.846154 8:-0.949011 9:-0.90696 10:-0.516485 11:-0.0842483 12:-0.789012 13:-0.864469 14:-1 15:-1 16:-1 17:-1 18:-1 19:-1 20:-1 21:-1 22:-1 23:-1 24:-1 28:-1 30:-0.275925 31:-0.473372 32:-0.686949 33:-0.473372 34:-0.340962 35:-0.686949 36:-0.275925 37:-0.473372 38:-0.686949 39:-0.473372 40:-0.340962 41:-0.686949 42:0.00810477 43:-0.136638 44:-0.150883 45:-0.097223 46:0.211472 47:-0.0742789 48:-0.791813 49:-0.96887 50:0.0950833 51:0.0311982 52:0.0146343 53:-0.0153059 54:0.109833 55:-0.00428114 56:-0.182872 57:-0.13933 58:-0.534937 59:-0.939297 60:0.139877 61:0.324183 
0.6110357887424529 1:-0.61194 2:0.62527 3:-0.654358 4:-0.399021 5:-0.810344 6:0.549549 7:-0.456898 8:-0.92 9:-1 10:-0.747127 11:-1 12:-0.668966 13:-1 14:-0.655172 15:-1 16:-1 17:-1 18:-1 19:-1 20:-1 21:-1 22:-1 23:-1 24:-1 28:-1 30:0.136034 31:-0.030892 32:-0.238886 33:-0.030892 34:-0.726492 35:-0.238886 36:0.136034 37:-0.030892 38:-0.238886 39:-0.030892 40:-0.726492 41:-0.238886 42:0.409087 43:-0.320475 44:0.492914 45:0.487865 46:0.54231 47:0.444505 48:-1 49:0.261922 50:-1 51:-1 52:-0.498127 53:-0.76781 54:-0.330939 55:-0.395512 56:-0.363413 57:-0.420501 58:-1 59:-0.474612 60:-1 61:-1 
0.9207644201992069 1:-0.0746269 2:-0.139936 3:-0.752676 4:-0.809773 5:-0.803572 6:0.569259 7:-0.531249 8:-0.751428 9:-0.773214 10:-1 11:-1 12:-1 13:-1 14:-1 15:-1 16:-1 17:-1 18:-1 19:-1 20:-1 21:-1 22:-1 23:-1 24:-1 28:-1 30:-0.435862 31:-0.0495552 32:0.380753 33:-0.0495552 34:-0.183527 35:0.380753 36:-0.435862 37:-0.0495552 38:0.380753 39:-0.0495552 40:-0.183527 41:0.380753 42:-0.459618 43:-0.330781 44:-0.432654 45:-0.569328 46:-0.386832 47:-0.762011 48:-0.696326 49:-0.301962 50:0.161847 51:0.105502 52:-0.259357 53:-0.266059 54:0.0511142 55:-0.107274 56:-0.058961 57:-0.262748 58:-0.412857 59:0.2549 60:0.847953 61:0.673181 
0.9085767594972621 1:-0.20398 2:-0.135812 3:-0.829414 4:-0.659092 5:-0.777778 6:0.849106 7:-0.858586 8:-1 9:-0.914478 10:-0.703705 11:-1 12:-1 13:-0.875421 14:-1 15:-1 16:-1 17:-1 18:-1 19:-1 20:-1 21:-1 22:-1 23:-1 24:-1 28:-1 30:-0.639479 31:-0.0281187 32:0.127294 33:-0.0281187 34:0.172445 35:0.127294 36:-0.639479 37:-0.0281187 38:0.127294 39:-0.0281187 40:0.172445 41:0.127294 42:-0.137609 43:-0.00404289 44:-0.362975 45:-0.494381 46:-0.299564 47:-0.776585 48:-0.686462 49:-0.773377 50:-0.179343 51:-0.165716 52:0.469607 53:0.389004 54:0.178492 55:0.0843951 56:-0.137583 57:-0.276879 58:-0.213508 59:-0.227122 60:1 61:0.229239 
0.6087180994663258 1:-0.681592 2:0.546276 3:-0.871848 4:-0.8091 5:-0.568627 6:0.562535 7:-0.45098 8:-0.90902 9:-1 10:-0.71242 11:-1 12:-1 13:-1 14:-1 15:-1 16:-1 17:-1 18:-1 19:-1 20:-1 21:-1 22:-1 23:-1 24:-1 28:-1 30:-0.723 31:-0.291052 32:-0.491987 33:-0.291052 34:-0.163112 35:-0.491987 36:-0.723 37:-0.291052 38:-0.491987 39:-0.291052 40:-0.163112 41:-0.491987 42:-0.257427 43:-0.629 44:-0.691226 45:-0.620624 46:-0.307857 47:-0.74645 48:-0.687172 49:-0.940842 50:-0.536704 51:-1 52:0.251379 53:0.193089 54:0.417429 55:0.351917 56:0.193836 57:-0.534865 58:-0.727708 59:-0.678771 60:-0.33047 61:-1 
0.360868154905485 1:-0.273632 2:-0.260287 3:-0.171689 4:-0.111376 5:-1 6:0.461562 7:-0.581523 8:-0.89913 9:-0.815942 10:-1 11:-0.0942033 12:-0.582611 13:-0.865941 14:-0.782608 15:-0.666668 16:-1 17:-1 18:-1 19:-1 20:-1 21:-1 22:-1 23:-1 24:-1 28:-1 30:0.0552497 31:-0.213493 32:-0.340134 33:-0.213493 34:-0.402769 35:-0.340134 36:0.0552497 37:-0.213493 38:-0.340134 39:-0.213493 40:-0.402769 41:-0.340134 42:0.379416 43:0.343709 44:-0.249208 45:0.429322 46:0.569007 47:0.709302 48:0.577697 49:0.0451095 50:-0.357711 51:-1 52:-0.00537734 53:0.352255 54:0.332305 55:0.00938843 56:-0.343131 57:-0.511043 58:-0.156511 59:-0.356707 60:-0.777455 61:-1 
0.08425222536983058 1:-0.621891 2:0.549375 3:-0.727937 4:-0.459465 5:-0.614035 6:0.69027 7:-0.692983 8:-1 9:-1 10:-1 11:-0.707602 12:-0.663158 13:-0.783625 14:-1 15:-1 16:-1 17:-1 18:-1 19:-1 20:-1 21:-1 22:-1 23:-1 24:-1 28:-1 30:0.200774 31:-0.339006 32:-0.477335 33:-0.339006 34:-0.672813 35:-0.477335 36:0.200774 37:-0.339006 38:-0.477335 39:-0.339006 40:-0.672813 41:-0.477335 42:0.433393 43:0.361354 44:0.399629 45:0.361169 46:0.358074 47:0.245821 48:-0.729468 49:-0.789917 50:-0.649061 51:-1 52:-0.342486 53:-0.228339 54:0.0300084 55:-0.211465 56:-0.448518 57:-0.734955 58:-0.794146 59:-0.886144 60:-0.583493 61:-1 
0.0828689340203836 1:-0.721393 2:0.547438 3:-0.924996 4:-0.754035 5:-1 6:0.883047 7:-0.776596 8:-1 9:-1 10:-1 11:-0.64539 12:-1 13:-1 14:-1 15:-1 16:-1 17:-1 18:-1 19:-1 20:-1 21:-1 22:-1 23:-1 24:-1 28:-1 30:-0.759394 31:-0.169067 32:-0.507892 33:-0.169067 34:0.0330393 35:-0.507892 36:-0.759394 37:-0.169067 38:-0.507892 39:-0.169067 40:0.0330393 41:-0.507892 42:-0.644497 43:-0.606493 44:-0.597724 45:-0.736815 46:-0.485343 47:-0.535185 48:-1 49:-0.920471 50:-1 51:-1 52:0.337004 53:0.241321 54:0.497487 55:0.482094 56:0.370327 57:-0.0660657 58:-1 59:-0.788411 60:-1 61:-1 
0.2692101457927381 1:-0.641791 2:0.571173 3:-0.771583 4:-0.739339 5:-1 6:0.521452 7:-0.300001 8:-0.915636 9:-1 10:-0.466669 11:-1 12:-1 13:-1 14:-1 15:-1 16:-1 17:-1 18:-1 19:-1 20:-1 21:-1 22:-1 23:-1 24:-1 28:-1 30:0.234068 31:-0.347951 32:-0.432017 33:-0.347951 34:-0.638511 35:-0.432017 36:0.234068 37:-0.347951 38:-0.432017 39:-0.347951 40:-0.638511 41:-0.432017 42:0.450686 43:0.397776 44:0.466381 45:0.394151 46:0.153258 47:0.417881 48:0.339002 49:-0.89122 50:-0.795356 51:-1 52:-0.303374 53:-0.257993 54:0.0784593 55:-0.253311 56:-0.601733 57:-0.696491 58:-0.774811 59:-0.719947 60:-0.984083 61:-1 
0.2401136588438303 1:-0.850746 2:0.545526 3:-0.853097 4:-0.722028 5:-0.67647 6:0.562535 7:-0.382352 8:-1 9:-1 10:-1 11:-0.509803 12:-1 13:-1 14:-1 15:-1 16:-1 17:-1 18:-1 19:-1 20:-1 21:-1 22:-1 23:-1 24:-1 28:-1 30:-0.675754 31:0.0459806 32:0.1823 33:0.0459806 34:-0.700069 35:0.1823 36:-0.675754 37:0.0459806 38:0.1823 39:0.0459806 40:-0.700069 41:0.1823 42:-0.722256 43:-0.892812 44:-0.57131 45:-0.594606 46:-0.634633 47:-0.784677 48:-1 49:-0.815286 50:-0.923808 51:-1 52:-0.459152 53:-0.533437 54:-0.375923 55:-0.380257 56:-0.165601 57:-0.209759 58:-1 59:-0.70252 60:-0.709886 61:-1 
0.7245983871135381 1:-0.263682 2:-0.0862432 3:-0.769762 4:-0.613231 5:-0.88172 6:0.789305 7:-0.849462 8:-0.850322 9:-0.90896 10:-0.842294 11:-0.820788 12:-1 13:-0.867383 14:-1 15:-1 16:-1 17:-1 18:-1 19:-1 20:-1 21:-1 22:-1 23:-1 24:-1 28:-1 30:0.129687 31:0.128773 32:-0.00645413 33:0.128773 34:-0.675818 35:-0.00645413 36:0.129687 37:0.128773 38:-0.00645413 39:0.128773 40:-0.675818 41:-0.00645413 42:0.255303 43:0.209276 44:0.662272 45:0.798445 46:0.802513 47:0.633304 48:0.293506 49:-0.407571 50:-0.999311 51:-1 52:-0.418051 53:-0.0466832 54:0.0813069 55:-0.190863 56:-0.459365 57:-0.412919 58:-0.379938 59:-0.21012 60:-0.98091 61:-1 
0.5749601106873595 1:-0.661692 2:0.551893 3:-0.972449 4:-0.930207 5:-0.377358 6:0.581483 7:-0.4717 8:-0.912453 9:-1 10:-1 11:-1 12:-1 13:-1 14:-1 15:-1 16:-1 17:-1 18:-1 19:-1 20:-1 21:-1 22:-1 23:-1 24:-1 28:-1 30:-0.735333 31:-0.150945 32:0.112236 33:-0.150945 34:-0.0983479 35:0.112236 36:-0.735333 37:-0.150945 38:0.112236 39:-0.150945 40:-0.0983479 41:0.112236 42:-0.591152 43:-0.503488 44:-0.673761 45:-0.717438 46:-0.451296 47:-0.65735 48:-0.768221 49:-0.857626 50:-0.992519 51:-0.736493 52:0.337933 53:0.223672 54:0.493981 55:0.407517 56:0.320791 57:-0.242577 58:-0.898519 59:-0.606854 60:-0.697946 61:-0.332228 
0.8919849309790577 1:-0.60199 2:0.422909 3:-0.954795 4:-0.941953 5:-0.254237 6:0.739134 7:-0.762712 8:-0.921356 9:-1 10:-1 11:-1 12:-1 13:-1 14:-1 15:-1 16:-1 17:-1 18:-1 19:-1 20:-1 21:-1 22:-1 23:-1 24:-1 28:-1 30:-0.570059 31:0.0797808 32:0.304417 33:0.0797808 34:-0.491377 35:0.304417 36:-0.570059 37:0.0797808 38:0.304417 39:0.0797808 40:-0.491377 41:0.304417 42:-0.545211 43:-0.603099 44:-0.599454 45:-0.65568 46:-0.654349 47:-0.535086 48:-0.775004 49:-0.705508 50:-0.422521 51:-0.723238 52:-0.252212 53:-0.372887 54:-0.244846 55:-0.0181099 56:-0.276654 57:-0.512557 58:-0.651878 59:-0.741388 60:0.232987 61:-0.00291758 
0.6967436940601305 1:-0.830846 2:0.568246 3:-0.814981 4:-0.698086 5:-0.694444 6:0.590432 7:-0.416666 8:-1 9:-1 10:-1 11:-0.537037 12:-1 13:-1 14:-1 15:-1 16:-1 17:-1 18:-1 19:-1 20:-1 21:-1 22:-1 23:-1 24:-1 28:-1 30:-0.595479 31:0.0904658 32:0.242391 33:0.0904658 34:-0.75983 35:0.242391 36:-0.595479 37:0.0904658 38:0.242391 39:0.0904658 40:-0.75983 41:0.242391 42:-0.975758 43:-0.89957 44:-0.499629 45:-0.404207 46:-0.496532 47:-0.889933 48:-1 49:-0.791915 50:-0.656915 51:-1 52:-0.704843 53:-0.555206 54:-0.451526 55:-0.552539 56:-0.292648 57:-0.547235 58:-1 59:-0.886282 60:-0.177252 61:-1 
0.1617194700799904 1:0.134328 2:-0.447014 3:-0.377227 4:-0.232044 5:-1 6:0.615392 7:-0.789474 8:-0.860451 9:-0.809022 10:-0.779449 11:-0.373433 12:-1 13:-0.721804 14:-0.548872 15:-1 16:-1 17:-1 18:-1 19:-1 20:-1 21:-1 22:-1 23:-1 24:-1 28:-1 30:0.209298 31:-0.0879956 32:-0.11396 33:-0.0879956 34:-0.451373 35:-0.11396 36:0.209298 37:-0.0879956 38:-0.11396 39:-0.0879956 40:-0.451373 41:-0.11396 42:0.559457 43:0.537674 44:0.586561 45:0.426551 46:0.639763 47:0.512203 48:0.471813 49:-0.478402 50:-0.392032 51:-0.314741 52:0.0218977 53:-0.0247814 54:0.179376 55:0.289288 56:0.176313 57:0.264963 58:-0.281081 59:-0.534427 60:-0.606933 61:-0.65966 
0.5055944648395607 1:-0.59204 2:0.681059 3:-0.718448 4:-0.350851 5:-0.449999 6:0.637855 7:-0.708334 8:-0.922666 9:-1 10:-0.755556 11:-1 12:-1 13:-0.794444 14:-1 15:-1 16:-0.658333 17:-1 18:-1 19:-1 20:-1 21:-1 22:-1 23:-1 24:-1 28:-1 30:0.0960079 31:-0.230401 32:-0.324069 33:-0.230401 34:-0.643492 35:-0.324069 36:0.0960079 37:-0.230401 38:-0.324069 39:-0.230401 40:-0.643492 41:-0.324069 42:0.378917 43:0.586893 44:0.592748 45:0.593321 46:0.407369 47:-1 48:0.312733 49:-0.409285 50:-0.566794 51:-1 52:-0.251081 53:-0.34585 54:0.203703 55:-0.167329 56:-0.672305 57:-1 58:-0.610641 59:-0.726851 60:-0.781677 61:-1 
0.6687414836153738 1:-0.781095 2:0.635362 3:-0.594039 4:-0.135807 5:-0.731708 6:0.700315 7:-0.829268 8:-0.886829 9:-1 10:-1 11:-0.593497 12:-1 13:-1 14:-1 15:-0.252034 16:-1 17:-1 18:-1 19:-1 20:-1 21:-1 22:-1 23:-1 24:-1 28:-1 30:-0.0998449 31:0.359684 32:0.0284234 33:0.359684 34:-0.696567 35:0.0284234 36:-0.0998449 37:0.359684 38:0.0284234 39:0.359684 40:-0.696567 41:0.0284234 42:-0.530863 43:0.153188 44:0.108661 45:-1 46:0.124812 47:0.210895 48:-1 49:0.289456 50:-0.47138 51:-1 52:-0.47123 53:-0.351212 54:-0.280267 55:-1 56:-0.081492 57:-0.450503 58:-1 59:-0.836135 60:-0.887821 61:-1 
0.1119920387682034 1:-0.243781 2:-0.767537 3:0.885043 4:0.0585571 5:-0.884211 6:-0.867226 7:0.178946 8:-0.071999 9:0.604216 10:-0.691229 11:-0.649123 12:0.0105235 13:-0.740351 14:-0.578948 15:-1 16:-1 17:-0.35579 18:-1 19:-1 20:-1 21:-1 22:-1 23:-1 24:-1 28:-1 30:-0.372023 31:-0.127312 32:0.203982 33:-0.127312 34:-0.088466 35:0.203982 36:-0.372023 37:-0.127312 38:0.203982 39:-0.127312 40:-0.088466 41:0.203982 42:-0.0110877 43:0.0235021 44:-0.207451 45:-0.147218 46:-0.528237 47:-0.488362 48:-0.531988 49:-0.89075 50:-1 51:-1 52:0.217659 53:0.144176 54:0.161796 55:-0.117241 56:0.588957 57:0.574695 58:0.482196 59:-0.613886 60:-1 61:-1 
0.1304410667615695 1:-0.293532 2:-0.575615 3:0.179517 4:-0.180559 5:-1 6:-0.42918 7:0.399999 8:-0.226664 9:-0.717777 10:-0.837038 11:-0.814815 12:-0.360003 13:-0.725926 14:-0.777778 15:-1 16:-1 17:-1 18:-0.694445 19:-1 20:-1 21:-1 22:-1 23:-1 24:-1 28:-1 30:-0.0657203 31:-0.271789 32:-0.49442 33:-0.271789 34:-0.0710267 35:-0.49442 36:-0.0657203 37:-0.271789 38:-0.49442 39:-0.271789 40:-0.0710267 41:-0.49442 42:0.528358 43:0.204402 44:-0.0251244 45:0.0581497 46:-0.193151 47:-0.138322 48:0.0348453 49:-0.387438 50:-0.880578 51:-0.92296 52:0.0626628 53:-0.137723 54:-0.171311 55:-0.342015 56:0.405798 57:0.511928 58:0.560836 59:0.110071 60:-0.898794 61:-0.945444 
0.3192659466425692 1:-0.233831 2:-0.760302 3:0.850365 4:0.0874122 5:-1 6:-0.802642 7:0.130209 8:-0.0333338 9:0.675701 10:-0.847222 11:-0.652778 12:-0.400002 13:-0.743056 14:-0.583334 15:-1 16:-0.786458 17:-0.3625 18:-1 19:-1 20:-1 21:-1 22:-1 23:-1 24:-1 28:-1 30:-0.12315 31:-0.233155 32:0.156652 33:-0.233155 34:-0.141829 35:0.156652 36:-0.12315 37:-0.233155 38:0.156652 39:-0.233155 40:-0.141829 41:0.156652 42:0.0556004 43:0.154728 44:-0.181652 45:0.127194 46:-0.0130793 47:-0.191545 48:-0.0750094 49:-0.276596 50:-0.493074 51:-1 52:-0.173526 53:-0.3225 54:-0.510637 55:-0.0593416 56:0.207177 57:0.275438 58:0.659309 59:0.6704 60:-0.242201 61:-1 
0.4754983553694919 1:0.0348259 2:-0.761668 3:0.927378 4:-0.0368975 5:-0.821138 6:-1 7:0.280488 8:-0.0191864 9:0.583202 10:-0.0460723 11:-0.322493 12:-0.843903 13:-0.699187 14:-1 15:-0.626018 16:-1 17:-0.50244 18:-1 19:-1 20:-1 21:-1 22:-1 23:-1 24:-1 28:-1 30:-0.174257 31:-0.246311 32:-0.634634 33:-0.246311 34:0.157024 35:-0.634634 36:-0.174257 37:-0.246311 38:-0.634634 39:-0.246311 40:0.157024 41:-0.634634 42:0.13308 43:-0.289395 44:0.118767 45:-0.168899 46:-0.50364 47:-0.39631 48:-0.39793 49:-0.730554 50:-0.665526 51:-0.633863 52:0.431437 53:0.0916872 54:0.26629 55:0.763262 56:0.832972 57:0.811425 58:0.92054 59:0.0857395 60:-0.594176 61:-0.441306 
0.07785480793615993 1:-0.9801 2:0.624935 3:-0.587918 4:-0.162521 5:-1 6:0.759802 7:-0.833334 8:-1 9:-1 10:-0.30159 11:-1 12:-1 13:-1 14:-0.04762 15:-1 16:-1 17:-1 18:-1 19:-1 20:-1 21:-1 22:-1 23:-1 24:-1 28:-1 30:-0.763299 31:-0.0581075 32:0.0549097 33:-0.0581075 34:-0.798522 35:0.0549097 36:-0.763299 37:-0.0581075 38:0.0549097 39:-0.0581075 40:-0.798522 41:0.0549097 42:-0.797055 43:-1 44:-0.692982 45:-1 46:-0.447796 47:-0.789806 48:-1 49:-0.873439 50:-1 51:-1 52:-0.965164 53:-1 54:-0.499388 55:-1 56:-0.440103 57:-0.456584 58:-1 59:-0.352239 60:-1 61:-1 
0.3536454964563654 1:-0.422886 2:0.140625 3:-0.459598 4:-0.237327 5:-1 6:0.621226 7:-0.636364 8:-0.93974 9:-0.780086 10:-1 11:-0.78355 12:-1 13:-0.839827 14:-0.22078 15:-1 16:-1 17:-1 18:-1 19:-1 20:-1 21:-1 22:-1 23:-1 24:-1 28:-1 30:-0.581466 31:0.520835 32:-0.464142 33:0.520835 34:0.194974 35:-0.464142 36:-0.581466 37:0.520835 38:-0.464142 39:0.520835 40:0.194974 41:-0.464142 42:-0.458496 43:-0.365353 44:-0.259608 45:-0.154586 46:-1 47:-0.162094 48:-0.429186 49:-0.169611 50:-0.618242 51:-1 52:0.738206 53:0.479888 54:0.740449 55:0.129972 56:-1 57:0.157108 58:-0.145349 59:0.28174 60:-0.880797 61:-1 
0.02696377645614437 1:-0.562189 2:-0.237197 3:-0.42391 4:-0.524486 5:-0.650794 6:0.285565 7:-0.444445 8:-0.705396 9:-0.731217 10:-0.068785 11:-1 12:-0.695239 13:-1 14:-1 15:-1 16:-1 17:-1 18:-1 19:-1 20:-1 21:-1 22:-1 23:-1 24:-1 28:-1 30:-0.42373 31:-0.312603 32:0.0462751 33:-0.312603 34:-0.56198 35:0.0462751 36:-0.42373 37:-0.312603 38:0.0462751 39:-0.312603 40:-0.56198 41:0.0462751 42:0.0760631 43:-0.10933 44:-0.602437 45:-0.18751 46:-0.385905 47:-0.461378 48:-0.414827 49:-0.512365 50:-0.828687 51:-1 52:-0.223473 53:-0.335081 54:-0.66917 55:0.265342 56:-0.0610722 57:0.0974138 58:0.096711 59:-0.288635 60:-0.531569 61:-1 
0.3762533720726057 1:-0.810945 2:0.775991 3:-0.389831 4:-0.190706 5:-1 6:0.390753 7:-0.447368 8:-0.755789 9:-1 10:-0.228072 11:-1 12:-0.494738 13:-1 14:-1 15:-0.596492 16:-1 17:-1 18:-1 19:-1 20:-1 21:-1 22:-1 23:-1 24:-1 28:-1 30:-0.259404 31:0.223889 32:-0.515354 33:0.223889 34:-0.825614 35:-0.515354 36:-0.259404 37:0.223889 38:-0.515354 39:0.223889 40:-0.825614 41:-0.515354 42:-0.406268 43:-0.449801 44:-0.596225 45:-0.0969543 46:-0.0195174 47:0.149804 48:0.408714 49:-0.680428 50:-1 51:-1 52:-0.4074 53:-0.482544 54:-0.362009 55:-0.654869 56:-0.634048 57:-0.667767 58:-0.623095 59:-0.377526 60:-1 61:-1 
0.1765469128806527 1:-0.442786 2:0.0855603 3:-0.485377 4:-0.299586 5:-1 6:0.637855 7:-0.766667 8:-0.876266 9:-0.774221 10:-0.21778 11:-1 12:-1 13:-0.835556 14:-1 15:-1 16:-0.726667 17:-1 18:-1 19:-1 20:-1 21:-1 22:-1 23:-1 24:-1 28:-1 30:-0.446888 31:0.614357 32:-0.398689 33:0.614357 34:-0.0884212 35:-0.398689 36:-0.446888 37:0.614357 38:-0.398689 39:0.614357 40:-0.0884212 41:-0.398689 42:-0.0370606 43:-0.184662 44:-0.460015 45:-0.0887543 46:0.0544157 47:-0.0418408 48:0.0863971 49:-0.00962104 50:-0.725073 51:-1 52:0.550995 53:0.300982 54:-0.226051 55:0.5144 56:-0.0710075 57:-0.0403503 58:-0.0594027 59:0.106984 60:-0.846368 61:-1 
0.4201733181161343 1:-0.402985 2:0.106869 3:-0.171376 4:0.0892938 5:-1 6:0.578425 7:-0.822785 8:-0.823797 9:-0.67848 10:-1 11:-0.78903 12:-1 13:-0.843882 14:-0.240506 15:-0.611814 16:-1 17:-0.741773 18:-1 19:-1 20:-1 21:-1 22:-1 23:-1 24:-1 28:-1 30:-0.723282 31:-0.232303 32:-0.454984 33:-0.232303 34:0.32159 35:-0.454984 36:-0.723282 37:-0.232303 38:-0.454984 39:-0.232303 40:0.32159 41:-0.454984 42:-0.470131 43:-0.479356 44:-0.507573 45:-0.497619 46:-0.535642 47:-0.818361 48:-0.671855 49:-0.839252 50:-0.710693 51:-0.862823 52:0.757881 53:0.47675 54:0.730565 55:0.733467 56:-0.350749 57:0.378193 58:0.450884 59:0.412566 60:-0.585024 61:-0.785689 
0.06580206350279326 1:-0.104478 2:-0.340471 3:-0.0754179 4:-0.0233716 5:-0.697248 6:0.066159 7:0.0596312 8:-0.914862 9:-0.844648 10:-0.596332 11:-0.847095 12:-0.823854 13:-0.88685 14:-0.816514 15:-0.718655 16:-1 17:-0.812844 18:-1 19:-0.663609 20:-1 21:-1 22:-1 23:-1 24:-1 28:-1 30:-0.281629 31:-0.131313 32:-0.147534 33:-0.131313 34:0.234605 35:-0.147534 36:-0.281629 37:-0.131313 38:-0.147534 39:-0.131313 40:0.234605 41:-0.147534 42:0.68673 43:0.44826 44:0.0708427 45:0.0825264 46:-0.1319 47:-0.566979 48:-0.385574 49:-0.507085 50:-0.90385 51:-1 52:0.88382 53:0.508961 54:0.674604 55:0.431643 56:0.450185 57:0.137817 58:0.33299 59:-0.488705 60:-0.839964 61:-1 
0.5845390370117218 1:-0.552239 2:-0.211047 3:0.150845 4:0.174389 5:-0.828125 6:0.197703 7:-0.398438 8:-0.855 9:-0.867708 10:-0.770834 11:-0.21875 12:-0.700001 13:-0.807291 14:-1 15:0.197915 16:-1 17:-1 18:-1 19:-1 20:-1 21:-1 22:-1 23:-1 24:-1 28:-1 30:-0.476184 31:-0.344467 32:-0.440076 33:-0.344467 34:-0.440473 35:-0.440076 36:-0.476184 37:-0.344467 38:-0.440076 39:-0.344467 40:-0.440473 41:-0.440076 42:0.0340456 43:-0.309176 44:-0.126544 45:-0.338213 46:-0.129777 47:-0.56369 48:-0.59558 49:-0.414875 50:-0.714915 51:-1 52:-0.115838 53:-0.566265 54:-0.00985484 55:-0.189943 56:0.329832 57:0.0437985 58:-0.0711704 59:0.238906 60:-0.447648 61:-1 
0.7141860620400526 1:-0.940299 2:0.612281 3:-0.257651 4:-0.211188 5:-1 6:0.381767 7:-0.72 8:-0.8144 9:-0.661333 10:-0.413335 11:1 12:-1 13:-1 14:-1 15:-1 16:-1 17:-1 18:-1 19:-1 20:-1 21:-1 22:-1 23:-1 24:-1 28:-1 30:-0.75614 31:-0.0492341 32:0.0333256 33:-0.0492341 34:-0.834809 35:0.0333256 36:-0.75614 37:-0.0492341 38:0.0333256 39:-0.0492341 40:-0.834809 41:0.0333256 42:-0.876934 43:-0.524504 44:-0.486852 45:-1 46:-0.594177 47:-0.834136 48:-1 49:-0.863876 50:-1 51:-1 52:-0.920619 53:-0.736294 54:-0.453015 55:-1 56:-0.363824 57:-0.445441 58:-1 59:-0.340516 60:-1 61:-1 
0.2848929471804993 1:-0.343284 2:-0.440325 3:0.216916 4:0.143253 5:-0.870588 6:-0.24088 7:0.399999 8:-0.836235 9:-0.601568 10:-0.654903 11:-1 12:-0.548237 13:-1 14:-0.529412 15:-1 16:-0.517647 17:-0.76 18:-1 19:-0.568628 20:-1 21:-1 22:-1 23:-1 24:-1 28:-1 30:-0.471901 31:0.582003 32:0.105052 33:0.582003 34:0.0366049 35:0.105052 36:-0.471901 37:0.582003 38:0.105052 39:0.582003 40:0.0366049 41:0.105052 42:-0.205075 43:-0.19986 44:-0.384869 45:-0.220693 46:-0.215526 47:-0.0832125 48:0.211849 49:-0.288704 50:-0.778831 51:-0.860697 52:0.64276 53:0.370841 54:0.642494 55:0.619647 56:-0.214196 57:-0.0313143 58:0.0243511 59:-0.00921928 60:-0.682106 61:-0.955659 
0.623260134626029 1:-0.502488 2:-0.317254 3:0.230892 4:0.345214 5:-1 6:-0.203402 7:0.420288 8:-0.932753 9:-0.631883 10:-0.36232 11:-1 12:-1 13:-0.821255 14:-0.42029 15:-0.777777 16:-1 17:-1 18:-1 19:-1 20:-1 21:-0.27536 22:-0.0579671 23:-1 24:-1 28:-1 30:-0.784873 31:-0.0811853 32:-0.441811 33:-0.0811853 34:-0.112615 35:-0.441811 36:-0.784873 37:-0.0811853 38:-0.441811 39:-0.0811853 40:-0.112615 41:-0.441811 42:-0.516967 43:-0.562844 44:-0.463053 45:-0.617982 46:-0.820039 47:-0.501851 48:-0.447552 49:-0.901454 50:-0.624093 51:-1 52:0.444338 53:0.403638 54:0.547656 55:0.526916 56:-0.623341 57:0.325212 58:0.178313 59:-0.496914 60:-0.542254 61:-1 
0.4173547940714674 1:-0.940299 2:0.626212 3:-0.270685 4:0.223618 5:-1 6:0.723218 7:-0.86 8:-1 9:-1 10:-1 11:-1 12:-0.232002 13:-1 14:-1 15:-0.386668 16:-0.18 17:-1 18:-1 19:-1 20:-1 21:-1 22:-1 23:-1 24:-1 28:-1 30:-0.770654 31:-0.0491955 32:0.0373282 33:-0.0491955 34:-0.835699 35:0.0373282 36:-0.770654 37:-0.0491955 38:0.0373282 39:-0.0491955 40:-0.835699 41:0.0373282 42:-0.905011 43:-0.825782 44:-0.594395 45:-1 46:-0.559632 47:-0.761979 48:-1 49:-0.831007 50:-1 51:-1 52:-0.932284 53:-0.92611 54:-0.513218 55:-1 56:-0.44368 57:-0.387479 58:-1 59:-0.411432 60:-1 61:-1 
0.3595793014443229 1:-0.731343 2:0.378804 3:-0.331233 4:0.111694 5:-1 6:0.647134 7:-0.771739 8:-0.89913 9:-0.815942 10:-1 11:-0.637682 12:-1 13:-0.731884 14:-0.565218 15:-1 16:-1 17:-1 18:-1 19:-0.2029 20:-1 21:-1 22:-1 23:-1 24:-1 28:-1 30:-0.6672 31:-0.442653 32:-0.38115 33:-0.442653 34:-0.351599 35:-0.38115 36:-0.6672 37:-0.442653 38:-0.38115 39:-0.442653 40:-0.351599 41:-0.38115 42:-0.179385 43:-0.247167 44:-0.364774 45:-0.701166 46:-0.397026 47:-0.617361 48:-0.432636 49:-0.934442 50:-0.866898 51:-1 52:-0.0596743 53:-0.0182036 54:-0.351705 55:-0.303405 56:0.171599 57:-0.0119835 58:0.230518 59:-0.662822 60:-0.858542 61:-1 
0.3980709533486663 1:-0.114428 2:-0.76492 3:0.43005 4:-0.367228 5:-0.898148 6:-0.773002 7:0.101852 8:0.074073 9:0.959876 10:-0.864198 11:-0.691358 12:-0.644446 13:-0.771605 14:-0.814815 15:-1 16:-1 17:-1 18:-1 19:-1 20:-1 21:-1 22:-1 23:-1 24:-1 28:-1 30:-0.0886083 31:-0.275587 32:0.248995 33:-0.275587 34:-0.122372 35:0.248995 36:-0.0886083 37:-0.275587 38:0.248995 39:-0.275587 40:-0.122372 41:0.248995 42:0.177863 43:0.312759 44:-0.198526 45:-0.28101 46:-0.337633 47:-0.525049 48:-0.472271 49:-0.366978 50:-1 51:-1 52:0.22382 53:-0.270361 54:0.0480428 55:0.719079 56:0.351032 57:0.585618 58:0.4323 59:0.323361 60:-1 61:-1 
0.2123677855753577 1:-0.422886 2:0.117056 3:-0.383961 4:-0.241915 5:-1 6:0.648941 7:-0.818182 8:-0.93974 9:-0.890043 10:-0.428574 11:-0.5671 12:-0.75065 13:-0.679654 14:-0.74026 15:-1 16:-1 17:-1 18:-1 19:-1 20:-1 21:-1 22:-1 23:-1 24:-1 28:-1 30:-0.295071 31:0.6549 32:0.00899344 33:0.6549 34:-0.21134 35:0.00899344 36:-0.295071 37:0.6549 38:0.00899344 39:0.6549 40:-0.21134 41:0.00899344 42:0.0179061 43:-0.0360256 44:-0.455829 45:-0.112013 46:0.109201 47:0.114345 48:0.212547 49:0.155337 50:-0.666023 51:-1 52:0.379011 53:0.214296 54:-0.0524208 55:0.370945 56:0.0221795 57:-0.237879 58:-0.238375 59:-0.125307 60:-0.641096 61:-1 
0.1885810511747866 1:-0.0348259 2:-0.523796 3:0.312654 4:-0.0275654 5:-1 6:-0.370309 7:0.387931 8:-0.520001 9:-0.854023 10:-0.241382 11:-0.425287 12:-0.834483 13:-0.893678 14:-0.655172 15:-1 16:-0.293103 17:-1 18:-1 19:-1 20:-1 21:-1 22:-1 23:-1 24:-1 28:-1 30:-0.294989 31:0.210852 32:-0.567766 33:0.210852 34:0.332199 35:-0.567766 36:-0.294989 37:0.210852 38:-0.567766 39:0.210852 40:0.332199 41:-0.567766 42:-0.01391 43:-0.212928 44:0.0948801 45:-0.156313 46:-0.0640016 47:0.171737 48:0.209385 49:-0.510224 50:-1 51:-0.939146 52:0.94087 53:0.50963 54:0.7123 55:0.527054 56:0.500801 57:0.446614 58:0.517665 59:-0.222848 60:-1 61:-0.786792 
0.3728465560141495 1:-0.422886 2:0.111079 3:0.0696707 4:0.210183 5:-1 6:0.454935 7:-0.863637 8:-0.758961 9:-0.450215 10:-1 11:-0.78355 12:-1 13:-0.679654 14:0.298702 15:-0.800866 16:-1 17:-0.735065 18:-1 19:-1 20:-1 21:-1 22:-1 23:-1 24:-1 28:-1 30:-0.335759 31:0.596845 32:-0.017893 33:0.596845 34:-0.277333 35:-0.017893 36:-0.335759 37:0.596845 38:-0.017893 39:0.596845 40:-0.277333 41:-0.017893 42:0.0576664 43:-0.0153545 44:-0.0611268 45:0.0758245 46:-0.968044 47:0.202389 48:-0.0079789 49:0.120515 50:-0.767254 51:-1 52:0.382759 53:0.161793 54:0.372064 55:-0.173666 56:-0.492075 57:-0.259069 58:-0.273228 59:-0.116005 60:-0.847841 61:-1 
0.4453848639635034 1:-0.0547264 2:-0.500515 3:-0.146821 4:-0.413702 5:-0.710526 6:-0.301885 7:0.442982 8:-0.592982 9:-0.554385 10:-0.614036 11:-0.853801 12:-1 13:-0.783625 14:-1 15:-0.865497 16:-1 17:-1 18:-1 19:-1 20:-1 21:-1 22:-1 23:-1 24:-1 28:-1 30:-0.48703 31:0.00231269 32:0.275198 33:0.00231269 34:-0.190218 35:0.275198 36:-0.48703 37:0.00231269 38:0.275198 39:0.00231269 40:-0.190218 41:0.275198 42:-0.140043 43:-0.336526 44:-0.370911 45:-0.134437 46:-0.156355 47:-0.0903338 48:-0.00185498 49:-0.817481 50:-1 51:-1 52:0.457492 53:0.23299 54:0.531986 55:0.393136 56:0.197187 57:-0.827499 58:-0.643871 59:-0.730268 60:-1 61:-1 
0.09893011274169025 1:-0.283582 2:-0.194493 3:0.106994 4:0.133556 5:-1 6:0.243874 7:-0.423078 8:-0.745054 9:-0.813919 10:-1 11:-0.6337 12:-0.789012 13:-0.593407 14:-0.56044 15:-0.15751 16:-1 17:-1 18:-1 19:-1 20:-1 21:-1 22:-1 23:-1 24:-1 28:-1 30:-0.0963593 31:0.562687 32:-0.0399321 33:0.562687 34:-0.412722 35:-0.0399321 36:-0.0963593 37:0.562687 38:-0.0399321 39:0.562687 40:-0.412722 41:-0.0399321 42:0.246891 43:0.164714 44:0.189915 45:0.0498491 46:0.239956 47:0.442246 48:0.340752 49:-0.587571 50:-0.635459 51:-1 52:0.177454 53:0.0235885 54:0.174028 55:-0.0970032 56:-0.306626 57:-0.448744 58:-0.36372 59:-0.674414 60:-0.441382 61:-1 
0.1364454960915349 1:-0.243781 2:-0.758084 3:0.850818 4:0.0563525 5:-1 6:-0.799833 7:0.215787 8:-0.218526 9:0.782457 10:-0.845615 11:-0.473685 12:-0.797896 13:-0.610527 14:-0.789474 15:-0.677194 16:-0.784211 17:-0.570527 18:-1 19:-1 20:-1 21:-1 22:-1 23:-1 24:-1 28:-1 30:-0.122806 31:-0.2469 32:0.170169 33:-0.2469 34:-0.105725 35:0.170169 36:-0.122806 37:-0.2469 38:0.170169 39:-0.2469 40:-0.105725 41:0.170169 42:0.148638 43:0.151726 44:-0.193804 45:-0.093604 46:-0.0976137 47:0.123959 48:-0.173535 49:-0.208292 50:-0.691147 51:-1 52:-0.065563 53:-0.0873941 54:-0.541005 55:-0.0902241 56:0.204107 57:0.302665 58:0.614279 59:0.716126 60:-0.580836 61:-1 
0.4620499631000288 1:-0.800995 2:0.621166 3:-0.287671 4:0.00869617 5:-1 6:0.572192 7:-0.641026 8:-1 9:-1 10:-0.623933 11:-1 12:-1 13:-0.0512808 14:-1 15:-0.606839 16:-1 17:-1 18:-1 19:-1 20:-1 21:-1 22:-1 23:-1 24:-1 28:-1 30:-0.129339 31:0.336074 32:-0.064289 33:0.336074 34:-0.75329 35:-0.064289 36:-0.129339 37:0.336074 38:-0.064289 39:0.336074 40:-0.75329 41:-0.064289 42:0.282652 43:0.134154 44:0.133314 45:-1 46:0.148715 47:0.0488823 48:-1 49:-0.735035 50:-0.72513 51:-1 52:-0.443875 53:-0.449433 54:-0.275257 55:-1 56:-0.725354 57:-0.694944 58:-1 59:-0.948324 60:-0.862915 61:-1 
0.802971976765221 1:-0.711443 2:0.631959 3:0.0513426 4:0.0815814 5:-1 6:0.397772 7:-0.78125 8:-1 9:-0.647221 10:-1 11:0.0416667 12:1 13:-0.743056 14:-0.583334 15:-1 16:-1 17:-1 18:-1 19:-1 20:-1 21:-1 22:-1 23:-1 24:-1 28:-1 30:-0.107464 31:0.276381 32:-0.470748 33:0.276381 34:-0.842331 35:-0.470748 36:-0.107464 37:0.276381 38:-0.470748 39:0.276381 40:-0.842331 41:-0.470748 42:-0.201583 43:-0.233913 44:0.0795036 45:-1 46:0.356767 47:0.529974 48:-1 49:0.49195 50:-0.735285 51:-0.451201 52:-0.486637 53:-0.469411 54:-0.502753 55:-1 56:-0.542606 57:-0.757539 58:-1 59:-0.379689 60:-0.968594 61:-0.911036 
0.1408077009866898 1:-0.462687 2:0.0883304 3:-0.306365 4:-0.0931837 5:-1 6:0.596928 7:-0.808219 8:-0.936438 9:-0.768036 10:-0.196349 11:-1 12:-0.210961 13:-1 14:-0.726028 15:-1 16:-1 17:-0.720549 18:-1 19:-1 20:-1 21:-1 22:-1 23:-1 24:-1 28:-1 30:-0.313863 31:0.634013 32:-0.014946 33:0.634013 34:-0.22781 35:-0.014946 36:-0.313863 37:0.634013 38:-0.014946 39:0.634013 40:-0.22781 41:-0.014946 42:0.0625196 43:-0.0718229 44:-0.0731184 45:0.147079 46:-0.567817 47:0.185001 48:0.196834 49:0.0470662 50:-0.826051 51:-1 52:0.333875 53:0.168878 54:0.432614 55:0.0384383 56:-0.885789 57:-0.237379 58:-0.236775 59:-0.341939 60:-0.924217 61:-1 
0.262073094963889 1:-0.412935 2:-0.325861 3:-0.0748386 4:0.0278228 5:-1 6:-0.0297268 7:0.211538 8:-0.881026 9:-0.457264 10:-0.4359 11:-1 12:-1 13:-0.84188 14:-1 15:-0.803419 16:-1 17:-1 18:-1 19:-1 20:-1 21:-1 22:-1 23:-0.282052 24:-1 28:-1 30:-0.738159 31:0.117941 32:0.0531723 33:0.117941 34:0.109678 35:0.0531723 36:-0.738159 37:0.117941 38:0.0531723 39:0.117941 40:0.109678 41:0.0531723 42:-0.460313 43:-0.664045 44:-0.456511 45:-0.645173 46:-0.56755 47:-0.243408 48:-0.293378 49:-0.605422 50:-0.789814 51:-1 52:0.474903 53:0.448459 54:0.695182 55:0.654931 56:-0.057343 57:0.1116 58:0.0572582 59:-0.462561 60:-0.501756 61:-1 
0.2145483300515502 1:-0.9801 2:0.627259 3:-0.456976 4:-0.0710206 5:-0.47619 6:0.65818 7:-1 8:-0.779048 9:-1 10:-1 11:-0.20635 12:-1 13:-1 14:-1 15:-0.269843 16:-1 17:-1 18:-1 19:-1 20:-1 21:-1 22:-1 23:-1 24:-1 28:-1 30:-0.746555 31:-0.057053 32:0.0538007 33:-0.057053 34:-0.864035 35:0.0538007 36:-0.746555 37:-0.057053 38:0.0538007 39:-0.057053 40:-0.864035 41:0.0538007 42:-0.889201 43:-1 44:-0.446146 45:-1 46:-0.674613 47:-0.71336 48:-1 49:-0.849458 50:-0.85086 51:-1 52:-0.919699 53:-1 54:-0.619654 55:-1 56:-0.448825 57:-0.43696 58:-1 59:-0.743118 60:-0.804041 61:-1 
1.314145907023301 1:-0.154229 2:-0.477923 3:-0.828991 4:-0.760661 5:-1 6:0.83895 7:-0.831731 8:-0.910769 9:-0.755768 10:-1 11:-0.839744 12:-1 13:-1 14:-1 15:-1 16:-1 17:-1 18:-1 19:-1 20:-1 21:-1 22:-1 23:-1 24:-1 28:-1 30:0.103135 31:0.0704689 32:-0.237305 33:0.0704689 34:-0.603812 35:-0.237305 36:0.103135 37:0.0704689 38:-0.237305 39:0.0704689 40:-0.603812 41:-0.237305 42:0.566728 43:0.420294 44:0.477376 45:0.410785 46:0.21411 47:0.288388 48:0.354777 49:-0.0443385 50:0.330073 51:-1 52:0.0413494 53:-0.19659 54:0.367097 55:-0.0354149 56:-0.22713 57:-0.185318 58:-0.322194 59:-0.170035 60:-0.528561 61:-1 
0.1430866518225365 1:-0.552239 2:-0.465779 3:-0.0443528 4:-0.0254758 5:-1 6:-0.23578 7:0.695311 8:-0.9275 9:-0.603124 10:-0.770834 11:-1 12:-1 13:-1 14:-0.6875 15:-1 16:-1 17:-0.68125 18:-1 19:-0.427084 20:-1 21:-1 22:-1 23:-1 24:-1 28:-1 30:-0.624539 31:-0.00145109 32:0.191406 33:-0.00145109 34:-0.420565 35:0.191406 36:-0.624539 37:-0.00145109 38:0.191406 39:-0.00145109 40:-0.420565 41:0.191406 42:-0.820985 43:-0.507114 44:-0.631253 45:-0.573938 46:-0.785503 47:-0.82023 48:-0.779301 49:-0.805041 50:-0.781481 51:-0.742428 52:0.176528 53:0.0695468 54:0.101774 55:-0.297713 56:-0.14495 57:-0.361105 58:-0.395985 59:-0.307439 60:-0.793773 61:-0.85582 
0.2913259665367892 1:-0.333333 2:-0.429171 3:0.0622541 4:-0.0672672 5:-1 6:-0.250513 7:0.587207 8:-0.946046 9:-0.704651 10:-0.658916 11:-0.418605 12:-0.776745 13:-1 14:-1 15:-0.465117 16:-1 17:-0.762791 18:-1 19:-1 20:-1 21:-1 22:-1 23:-1 24:-1 28:-1 30:-0.669718 31:0.196211 32:-0.53319 33:0.196211 34:0.401502 35:-0.53319 36:-0.669718 37:0.196211 38:-0.53319 39:0.196211 40:0.401502 41:-0.53319 42:-0.530583 43:-0.603795 44:-0.355302 45:-0.815722 46:-0.667004 47:-0.469893 48:-0.475903 49:-0.598983 50:-0.651072 51:-0.741748 52:0.902074 53:0.596032 54:0.819763 55:0.780052 56:-0.328051 57:0.258701 58:0.446901 59:0.499148 60:-0.75156 61:-0.797396 
0.2568732325399806 1:-0.343284 2:-0.423633 3:0.168697 4:0.0318453 5:-1 6:-0.265985 7:0.523528 8:-0.890823 9:-0.601568 10:-0.654903 11:-0.803922 12:-0.774118 13:-1 14:-0.764706 15:-0.639216 16:-0.276471 17:-1 18:-1 19:-1 20:-1 21:-1 22:-1 23:-1 24:-1 28:-1 30:-0.612148 31:0.445396 32:-0.505496 33:0.445396 34:0.298739 35:-0.505496 36:-0.612148 37:0.445396 38:-0.505496 39:0.445396 40:0.298739 41:-0.505496 42:-0.416319 43:-0.40591 44:-0.422422 45:-0.520991 46:-0.545136 47:-0.251025 48:-0.158234 49:-0.568382 50:-0.966236 51:-0.722449 52:0.77265 53:0.473758 54:0.785089 55:0.48952 56:-0.36088 57:0.13675 58:0.583058 59:0.398671 60:-0.946518 61:-0.739372 
0.09035625152448137 1:-0.333333 2:-0.435908 3:0.1357 4:0.0245832 5:-1 6:-0.250513 7:0.505814 8:-0.784186 9:-0.704651 10:-0.829458 11:-0.612403 12:-0.776745 13:-1 14:-1 15:-0.643412 16:-0.284884 17:-1 18:-1 19:-1 20:-1 21:-1 22:-1 23:-1 24:-1 28:-1 30:-0.403278 31:0.611322 32:0.0761957 33:0.611322 34:-0.0527261 35:0.0761957 36:-0.403278 37:0.611322 38:0.0761957 39:0.611322 40:-0.0527261 41:0.0761957 42:-0.11264 43:-0.193415 44:-0.0785295 45:-0.266763 46:-0.489757 47:0.0474828 48:0.130118 49:-0.637212 50:-0.942752 51:-1 52:0.575329 53:0.35762 54:0.595295 55:0.252164 56:-0.566171 57:-0.13079 58:-0.00863758 59:-0.626565 60:-0.752666 61:-1 
0.5035692561913735 1:-0.452736 2:-0.0864411 3:-0.0393221 4:0.199131 5:-1 6:0.603249 7:-0.810811 8:-0.937297 9:-0.885585 10:-0.801803 11:-1 12:-0.481083 13:-0.833333 14:-0.72973 15:-0.171172 16:-1 17:-0.724325 18:-1 19:-1 20:-1 21:-1 22:-1 23:-1 24:-1 28:-1 30:0.011029 31:0.239311 32:-0.152686 33:0.239311 34:-0.707172 35:-0.152686 36:0.011029 37:0.239311 38:-0.152686 39:0.239311 40:-0.707172 41:-0.152686 42:0.446431 43:0.428575 44:0.341695 45:0.320164 46:-0.318608 47:0.357723 48:0.453022 49:-1 50:-0.932922 51:-1 52:-0.373068 53:-0.231556 54:0.00548048 55:-0.478439 56:-0.890186 57:-0.645004 58:-0.857345 59:-1 60:-0.977274 61:-1 
0.1075869054206604 1:-0.0945274 2:-0.619424 3:0.0365513 4:-0.151623 5:-0.9 6:-0.254575 7:0.272725 8:-0.535999 9:-0.538181 10:-0.466669 11:-0.69697 12:-1 13:-0.775758 14:-0.818182 15:-1 16:-1 17:-1 18:-1 19:-1 20:-0.6 21:-1 22:-1 23:-1 24:-1 28:-1 30:-0.688232 31:-0.0485726 32:-0.413803 33:-0.0485726 34:0.026902 35:-0.413803 36:-0.688232 37:-0.0485726 38:-0.413803 39:-0.0485726 40:0.026902 41:-0.413803 42:0.0465028 43:-0.123365 44:-0.227532 45:-0.312326 46:-0.475346 47:-0.557529 48:-0.321652 49:-0.773335 50:-0.348297 51:-0.134769 52:0.37401 53:0.217547 54:0.479938 55:0.0737647 56:0.496061 57:0.0979483 58:0.163857 59:-0.492937 60:-0.716599 61:-0.737752 
0.9130914824650506 1:-0.830846 2:0.602745 3:-0.517319 4:-0.0263983 5:-1 6:0.76827 7:-1 8:-0.742222 9:-0.764814 10:-0.592593 11:-1 12:-1 13:-1 14:-1 15:-1 16:-1 17:-1 18:-1 19:0.0185185 20:-1 21:-1 22:-1 23:-1 24:-1 28:-1 30:-0.596372 31:0.107736 32:-0.03506 33:0.107736 34:-0.953238 35:-0.03506 36:-0.596372 37:0.107736 38:-0.03506 39:0.107736 40:-0.953238 41:-0.03506 42:-0.753455 43:-0.782531 44:-0.334444 45:-1 46:0.0878529 47:-0.220724 48:-1 49:-0.169332 50:-0.696013 51:-1 52:-0.895577 53:-0.907801 54:-0.640064 55:-1 56:-0.57584 57:-0.684113 58:-1 59:-0.677487 60:-0.919984 61:-1 
0.555042741193317 1:-0.721393 2:0.596107 3:-0.0252168 4:0.115286 5:-1 6:0.383583 7:-0.62766 8:-0.901276 9:-0.819858 10:-1 11:0.06383 12:-0.591491 13:-0.737588 14:-0.148936 15:-0.673759 16:-1 17:-1 18:-1 19:-1 20:-1 21:-1 22:-1 23:-1 24:-1 28:-1 30:0.396195 31:0.161632 32:0.0854046 33:0.161632 34:-0.842522 35:0.0854046 36:0.396195 37:0.161632 38:0.0854046 39:0.161632 40:-0.842522 41:0.0854046 42:0.0877786 43:-0.065242 44:0.540364 45:-1 46:0.557823 47:0.744955 48:-0.737951 49:0.51804 50:-0.761545 51:-1 52:-0.475409 53:-0.539423 54:-0.440386 55:-1 56:-0.506974 57:-0.713475 58:-0.977504 59:-0.946004 60:-0.929586 61:-1 
0.02451409003892885 1:-0.621891 2:-0.241416 3:-0.195966 4:-0.0858898 5:-1 6:0.428191 7:-0.570176 8:-0.837193 9:-0.405847 10:-1 11:-0.415205 12:-0.663158 13:-1 14:-1 15:-1 16:-1 17:-1 18:-1 19:-1 20:-0.228068 21:-1 22:-1 23:-1 24:-1 28:-1 30:-0.463157 31:-0.32302 32:0.0344743 33:-0.32302 34:-0.592059 35:0.0344743 36:-0.463157 37:-0.32302 38:0.0344743 39:-0.32302 40:-0.592059 41:0.0344743 42:0.0681686 43:-0.151517 44:-0.125604 45:-0.227549 46:-0.452713 47:-0.497611 48:-0.410193 49:-0.852378 50:-0.689692 51:-1 52:0.0736533 53:-0.274702 54:-0.123268 55:-0.359409 56:-0.142087 57:-0.16553 58:0.076479 59:-0.94428 60:-0.501955 61:-1 
0.4751211437980611 1:-0.621891 2:-0.215949 3:-0.320585 4:0.0242211 5:-0.614035 6:0.428191 7:-0.570176 8:-0.837193 9:-0.702924 10:-0.228072 11:-1 12:-1 13:-1 14:-1 15:-1 16:-1 17:-1 18:-1 19:-1 20:-1 21:-1 22:-1 23:-0.017542 24:-1 28:-1 30:-0.563067 31:-0.354816 32:-0.443924 33:-0.354816 34:-0.410493 35:-0.443924 36:-0.563067 37:-0.354816 38:-0.443924 39:-0.354816 40:-0.410493 41:-0.443924 42:-0.291473 43:-0.249523 44:-0.23104 45:-0.369568 46:-0.346133 47:-0.620957 48:-0.594212 49:-0.660326 50:-0.754766 51:-1 52:-0.0100595 53:-0.121535 54:0.19491 55:-0.396559 56:0.00634773 57:0.0664359 58:-0.0377059 59:-0.278585 60:-0.459609 61:-1 
0.01732742813889463 1:-0.59204 2:0.0897027 3:-0.0599025 4:0.217129 5:-1 6:0.602286 7:-0.883334 8:-0.922666 9:-0.717777 10:-0.755556 11:-0.722222 12:-1 13:-0.794444 14:-0.333334 15:-0.744444 16:-0.658333 17:-0.659999 18:-1 19:-1 20:-1 21:-1 22:-1 23:-1 24:-1 28:-1 30:-0.737799 31:-0.0387497 32:-0.469705 33:-0.0387497 34:0.0626774 35:-0.469705 36:-0.737799 37:-0.0387497 38:-0.469705 39:-0.0387497 40:0.0626774 41:-0.469705 42:-0.596896 43:-0.525396 44:-0.602139 45:-0.595514 46:-0.442372 47:-0.637786 48:-0.900962 49:-0.742342 50:-0.785661 51:-0.964937 52:0.550096 53:0.345132 54:-0.204013 55:0.566163 56:0.517021 57:0.169223 58:0.0210017 59:0.383874 60:-0.777857 61:-0.79126 
0.9540200720986217 1:0.0945274 2:-0.820106 3:-0.301476 4:-0.39058 5:-1 6:0.18788 7:-0.158916 8:-0.712248 9:-0.540567 10:-0.658916 11:-1 12:-0.851163 13:-0.808785 14:-1 15:-1 16:-0.841085 17:-1 18:-1 19:-1 20:-1 21:-1 22:-1 23:-1 24:-1 28:-1 30:-0.193363 31:0.364528 32:-0.42593 33:0.364528 34:-0.221408 35:-0.42593 36:-0.193363 37:0.364528 38:-0.42593 39:0.364528 40:-0.221408 41:-0.42593 42:-0.610177 43:-0.684417 44:0.0523474 45:0.193734 46:0.408814 47:0.403101 48:0.598802 49:0.235096 50:0.073823 51:-0.78849 52:-0.35405 53:-0.0154055 54:0.464171 55:0.369991 56:0.0716687 57:-0.245804 58:-0.134177 59:-0.281842 60:-0.505707 61:-0.836568 
0.1606812403001208 1:-0.940299 2:0.638231 3:-0.658284 4:-0.526872 5:-1 6:0.552492 7:-0.44 8:-1 9:-0.661333 10:-1 11:-0.333333 12:-1 13:-1 14:-1 15:-1 16:-1 17:-1 18:-1 19:-1 20:-1 21:-1 22:-1 23:-1 24:-1 28:-1 30:-0.738811 31:-0.0611342 32:0.0388832 33:-0.0611342 34:-0.873119 35:0.0388832 36:-0.738811 37:-0.0611342 38:0.0388832 39:-0.0611342 40:-0.873119 41:0.0388832 42:-0.909314 43:-0.45573 44:-0.438147 45:-1 46:-0.729251 47:-0.55286 48:-1 49:-0.926897 50:-0.722234 51:-1 52:-0.904961 53:-0.613083 54:-0.426567 55:-1 56:-0.350226 57:-0.58484 58:-1 59:-0.683807 60:-0.872374 61:-1 
0.07608583540738087 1:-0.452736 2:0.0957217 3:-0.285316 4:-0.0952072 5:-1 6:0.545571 7:-0.668919 8:-1 9:-0.771171 10:-0.405408 11:-0.54955 12:-0.740542 13:-0.666667 14:-1 15:-1 16:-1 17:-0.724325 18:-1 19:-1 20:-1 21:-1 22:-1 23:-1 24:-1 28:-1 30:-0.391378 31:-0.628126 32:-0.405998 33:-0.628126 34:-0.0420076 35:-0.405998 36:-0.391378 37:-0.628126 38:-0.405998 39:-0.628126 40:-0.0420076 41:-0.405998 42:0.130909 43:0.0749744 44:-0.0680862 45:-0.41945 46:-0.299903 47:-0.225525 48:-0.240695 49:-0.197868 50:-0.743732 51:-0.790056 52:0.150534 53:0.0481932 54:-0.0784987 55:0.0543546 56:0.484172 57:0.120215 58:0.220757 59:0.354266 60:-0.646122 61:-0.786838 
0.1002913525296619 1:-0.572139 2:-0.399427 3:-0.308301 4:-0.37379 5:-1 6:0.238577 7:-0.0403217 8:-0.925161 9:-0.863441 10:-0.763442 11:-0.462365 12:-1 13:-0.801075 14:-0.67742 15:-1 16:-1 17:-1 18:-1 19:-1 20:-1 21:-1 22:-1 23:-1 24:-1 28:-1 30:-0.631476 31:-0.0541641 32:0.132993 33:-0.0541641 34:-0.45363 35:0.132993 36:-0.631476 37:-0.0541641 38:0.132993 39:-0.0541641 40:-0.45363 41:0.132993 42:-0.87793 43:-0.486396 44:-0.536554 45:-0.375669 46:-0.482817 47:-0.757762 48:-0.834653 49:-0.523609 50:-0.589332 51:-1 52:0.211663 53:0.00255349 54:0.131936 55:0.00521344 56:-0.208557 57:-0.365342 58:-0.433847 59:-0.578703 60:-0.748341 61:-1 
0.7439588774720087 1:-0.99005 2:0.614474 3:-0.352645 4:0.129764 5:-0.449999 6:0.637855 7:-0.825 8:-1 9:-1 10:-1 11:-1 12:-1 13:-1 14:-1 15:0.533331 16:-1 17:-1 18:-1 19:-1 20:-1 21:-1 22:-1 23:-1 24:-1 28:-1 30:-0.648889 31:-0.0312453 32:0.108203 33:-0.0312453 34:-0.961545 35:0.108203 36:-0.648889 37:-0.0312453 38:0.108203 39:-0.0312453 40:-0.961545 41:0.108203 42:-0.911199 43:-0.824849 44:-0.458266 45:-1 46:-0.75395 47:-0.747656 48:-1 49:-0.801313 50:-0.924391 51:-1 52:-0.903082 53:-0.982709 54:-0.670147 55:-1 56:-0.89209 57:-0.645994 58:-1 59:-0.781546 60:-0.73946 61:-1 
0.2998700523848539 1:0.0845771 2:-0.688783 3:-0.201851 4:-0.218394 5:-1 6:0.247721 7:-0.316409 8:-0.71 9:-0.66927 10:-0.656251 11:-0.869792 12:-1 13:-0.710937 14:-0.53125 15:-0.880209 16:-1 17:-1 18:-1 19:-1 20:-1 21:-1 22:-1 23:-1 24:-1 28:-1 30:0.17805 31:0.140131 32:-0.0802787 33:0.140131 34:-0.076119 35:-0.0802787 36:0.17805 37:0.140131 38:-0.0802787 39:0.140131 40:-0.076119 41:-0.0802787 42:0.640943 43:0.502225 44:0.490628 45:0.469357 46:0.398667 47:0.648801 48:0.558372 49:-0.325709 50:-0.196812 51:-0.292816 52:0.637 53:0.412099 54:0.269104 55:0.241263 56:0.170339 57:-0.0357027 58:0.123312 59:-0.933071 60:-0.695546 61:-0.697673 
0.04077212718955908 1:-0.830846 2:0.646455 3:-0.321256 4:0.0768738 5:-0.694444 6:0.531151 7:-0.708334 8:-1 9:-0.764814 10:-1 11:-0.537037 12:-0.466668 13:-0.657407 14:-1 15:-1 16:-1 17:-1 18:-0.236111 19:-1 20:-1 21:-1 22:-1 23:-1 24:-1 28:-1 30:-0.6269 31:0.143599 32:-0.0144505 33:0.143599 34:-0.915586 35:-0.0144505 36:-0.6269 37:0.143599 38:-0.0144505 39:0.143599 40:-0.915586 41:-0.0144505 42:-0.580559 43:-0.447418 44:-0.35217 45:-1 46:-0.16687 47:-0.193989 48:-0.728553 49:-0.114226 50:-1 51:-1 52:-0.833854 53:-0.868157 54:-0.630314 55:-1 56:-0.434973 57:-0.718783 58:-0.97382 59:-0.950954 60:-1 61:-1 
0.2481564422183106 1:-0.562189 2:-0.306457 3:-0.136188 4:0.208869 5:-1 6:0.556557 7:-0.777778 8:-0.705396 9:-1 10:-0.767197 11:-0.4709 12:-1 13:-0.804233 14:-0.68254 15:-1 16:-1 17:-0.676191 18:-1 19:-1 20:-1 21:-0.20635 22:-1 23:-1 24:-1 28:-1 30:-0.830827 31:-0.134858 32:-0.0279872 33:-0.134858 34:-0.123653 35:-0.0279872 36:-0.830827 37:-0.134858 38:-0.0279872 39:-0.134858 40:-0.123653 41:-0.0279872 42:-0.305286 43:-0.445326 44:-0.543335 45:-0.763551 46:-0.672682 47:-0.586188 48:-0.756377 49:-0.78181 50:-1 51:-1 52:0.460406 53:0.032688 54:0.306721 55:0.297269 56:0.339475 57:0.169492 58:0.109058 59:-0.432881 60:-1 61:-1 
0.2896208412602716 1:-0.303483 2:-0.430125 3:0.126766 4:0.051843 5:-0.876404 6:-0.206182 7:0.455054 8:-0.947865 9:-0.619475 10:-0.670413 11:-0.812733 12:-0.784269 13:-1 14:-1 15:-0.483146 16:-0.308988 17:-1 18:-1 19:-1 20:-1 21:-1 22:-1 23:-1 24:-1 28:-1 30:-0.632895 31:-0.2941 32:-0.53529 33:-0.2941 34:0.442731 35:-0.53529 36:-0.632895 37:-0.2941 38:-0.53529 39:-0.2941 40:0.442731 41:-0.53529 42:-0.415425 43:-0.471666 44:-0.416182 45:-0.527755 46:-0.852429 47:-0.853669 48:-0.737059 49:-0.688723 50:-0.63526 51:-0.762444 52:0.752784 53:0.484803 54:0.847398 55:0.672151 56:-0.316701 57:0.358702 58:0.517825 59:0.453244 60:-0.814434 61:-0.690283 
0.2191760451441405 1:-0.781095 2:0.652675 3:-0.535571 4:-0.0859045 5:-0.731708 6:0.752367 7:-0.914634 8:-1 9:-1 10:-1 11:-0.186992 12:-1 13:-0.699187 14:-1 15:-1 16:-0.500001 17:-1 18:-1 19:-1 20:-1 21:-1 22:-1 23:-1 24:-1 28:-1 30:-0.585255 31:-0.441968 32:-0.38594 33:-0.441968 34:-0.439442 35:-0.38594 36:-0.585255 37:-0.441968 38:-0.38594 39:-0.441968 40:-0.439442 41:-0.38594 42:-0.216521 43:-0.175527 44:-0.139493 45:-1 46:-0.325539 47:-0.636125 48:-1 49:-0.779044 50:-0.960245 51:-1 52:0.157747 53:-0.00311674 54:-0.113336 55:-1 56:-0.124382 57:-0.221496 58:-1 59:-0.0418525 60:-0.6963 61:-1 
0.2719448645942196 1:-0.830846 2:0.642804 3:-0.206443 4:0.161357 5:-1 6:0.649712 7:-0.902778 8:-0.871111 9:-1 10:-0.592593 11:-1 12:-1 13:-0.314814 14:-0.444444 15:-1 16:-1 17:-0.433333 18:-1 19:-1 20:-1 21:-1 22:-1 23:-1 24:-1 28:-1 30:-0.619592 31:0.241853 32:-0.00157975 33:0.241853 34:-0.859146 35:-0.00157975 36:-0.619592 37:0.241853 38:-0.00157975 39:0.241853 40:-0.859146 41:-0.00157975 42:-0.560076 43:-0.369517 44:-0.215147 45:-1 46:-0.21946 47:-0.253158 48:-1 49:-0.562809 50:-0.725733 51:-1 52:-0.861444 53:-0.689294 54:-0.368307 55:-1 56:-0.269722 57:-0.672302 58:-1 59:-0.682943 60:-0.967857 61:-1 
0.5787915455967391 1:-0.691542 2:0.655796 3:-0.0838216 4:0.218744 5:-0.78 6:0.424448 7:-0.65 8:-0.9072 9:-0.661333 10:-1 11:-1 12:-1 13:-0.259999 14:-0.6 15:-1 16:-0.18 17:-1 18:-1 19:-1 20:-1 21:-1 22:-1 23:-1 24:-1 28:-1 30:-0.78136 31:-0.231046 32:-0.397936 33:-0.231046 34:-0.0236607 35:-0.397936 36:-0.78136 37:-0.231046 38:-0.397936 39:-0.231046 40:-0.0236607 41:-0.397936 42:-0.230321 43:-0.388313 44:-0.371135 45:-1 46:-0.568917 47:-0.542921 48:-0.787742 49:-0.798385 50:-0.803399 51:-1 52:0.336626 53:0.251547 54:0.432818 55:-1 56:0.178191 57:0.0991766 58:-0.949854 59:0.292323 60:-0.993917 61:-1 
0.2382151487762247 1:-0.273632 2:-0.748031 3:0.881049 4:0.0654057 5:-1 6:-0.814241 7:0.255435 8:-0.293912 9:0.748556 10:-0.84058 11:-0.637682 12:-0.165219 13:-0.597826 14:-0.782608 15:-1 16:-0.331522 17:-0.77826 18:-1 19:-1 20:-1 21:-1 22:-1 23:-1 24:-1 28:-1 30:-0.375587 31:-0.0808953 32:0.199056 33:-0.0808953 34:-0.0490416 35:0.199056 36:-0.375587 37:-0.0808953 38:0.199056 39:-0.0808953 40:-0.0490416 41:0.199056 42:-0.0321329 43:-0.209952 44:-0.101391 45:-0.193425 46:-0.583764 47:-0.447039 48:-0.50052 49:-0.840687 50:-1 51:-0.855768 52:0.290422 53:0.174184 54:0.222654 55:0.272668 56:0.597319 57:0.515046 58:0.425469 59:-0.614751 60:-1 61:-0.807335 
0.6091495622884967 1:-0.970149 2:0.632949 3:-0.640173 4:-0.44635 5:-0.5 6:0.579652 7:-0.840909 8:-1 9:-1 10:1 11:-1 12:-1 13:-1 14:-1 15:-1 16:-1 17:-1 18:-1 19:-1 20:-1 21:-1 22:-1 23:-1 24:-1 28:-1 30:-0.676888 31:-0.0785196 32:0.083903 33:-0.0785196 34:-0.841818 35:0.083903 36:-0.676888 37:-0.0785196 38:0.083903 39:-0.0785196 40:-0.841818 41:0.083903 42:-0.906769 43:-1 44:-0.391264 45:-1 46:-0.67199 47:-0.757593 48:-1 49:-0.71445 50:-1 51:-1 52:-0.9099 53:-1 54:-0.469639 55:-1 56:-0.457974 57:-0.428925 58:-1 59:-0.459197 60:-1 61:-1 
0.3232987427827883 1:-0.442786 2:0.0951122 3:-0.347408 4:-0.139825 5:-1 6:0.524039 7:-0.626666 8:-0.690666 9:-0.887111 10:-1 11:-1 12:-0.744001 13:-1 14:-0.2 15:-1 16:-0.726667 17:-1 18:-1 19:-1 20:-1 21:-1 22:-1 23:-1 24:-1 28:-1 30:-0.331609 31:0.620896 32:-0.0116506 33:0.620896 34:-0.22153 35:-0.0116506 36:-0.331609 37:0.620896 38:-0.0116506 39:0.620896 40:-0.22153 41:-0.0116506 42:0.0410393 43:-0.0434236 44:-0.531401 45:0.0312758 46:0.130226 47:0.116706 48:0.210127 49:0.136796 50:-0.746449 51:-1 52:0.328611 53:0.188839 54:-0.705747 55:0.343823 56:-0.190841 57:-0.242287 58:-0.227513 59:-0.086817 60:-0.7958 61:-1 
0.2885874283349996 1:-0.542289 2:-0.227409 3:-0.528322 4:-0.572526 5:-1 6:0.473696 7:-0.407692 8:-0.857231 9:-0.60923 10:-1 11:-0.74359 12:-1 13:-0.810256 14:-1 15:-1 16:-1 17:-1 18:-1 19:-1 20:-1 21:-1 22:-1 23:-1 24:-1 28:-1 30:-0.350846 31:-0.298564 32:0.0654543 33:-0.298564 34:-0.580837 35:0.0654543 36:-0.350846 37:-0.298564 38:0.0654543 39:-0.298564 40:-0.580837 41:0.0654543 42:0.200419 43:-0.115046 44:-0.224645 45:-0.135387 46:-0.333567 47:-0.393342 48:-0.207277 49:-0.461502 50:-0.858493 51:-1 52:-0.215144 53:-0.329245 54:-0.658683 55:-0.149062 56:-0.0500105 57:0.0383187 58:0.167152 59:0.0157723 60:-0.571271 61:-1 
0.2863630013860528 1:-0.263682 2:-0.435643 3:0.117821 4:0.0247814 5:-1 6:-0.243309 7:0.580644 8:-0.950107 9:-0.817921 10:-0.211472 11:-1 12:-0.793549 13:-0.867383 14:-1 15:-1 16:-0.118279 17:-0.780645 18:-1 19:-1 20:-1 21:-1 22:-1 23:-1 24:-1 28:-1 30:-0.697784 31:-0.141345 32:-0.524292 33:-0.141345 34:0.411318 35:-0.524292 36:-0.697784 37:-0.141345 38:-0.524292 39:-0.141345 40:0.411318 41:-0.524292 42:-0.413535 43:-0.374876 44:-0.311239 45:-0.479372 46:-0.762796 47:-0.794527 48:-0.654729 49:-0.57947 50:-0.803725 51:-1 52:0.903929 53:0.511393 54:0.752115 55:0.720765 56:0.463399 57:0.365978 58:0.436279 59:-0.638842 60:-0.748877 61:-1 
0.3816284533149303 1:-0.114428 2:-0.598705 3:0.449678 4:0.0442359 5:-1 6:-0.496362 7:0.231481 8:-0.0977788 9:-0.686419 10:-0.864198 11:-0.537037 12:0.24444 13:-1 14:-1 15:-1 16:-0.240742 17:-1 18:-0.74537 19:-1 20:-1 21:-1 22:-1 23:-1 24:-1 28:-1 30:-0.368362 31:0.0341463 32:-0.521026 33:0.0341463 34:0.164978 35:-0.521026 36:-0.368362 37:0.0341463 38:-0.521026 39:0.0341463 40:0.164978 41:-0.521026 42:0.225843 43:-0.0298423 44:0.0493834 45:-0.411397 46:-0.350374 47:-0.0550356 48:-0.0399145 49:-0.841688 50:-1 51:-1 52:0.487343 53:0.170702 54:0.384616 55:-0.0280185 56:0.613005 57:0.457318 58:0.351548 59:-0.838186 60:-1 61:-1 
0.07133332334978468 1:-0.60199 2:-0.246487 3:-0.118183 4:-0.267445 5:-0.813559 6:0.341255 7:-0.70339 8:-0.842712 9:-0.856496 10:0.242935 11:0.41243 12:-1 13:-0.79096 14:-1 15:-1 16:-1 17:-1 18:-1 19:-1 20:-1 21:-1 22:-1 23:-1 24:-1 28:-1 30:-0.576339 31:-0.377284 32:0.115064 33:-0.377284 34:-0.418518 35:0.115064 36:-0.576339 37:-0.377284 38:0.115064 39:-0.377284 40:-0.418518 41:0.115064 42:-0.0493762 43:-0.328481 44:-0.319993 45:-0.356781 46:-0.720324 47:-0.746511 48:-0.676966 49:-0.736279 50:-0.798973 51:-0.918259 52:0.0641433 53:0.00964469 54:0.17546 55:0.182279 56:-0.219132 57:-0.05976 58:0.165251 59:-0.523993 60:-0.784564 61:-0.741806 
0.6584702949671422 1:-0.920398 2:0.636855 3:0.16686 4:0.458161 5:-0.592593 6:0.274273 7:-0.611112 8:-0.828148 9:-0.686419 10:-1 11:-1 12:-1 13:-1 14:-0.25926 15:0.135801 16:-0.240742 17:-1 18:-1 19:-1 20:-1 21:-1 22:-1 23:-1 24:-1 28:-1 30:-0.719674 31:0.0906921 32:0.0799559 33:0.0906921 34:-0.60013 35:0.0799559 36:-0.719674 37:0.0906921 38:0.0799559 39:0.0906921 40:-0.60013 41:0.0799559 42:-0.890259 43:-0.844118 44:-0.606258 45:-1 46:-0.5053 47:-0.631537 48:-1 49:-0.669406 50:-1 51:-1 52:-0.179839 53:-0.343819 54:0.108944 55:-1 56:-0.450336 57:-0.453366 58:-1 59:-0.349622 60:-1 61:-1 
0.4725384326374229 1:-0.472637 2:0.0998865 3:-0.499509 4:-0.332544 5:-1 6:0.590432 7:-0.659723 8:-0.806666 9:-0.882407 10:-0.38889 11:-1 12:-1 13:-0.828703 14:-1 15:-1 16:-0.715278 17:-1 18:-1 19:-1 20:-1 21:-1 22:-1 23:-1 24:-1 28:-1 30:-0.456244 31:0.622922 32:-0.421954 33:0.622922 34:-0.0634462 35:-0.421954 36:-0.456244 37:0.622922 38:-0.421954 39:0.622922 40:-0.0634462 41:-0.421954 42:-0.00240617 43:-0.211186 44:-0.233349 45:-0.296309 46:-0.0546921 47:-0.0485774 48:0.0301638 49:-0.045726 50:-0.702281 51:-0.848039 52:0.520472 53:0.369332 54:0.419574 55:-0.0741663 56:-0.0299353 57:-0.041907 58:-0.00802923 59:0.154573 60:-0.827285 61:-0.724445 
0.1177179842430324 1:-0.60199 2:-0.231858 3:-0.149428 4:0.0828 5:-0.813559 6:0.377426 7:-0.406778 8:-0.921356 9:-0.712994 10:-1 11:-1 12:-1 13:-0.581921 14:-0.661016 15:-0.740113 16:-1 17:-1 18:-0.533897 19:-1 20:-1 21:-1 22:-1 23:-1 24:-1 28:-1 30:-0.372911 31:-0.344921 32:-0.440766 33:-0.344921 34:-0.531278 35:-0.440766 36:-0.372911 37:-0.344921 38:-0.440766 39:-0.344921 40:-0.531278 41:-0.440766 42:0.0611574 43:-0.106584 44:-0.767219 45:-0.217595 46:-0.472737 47:-0.521752 48:-0.392196 49:-0.893622 50:-0.827059 51:-1 52:-0.165375 53:-0.321035 54:-0.524734 55:0.00436782 56:-0.141317 57:-0.0302985 58:0.110725 59:-0.281684 60:-0.987465 61:-1 
0.4071803194494107 1:-0.482587 2:0.0922878 3:-0.0781277 4:0.132083 5:-1 6:0.463523 7:-0.605634 8:-1 9:-0.642253 10:-0.793428 11:-0.765258 12:-1 13:-0.652582 14:0.12676 15:-1 16:-1 17:-1 18:-0.612676 19:-1 20:-1 21:-1 22:-1 23:-1 24:-1 28:-1 30:-0.145414 31:-0.52477 32:-0.330014 33:-0.52477 34:-0.47597 35:-0.330014 36:-0.145414 37:-0.52477 38:-0.330014 39:-0.52477 40:-0.47597 41:-0.330014 42:0.444548 43:0.317449 44:0.0559191 45:-0.140126 46:-0.0794771 47:0.0794408 48:-0.664785 49:0.0439411 50:-0.916007 51:-1 52:-0.239352 53:-0.252879 54:-0.0489306 55:-0.267152 56:-0.0532867 57:-0.0964511 58:-0.709534 59:-0.0461641 60:-0.814412 61:-1 
0.3969878753141093 1:-0.263682 2:-0.509751 3:-0.516431 4:-0.520427 5:-1 6:0.353313 7:-0.0215057 8:-0.900215 9:-0.90896 10:-1 11:-1 12:-1 13:-0.867383 14:-1 15:-0.835126 16:-1 17:-1 18:-1 19:-1 20:-1 21:-1 22:-1 23:-1 24:-1 28:-1 30:0.151762 31:0.0206796 32:-0.192719 33:0.0206796 34:-0.702381 35:-0.192719 36:0.151762 37:0.0206796 38:-0.192719 39:0.0206796 40:-0.702381 41:-0.192719 42:0.46156 43:0.403196 44:0.433144 45:0.436777 46:0.292521 47:0.359914 48:0.402238 49:0.127634 50:-0.552493 51:-1 52:-0.0857549 53:-0.21314 54:-0.199375 55:-0.251326 56:-0.383019 57:-0.362707 58:-0.337751 59:-0.30434 60:-0.685441 61:-1 
0.4966556962600679 1:0.522388 2:-0.755703 3:-0.171251 4:-0.385598 5:-0.936046 6:-0.0395884 7:0.0174422 8:-0.595348 9:-0.556976 10:-0.488374 11:-0.806202 12:-0.665117 13:-0.856589 14:-1 15:-1 16:-0.880814 17:-1 18:-1 19:-1 20:-1 21:-1 22:-1 23:-1 24:-1 28:-1 30:-0.175814 31:0.0113021 32:-0.047258 33:0.0113021 34:0.43555 35:-0.047258 36:-0.175814 37:0.0113021 38:-0.047258 39:0.0113021 40:0.43555 41:-0.047258 42:0.146341 43:0.476721 44:0.358313 45:0.217697 46:-0.193683 47:-0.191978 48:-0.154376 49:-0.583922 50:-0.4655 51:-0.806463 52:0.653791 53:0.439749 54:0.557282 55:0.767233 56:1 57:1 58:1 59:0.305703 60:0.776348 61:-0.422169 
0.5410308527831638 1:-0.263682 2:-0.319182 3:0.194941 4:0.43063 5:-0.88172 6:0.169736 7:-0.322583 8:-0.850322 9:-0.726881 10:-0.684588 11:-0.103943 12:-0.587098 13:-0.867383 14:-1 15:-1 16:-0.77957 17:-1 18:-1 19:-1 20:-0.526881 21:-1 22:-1 23:0.204302 24:-1 28:-1 30:-0.311307 31:-0.464876 32:-0.442113 33:-0.464876 34:-0.462512 35:-0.442113 36:-0.311307 37:-0.464876 38:-0.442113 39:-0.464876 40:-0.462512 41:-0.442113 42:0.223691 43:0.0623505 44:0.0277652 45:0.00643459 46:-0.385162 47:-0.271511 48:-0.0892203 49:-0.398225 50:-0.625306 51:-0.951493 52:-0.124663 53:-0.0280371 54:0.0899214 55:0.0615564 56:-0.260044 57:0.0568623 58:0.282732 59:-0.295389 60:-0.560239 61:-0.978059 
0.07823741907448017 1:-0.572139 2:-0.457363 3:-0.244281 4:-0.361666 5:-1 6:-0.0712067 7:0.467741 8:-0.850322 9:-0.726881 10:-0.763442 11:-1 12:-0.690324 13:-1 14:-1 15:-1 16:-1 17:-0.670968 18:-1 19:-1 20:-1 21:-1 22:-1 23:-1 24:-1 28:-1 30:-0.605474 31:0.0204797 32:0.201354 33:0.0204797 34:-0.422365 35:0.201354 36:-0.605474 37:0.0204797 38:0.201354 39:0.0204797 40:-0.422365 41:0.201354 42:-0.873257 43:-0.929846 44:-0.587472 45:-0.619574 46:-0.804309 47:-0.900617 48:-0.820713 49:-0.854641 50:-0.671215 51:-1 52:0.204861 53:-0.0394485 54:0.098629 55:-0.179341 56:-0.306143 57:-0.373101 58:-0.349503 59:-0.284559 60:-0.914185 61:-1 
1.336838703757286 1:-0.393035 2:-0.206678 3:-0.63196 4:-0.326718 5:-0.8625 6:0.771234 7:-0.9125 8:-0.884 9:-0.682499 10:-1 11:-0.791667 12:-1 13:-1 14:-1 15:-0.616667 16:-1 17:-1 18:-1 19:-1 20:-1 21:-1 22:-1 23:-1 24:-1 28:-1 30:0.288635 31:0.131071 32:0.0757024 33:0.131071 34:-0.813409 35:0.0757024 36:0.288635 37:0.131071 38:0.0757024 39:0.131071 40:-0.813409 41:0.0757024 42:0.618356 43:0.5333 44:0.467356 45:0.334672 46:0.0302288 47:-0.684947 48:-0.135087 49:-0.465449 50:-0.469037 51:-1 52:-0.291874 53:-0.349653 54:-0.276333 55:-0.352103 56:-0.335949 57:-0.640597 58:-0.367722 59:-0.502309 60:-0.314076 61:-1 
0.06287180715957991 1:-0.482587 2:-0.430501 3:-0.426856 4:-0.168176 5:-1 6:0.734037 7:-0.852113 8:-0.869296 9:-0.880751 10:-1 11:-0.765258 12:-0.729578 13:-0.826291 14:-1 15:-0.784038 16:-0.711268 17:-1 18:-1 19:-1 20:-1 21:-1 22:-1 23:-1 24:-1 28:-1 30:-0.188319 31:-0.0553456 32:0.310955 33:-0.0553456 34:-0.514277 35:0.310955 36:-0.188319 37:-0.0553456 38:0.310955 39:-0.0553456 40:-0.514277 41:0.310955 42:-0.225439 43:-0.490744 44:-0.406661 45:-0.321538 46:-0.365419 47:-0.545383 48:-0.189833 49:-0.54695 50:-0.79947 51:-0.611051 52:-0.331773 53:-0.261886 54:0.0611552 55:-0.262743 56:0.0631695 57:0.0133052 58:0.239533 59:-0.255639 60:-0.582132 61:-0.735918 
0.01208653688728386 1:-0.671642 2:-0.22964 3:-0.389126 4:-0.352339 5:-0.788461 6:0.325952 7:-0.394231 8:-0.732307 9:-0.674359 10:-1 11:-0.679487 12:-1 13:-0.76282 14:-0.615384 15:-1 16:-1 17:-1 18:-1 19:-1 20:-1 21:-1 22:-1 23:-1 24:-1 28:-1 30:-0.366661 31:-0.330767 32:-0.377801 33:-0.330767 34:-0.618125 35:-0.377801 36:-0.366661 37:-0.330767 38:-0.377801 39:-0.330767 40:-0.618125 41:-0.377801 42:-0.0702623 43:-0.0755865 44:-0.0223568 45:-0.859575 46:-0.217654 47:-0.401683 48:-0.362669 49:-0.79986 50:-0.787802 51:-1 52:-0.430248 53:-0.452236 54:-0.152768 55:-0.65491 56:-0.187828 57:-0.0466125 58:0.0698772 59:-0.636462 60:-0.936182 61:-1 
0.07060150797157624 1:-0.313433 2:-0.253158 3:-0.0499096 4:0.0192786 5:-1 6:0.118888 7:-0.0852267 8:-0.841818 9:-0.615151 10:-0.833334 11:-0.431818 12:-0.78182 13:-1 14:-0.772728 15:-0.651515 16:-1 17:-1 18:-1 19:-1 20:-1 21:-0.43182 22:-1 23:-1 24:-1 28:-1 30:0.0171027 31:-0.486628 32:-0.375861 33:-0.486628 34:-0.486554 35:-0.375861 36:0.0171027 37:-0.486628 38:-0.375861 39:-0.486628 40:-0.486554 41:-0.375861 42:0.618808 43:0.335616 44:0.417592 45:-0.0740632 46:0.00666093 47:0.0148914 48:0.218144 49:-0.484027 50:-1 51:-1 52:0.133867 53:-0.0870619 54:0.0372913 55:-0.627962 56:0.0776928 57:0.115605 58:0.179144 59:-0.523252 60:-1 61:-1 
0.5729969533362155 1:-0.960199 2:0.639332 3:-0.650521 4:-0.489431 5:-1 6:0.507954 7:-0.391305 8:-0.79826 9:-1 10:-1 11:-1 12:-0.165219 13:-1 14:-1 15:-1 16:-1 17:-1 18:-1 19:-1 20:-1 21:-1 22:-1 23:-1 24:-1 28:-1 30:-0.743692 31:-0.0777668 32:0.0359047 33:-0.0777668 34:-0.857129 35:0.0359047 36:-0.743692 37:-0.0777668 38:0.0359047 39:-0.0777668 40:-0.857129 41:0.0359047 42:-0.877167 43:-0.738738 44:-0.524754 45:-1 46:-0.659528 47:-0.636538 48:-1 49:-0.680194 50:-1 51:-1 52:-0.946644 53:-0.98632 54:-0.564865 55:-1 56:-0.444628 57:-0.469973 58:-1 59:-0.491858 60:-1 61:-1 
0.4141312438620912 1:-0.21393 2:-0.446781 3:-0.42396 4:-0.26684 5:-1 6:0.607368 7:-0.714286 8:-0.905306 9:-0.82721 10:-1 11:-0.14966 12:-0.608164 13:-1 14:-0.795918 15:-0.843537 16:-1 17:-1 18:-1 19:-1 20:-1 21:-1 22:-1 23:-1 24:-1 28:-1 30:-0.343233 31:0.263223 32:-0.54562 33:0.263223 34:0.191749 35:-0.54562 36:-0.343233 37:0.263223 38:-0.54562 39:0.263223 40:0.191749 41:-0.54562 42:-0.251115 43:-0.404297 44:-0.433123 45:-0.301771 46:0.0870223 47:0.27505 48:0.174932 49:-0.754911 50:-0.805881 51:-1 52:0.74592 53:0.365819 54:0.536174 55:0.259152 56:0.642232 57:0.212743 58:0.156756 59:-0.374664 60:-0.806415 61:-1 
0.006676014091370742 1:-0.522388 2:-0.221486 3:0.137125 4:0.161462 5:-1 6:0.300226 7:-0.529852 8:-0.930746 9:-1 10:0.313429 11:-0.004975 12:-0.713433 13:-1 14:-0.701492 15:-0.771144 16:-1 17:-1 18:-1 19:-1 20:-1 21:-0.25373 22:-1 23:-1 24:-1 28:-1 30:-0.621867 31:-0.308806 32:0.0379146 33:-0.308806 34:-0.338609 35:0.0379146 36:-0.621867 37:-0.308806 38:0.0379146 39:-0.308806 40:-0.338609 41:0.0379146 42:-0.054517 43:-0.331331 44:-0.219173 45:-0.326466 46:-0.582959 47:-0.714647 48:-0.658381 49:-0.722956 50:-0.74459 51:-1 52:0.0807087 53:0.0107365 54:0.184575 55:0.374287 56:-0.0773658 57:0.234154 58:0.154851 59:-0.582451 60:-0.862888 61:-1 
0.01529700730683347 1:-0.412935 2:0.0947707 3:0.037405 4:0.235419 5:-1 6:0.462752 7:-0.820513 8:-0.821538 9:-0.457264 10:-0.811967 11:-1 12:-1 13:-0.683761 14:-0.23077 15:-0.606839 16:-0.73718 17:-0.738462 18:-1 19:-1 20:-1 21:-1 22:-1 23:-1 24:-1 28:-1 30:-0.602249 31:0.554831 32:-0.448373 33:0.554831 34:0.22302 35:-0.448373 36:-0.602249 37:0.554831 38:-0.448373 39:0.554831 40:0.22302 41:-0.448373 42:-0.314858 43:-0.461752 44:-0.222761 45:-0.200179 46:-0.240132 47:-0.552181 48:-0.122543 49:-0.754798 50:-0.884684 51:-1 52:0.761833 53:0.474145 54:0.73696 55:0.64593 56:0.20851 57:-0.100265 58:0.158341 59:-0.68203 60:-0.770367 61:-1 
0.5562931013389196 1:-0.313433 2:-0.443554 3:0.0968178 4:0.022249 5:-1 6:-0.123619 7:0.312499 8:-0.894545 9:-0.615151 10:-0.666667 11:-1 12:-0.563637 13:-0.859849 14:-0.545454 15:-0.825758 16:-0.767046 17:-1 18:-0.687501 19:-1 20:-1 21:-1 22:-1 23:-1 24:-1 28:-1 30:-0.0207572 31:0.510941 32:-0.0577906 33:0.510941 34:-0.584934 35:-0.0577906 36:-0.0207572 37:0.510941 38:-0.0577906 39:0.510941 40:-0.584934 41:-0.0577906 42:0.371679 43:0.275364 44:0.255249 45:0.280902 46:0.257586 47:-0.417082 48:0.427688 49:0.0809353 50:-1 51:-1 52:-0.0905428 53:-0.238162 54:-0.114193 55:0.00523113 56:-0.587005 57:-0.944245 58:-0.494551 59:-0.676458 60:-1 61:-1 
0.5681108340663719 1:-0.462687 2:-0.228402 3:-0.177966 4:-0.0244947 5:-1 6:0.596928 7:-0.856164 8:-0.936438 9:-0.768036 10:-0.598174 11:-1 12:0.052051 13:-0.83105 14:-0.452054 15:-1 16:-0.719179 17:-1 18:-1 19:-1 20:-1 21:-1 22:-1 23:-1 24:-1 28:-1 30:-0.724907 31:0.0191868 32:0.0894261 33:0.0191868 34:-0.0413701 35:0.0894261 36:-0.724907 37:0.0191868 38:0.0894261 39:0.0191868 40:-0.0413701 41:0.0894261 42:-0.400083 43:-0.650795 44:-0.569127 45:-0.696421 46:-0.599907 47:-0.407983 48:-0.499838 49:-0.478532 50:-1 51:-0.813188 52:0.369034 53:0.133052 54:0.236799 55:-0.144087 56:0.314585 57:0.249135 58:0.173742 59:-0.189466 60:-1 61:-0.664046 
0.08981892923435487 1:-0.383085 2:0.0993472 3:0.12597 4:0.304712 5:-1 6:0.458698 7:-0.740741 8:-1 9:-0.790946 10:-0.0946525 11:-1 12:-0.762963 13:-0.695472 14:-0.25926 15:-1 16:-0.493826 17:-0.496295 18:-1 19:-1 20:-1 21:-1 22:-1 23:-1 24:-1 28:-1 30:-0.353828 31:0.721462 32:0.00150917 33:0.721462 34:-0.117082 35:0.00150917 36:-0.353828 37:0.721462 38:0.00150917 39:0.721462 40:-0.117082 41:0.00150917 42:0.0768384 43:-0.120915 44:0.0131426 45:0.0705903 46:0.0453742 47:-0.148028 48:0.134903 49:-0.707455 50:-0.647449 51:-1 52:0.430785 53:0.330023 54:0.444576 55:0.313063 56:-0.187824 57:-0.151834 58:-0.171012 59:-0.733327 60:-0.802819 61:-1 
0.01370836528320526 1:-0.542289 2:-0.428855 3:-0.215323 4:-0.215631 5:-1 6:-0.0844465 7:0.50769 8:-0.785846 9:-0.739487 10:-1 11:-1 12:-1 13:-1 14:-1 15:-1 16:-0.684616 17:-1 18:-0.576924 19:-1 20:-1 21:-1 22:-1 23:-1 24:-1 28:-1 30:-0.542768 31:0.061226 32:0.171791 33:0.061226 34:-0.455164 35:0.171791 36:-0.542768 37:0.061226 38:0.171791 39:0.061226 40:-0.455164 41:0.171791 42:0.00564896 43:-0.207238 44:-0.0434538 45:-0.647122 46:-0.873258 47:-0.864125 48:-0.637848 49:-0.662939 50:-0.531539 51:-1 52:0.202467 53:-0.0220513 54:0.0201482 55:-0.315561 56:-0.336426 57:-0.378908 58:-0.278059 59:-0.664749 60:-0.746114 61:-1 
0.5119187193980556 1:-0.950249 2:0.626895 3:-0.108888 4:0.422452 5:-1 6:0.620072 7:-0.708334 8:-1 9:-1 10:-1 11:-1 12:-1 13:-1 14:-0.166666 15:-1 16:-0.145833 17:-0.149999 18:-1 19:-1 20:-1 21:-1 22:-1 23:-1 24:-1 28:-1 30:-0.744122 31:-0.0551897 32:0.0561636 33:-0.0551897 34:-0.835432 35:0.0561636 36:-0.744122 37:-0.0551897 38:0.0561636 39:-0.0551897 40:-0.835432 41:0.0561636 42:-0.896988 43:-0.841901 44:-0.587471 45:-1 46:-0.592074 47:-0.756631 48:-1 49:-0.697774 50:-1 51:-1 52:-0.936474 53:-0.908879 54:-0.570128 55:-1 56:-0.396087 57:-0.389155 58:-1 59:-0.490809 60:-1 61:-1 
0.4795225668451879 1:-0.542289 2:-0.237625 3:-0.274153 4:-0.39037 5:-1 6:0.408033 7:-0.569231 8:-0.928615 9:-0.60923 10:-0.323079 11:0.282052 12:-1 13:-1 14:-1 15:-1 16:-1 17:-1 18:-1 19:-1 20:-1 21:-1 22:-1 23:-1 24:-1 28:-1 30:-0.754422 31:0.187218 32:0.0734244 33:0.187218 34:0.209817 35:0.0734244 36:-0.754422 37:0.187218 38:0.0734244 39:0.187218 40:0.209817 41:0.0734244 42:-0.302547 43:-0.753977 44:-0.604314 45:-0.641976 46:-0.761033 47:-0.253691 48:-0.372892 49:-0.592145 50:-0.749582 51:-1 52:0.970912 53:0.180057 54:0.419073 55:0.375835 56:0.171924 57:-0.109985 58:-0.0340626 59:-0.445905 60:-0.883735 61:-1 
2 1:-0.711443 2:-0.692603 3:-0.641015 4:-0.398182 5:-1 6:0.79791 7:-0.78125 8:-0.903333 9:-1 10:-1 11:-1 12:-0.600002 13:-1 14:-1 15:-0.680557 16:-1 17:-1 18:-1 19:-1 20:-1 21:-1 22:-1 23:-1 24:-1 28:-1 30:-0.822272 31:0.00854162 32:-0.0800527 33:0.00854162 34:-0.860518 35:-0.0800527 36:-0.822272 37:0.00854162 38:-0.0800527 39:0.00854162 40:-0.860518 41:-0.0800527 42:-0.356095 43:-0.424502 44:-0.654258 45:-0.697262 46:-0.845641 47:-0.792952 48:-0.97426 49:-0.399551 50:-0.794844 51:-1 52:-0.808248 53:-0.747175 54:-0.472193 55:-0.382824 56:-0.436328 57:-0.314016 58:-0.57242 59:-0.569001 60:-0.631168 61:-1 
0.2990123784852398 1:-0.21393 2:-0.772908 3:0.820016 4:0.0450018 5:-1 6:-0.851638 7:0.214286 8:0.136328 9:0.295919 10:-0.700681 11:-0.489797 12:-0.608164 13:-0.874149 14:-0.387756 15:-0.843537 16:-1 17:-0.375511 18:-1 19:-1 20:-1 21:-1 22:-1 23:-1 24:-1 28:-1 30:-0.040748 31:-0.356948 32:-0.587799 33:-0.356948 34:-0.0847645 35:-0.587799 36:-0.040748 37:-0.356948 38:-0.587799 39:-0.356948 40:-0.0847645 41:-0.587799 42:0.503128 43:-0.099229 44:-0.00336822 45:-0.323721 46:0.11752 47:-0.131693 48:-0.497986 49:-0.824141 50:-1 51:-1 52:0.0240386 53:-0.159769 54:-0.0537291 55:0.0164311 56:0.53731 57:0.630239 58:0.339044 59:-0.625744 60:-1 61:-1 
0.3001977265060298 1:0.263682 2:-0.772229 3:-0.00772721 4:-0.111478 5:-1 6:-0.0900676 7:0.0787657 8:-0.491506 9:-0.710045 10:-0.799088 11:-1 12:-0.736988 13:-0.746576 14:-0.726028 15:-0.789955 16:-0.859589 17:-0.860274 18:-1 19:-1 20:-1 21:-1 22:-1 23:-1 24:-1 28:-1 30:-0.240319 31:0.135997 32:0.033514 33:0.135997 34:0.112563 35:0.033514 36:-0.240319 37:0.135997 38:0.033514 39:0.135997 40:0.112563 41:0.033514 42:0.0102233 43:0.422605 44:0.295595 45:0.136524 46:-0.324633 47:-0.354067 48:-0.395027 49:-0.580614 50:-0.486135 51:-1 52:0.482837 53:0.291532 54:0.355592 55:0.286682 56:0.725144 57:0.784493 58:0.696412 59:0.51184 60:0.0795313 61:-1 
0.5133195721667239 1:0.00497512 2:-0.504794 3:-0.101589 4:-0.103052 5:-0.908333 6:0.104338 7:-0.125001 8:-0.690666 9:-0.717777 10:-0.877778 11:-0.722222 12:-0.840001 13:-0.897222 14:-0.333334 15:-1 16:-0.658333 17:-1 18:-1 19:-1 20:-1 21:-1 22:-1 23:-1 24:-1 28:-1 30:0.352363 31:0.072323 32:-0.0997845 33:0.072323 34:0.106408 35:-0.0997845 36:0.352363 37:0.072323 38:-0.0997845 39:0.072323 40:0.106408 41:-0.0997845 42:0.68584 43:0.585394 44:0.549645 45:0.319945 46:0.588018 47:0.765721 48:0.89321 49:-0.570717 50:-0.779159 51:-1 52:0.553443 53:0.359363 54:0.618135 55:0.482143 56:0.111058 57:0.0248702 58:0.0538239 59:-0.200748 60:-0.979492 61:-1 
0.1491886082974508 1:-0.810945 2:0.630399 3:-0.56324 4:-0.188902 5:-1 6:0.559231 7:-0.539474 8:-0.755789 9:-1 10:-1 11:-1 12:-1 13:-0.675438 14:-1 15:-1 16:-0.460526 17:-1 18:-1 19:-1 20:-1 21:-1 22:-1 23:-1 24:-1 28:-1 30:-0.160591 31:0.237776 32:-0.413372 33:0.237776 34:-0.81993 35:-0.413372 36:-0.160591 37:0.237776 38:-0.413372 39:0.237776 40:-0.81993 41:-0.413372 42:-0.52281 43:-0.123093 44:0.106469 45:-1 46:0.141162 47:0.288629 48:-1 49:0.282293 50:-1 51:-1 52:-0.502825 53:-0.491504 54:-0.315892 55:-1 56:-0.583295 57:-0.501722 58:-1 59:-0.409056 60:-1 61:-1 
0.6204617121881574 1:-0.343284 2:-0.194595 3:-0.28894 4:-0.0913315 5:-1 6:0.437001 7:-0.423529 8:-0.945412 9:-0.800784 10:-0.309806 11:-1 12:-1 13:-0.854902 14:-1 15:-1 16:-0.517647 17:-0.76 18:-1 19:-1 20:-1 21:-1 22:-1 23:-1 24:-1 28:-1 30:-0.103054 31:0.494842 32:-0.0443372 33:0.494842 34:-0.452332 35:-0.0443372 36:-0.103054 37:0.494842 38:-0.0443372 39:0.494842 40:-0.452332 41:-0.0443372 42:0.298272 43:0.244049 44:0.297755 45:0.290703 46:0.40184 47:0.590677 48:0.550087 49:-0.281668 50:-0.186183 51:-1 52:0.034372 53:-0.146381 54:-0.0164862 55:-0.15842 56:-0.300626 57:-0.525178 58:-0.474255 59:-0.574191 60:-0.843153 61:-1 
0.05365628391920912 1:-0.462687 2:-0.228938 3:0.115481 4:0.33081 5:-0.849315 6:0.392292 7:-0.664384 8:-0.809315 9:-0.884018 10:-0.397262 11:-1 12:-0.736988 13:-0.83105 14:-0.726028 15:-0.159819 16:-1 17:-1 18:-1 19:-1 20:-1 21:-1 22:-1 23:-0.232879 24:-1 28:-1 30:-0.636209 31:-0.385863 32:0.0412048 33:-0.385863 34:-0.313006 35:0.0412048 36:-0.636209 37:-0.385863 38:0.0412048 39:-0.385863 40:-0.313006 41:0.0412048 42:-0.105742 43:-0.374879 44:-0.315612 45:-0.331682 46:-0.69103 47:-0.503411 48:-0.576005 49:-0.754495 50:-0.747964 51:-0.90849 52:0.0660328 53:-0.0200233 54:0.180965 55:0.37654 56:0.261373 57:0.0926503 58:0.0707864 59:-0.470842 60:-0.772749 61:-0.78725 
0.6264442480593998 1:-0.20398 2:-0.513746 3:0.490359 4:0.248801 5:-0.888889 6:-0.228707 7:-0.0101027 8:-0.531313 9:-0.657912 10:-0.40741 11:-0.83165 12:-0.806061 13:-0.875421 14:-0.59596 15:-0.690237 16:0.242425 17:-1 18:-1 19:-1 20:-1 21:-1 22:-1 23:-1 24:-1 28:-1 30:-0.111888 31:0.269864 32:-0.435092 33:0.269864 34:0.0669901 35:-0.435092 36:-0.111888 37:0.269864 38:-0.435092 39:0.269864 40:0.0669901 41:-0.435092 42:0.73592 43:0.334625 44:0.288165 45:0.266482 46:0.276304 47:0.304063 48:-0.108827 49:-0.918184 50:-0.97181 51:-0.776872 52:0.487436 53:0.150558 54:0.364323 55:0.327698 56:0.699666 57:0.369283 58:0.164858 59:-0.792099 60:-0.960517 61:-0.873019 
0.5176280887103218 1:-0.771144 2:0.652519 3:-0.393093 4:-0.0744265 5:-1 6:0.607368 7:-0.75 8:-0.779048 9:-1 10:-1 11:-0.603175 12:-0.0857181 13:-1 14:-1 15:-1 16:-1 17:-0.514286 18:-1 19:-1 20:-1 21:-1 22:-1 23:-1 24:-1 28:-1 30:-0.579189 31:0.433339 32:-0.379336 33:0.433339 34:-0.51409 35:-0.379336 36:-0.579189 37:0.433339 38:-0.379336 39:0.433339 40:-0.51409 41:-0.379336 42:-0.348959 43:-0.310953 44:-0.287007 45:-1 46:0.05795 47:-0.266201 48:-1 49:-0.330403 50:-0.991854 51:-1 52:0.352195 53:0.130485 54:-0.13654 55:-1 56:-0.331585 57:-0.568547 58:-1 59:-0.631913 60:-0.866995 61:-1 
0.3051991027188841 1:-0.412935 2:0.10902 3:-0.007792 4:0.172179 5:-0.858974 6:0.490111 7:-0.865385 8:-0.881026 9:-0.565811 10:-0.623933 11:-1 12:-1 13:-0.683761 14:0.538462 15:-1 16:-1 17:-0.738462 18:-1 19:-1 20:-1 21:-1 22:-1 23:-1 24:-1 28:-1 30:-0.152389 31:0.550043 32:-0.0521661 33:0.550043 34:-0.406962 35:-0.0521661 36:-0.152389 37:0.550043 38:-0.0521661 39:0.550043 40:-0.406962 41:-0.0521661 42:0.285113 43:0.206573 44:-0.513764 45:0.138161 46:0.244701 47:0.257245 48:0.363098 49:0.276894 50:-0.648724 51:-0.822738 52:0.0722353 53:-0.116689 54:-0.239634 55:0.0884144 56:-0.0221742 57:-0.341053 58:-0.546472 59:-0.380916 60:-0.631736 61:-0.974213 
0.3584056561739467 1:-0.631841 2:-0.220895 3:-0.227565 4:0.125482 5:-1 6:0.454935 7:-0.5625 8:-0.917143 9:-0.0928541 10:-1 11:-1 12:-1 13:-1 14:-1 15:-1 16:-1 17:-0.635715 18:-1 19:-1 20:-1 21:-1 22:0.160713 23:-1 24:-1 28:-1 30:-0.550755 31:-0.374973 32:-0.418069 33:-0.374973 34:-0.413673 35:-0.418069 36:-0.550755 37:-0.374973 38:-0.418069 39:-0.374973 40:-0.413673 41:-0.418069 42:-0.242253 43:-0.238847 44:-0.242923 45:-0.437254 46:-0.490641 47:-0.635161 48:-0.524187 49:-0.899636 50:-1 51:-0.925557 52:-0.20334 53:-0.130177 54:0.0581178 55:-0.233467 56:0.0162113 57:0.0576849 58:0.119429 59:-0.658565 60:-1 61:-0.780554 
0.7106604649989992 1:-0.452736 2:-0.265499 3:-0.314982 4:-0.36862 5:-0.851351 6:0.0553116 7:0.229728 8:-1 9:-0.771171 10:-0.405408 11:-0.774775 12:-0.740542 13:-1 14:-1 15:-1 16:-0.722973 17:-1 18:-1 19:-1 20:-1 21:-1 22:-1 23:-1 24:-1 28:-1 30:-0.690941 31:0.340994 32:0.00130719 33:0.340994 34:-0.296942 35:0.00130719 36:-0.690941 37:0.340994 38:0.00130719 39:0.340994 40:-0.296942 41:0.00130719 42:-0.346032 43:-0.410503 44:-0.498627 45:-0.206506 46:-0.597461 47:-0.145319 48:-0.177293 49:-0.603109 50:-0.470666 51:-1 52:0.249003 53:0.0792247 54:0.225081 55:0.215628 56:-0.307946 57:-0.354505 58:-0.174667 59:-0.708663 60:-0.618114 61:-1 
0.9873112601087574 1:-0.960199 2:0.619574 3:-0.247196 4:0.234832 5:-1 6:0.600741 7:-0.695652 8:-1 9:-1 10:-0.36232 11:-1 12:-1 13:-1 14:-1 15:-1 16:0.782608 17:-1 18:-1 19:-1 20:-1 21:-1 22:-1 23:-1 24:-1 28:-1 30:-0.7539 31:-0.0603924 32:0.0430255 33:-0.0603924 34:-0.874061 35:0.0430255 36:-0.7539 37:-0.0603924 38:0.0430255 39:-0.0603924 40:-0.874061 41:0.0430255 42:-0.915029 43:-0.851069 44:-0.550911 45:-1 46:-0.567045 47:-0.806773 48:-1 49:-0.74561 50:-1 51:-1 52:-0.918784 53:-0.902921 54:-0.515359 55:-1 56:-0.461448 57:-0.43322 58:-1 59:-0.454968 60:-1 61:-1 
0.4635725314573357 1:-0.552239 2:-0.458011 3:-0.399199 4:-0.232656 5:-1 6:0.497807 7:-0.507813 8:-0.855 9:-1 10:-0.770834 11:-0.739583 12:-0.700001 13:-0.614583 14:-0.6875 15:-1 16:-1 17:-1 18:-1 19:-1 20:-1 21:-1 22:-1 23:-1 24:-1 28:-1 30:0.712506 31:0.0531313 32:-0.370558 33:0.0531313 34:-0.727563 35:-0.370558 36:0.712506 37:0.0531313 38:-0.370558 39:0.0531313 40:-0.727563 41:-0.370558 42:0.291401 43:0.706268 44:0.671024 45:-0.799545 46:0.283858 47:0.394693 48:0.300919 49:-0.670766 50:-1 51:-1 52:-0.290068 53:-0.0166528 54:-0.00276709 55:-0.756301 56:-0.512776 57:-0.526553 58:-0.453525 59:-0.628786 60:-1 61:-1 
0.05965366825863732 1:-0.960199 2:0.630128 3:-0.305439 4:0.00095939 5:-1 6:0.693526 7:-1 8:-0.79826 9:-1 10:-0.36232 11:-0.275362 12:-1 13:-1 14:-1 15:-1 16:-0.108695 17:-1 18:-1 19:-1 20:-1 21:-1 22:-1 23:-1 24:-1 28:-1 30:-0.781061 31:-0.0548141 32:0.0277754 33:-0.0548141 34:-0.838699 35:0.0277754 36:-0.781061 37:-0.0548141 38:0.0277754 39:-0.0548141 40:-0.838699 41:0.0277754 42:-0.916846 43:-1 44:-0.484454 45:-1 46:-0.659174 47:-0.738217 48:-1 49:-0.808418 50:-0.73824 51:-1 52:-0.916674 53:-1 54:-0.603712 55:-1 56:-0.395608 57:-0.426593 58:-1 59:-0.407172 60:-0.757823 61:-1 
0.03600943634938689 1:-0.721393 2:-0.250349 3:-0.214805 4:-0.104578 5:-1 6:0.474394 7:-0.55319 8:-0.802553 9:-0.639716 10:-1 11:-1 12:-1 13:-1 14:-0.574468 15:-0.347519 16:-1 17:-1 18:-1 19:-1 20:-1 21:-1 22:-1 23:-1 24:-1 28:-1 30:-0.509478 31:-0.399181 32:-0.438198 33:-0.399181 34:-0.376827 35:-0.438198 36:-0.509478 37:-0.399181 38:-0.438198 39:-0.399181 40:-0.376827 41:-0.438198 42:-0.0107635 43:-0.274659 44:-0.910619 45:-0.382113 46:-0.419278 47:-0.751218 48:-0.680551 49:-0.730767 50:-0.792135 51:-1 52:-0.232574 53:-0.0990245 54:-0.6621 55:0.151911 56:0.00356831 57:0.0496857 58:0.126092 59:-0.52524 60:-0.96333 61:-1 
0.7653416009813638 1:-0.661692 2:0.677108 3:-0.635131 4:-0.250266 5:-1 6:0.662015 7:-0.603772 8:-0.912453 9:-0.840251 10:-1 11:-1 12:-1 13:-1 14:-1 15:-0.710693 16:-0.613208 17:-1 18:-1 19:-1 20:-1 21:-1 22:-1 23:-1 24:-1 28:-1 30:-0.72169 31:0.27383 32:-0.477995 33:0.27383 34:0.199516 35:-0.477995 36:-0.72169 37:0.27383 38:-0.477995 39:0.27383 40:0.199516 41:-0.477995 42:-0.699916 43:-0.717494 44:-0.539411 45:-1 46:-0.518365 47:-0.364874 48:-0.315837 49:-1 50:-0.43003 51:-1 52:0.562717 53:0.323042 54:0.766226 55:-1 56:0.52749 57:0.16714 58:0.198775 59:-1 60:-0.567057 61:-1 
0.0512810896902032 1:-0.810945 2:0.631248 3:-0.644777 4:-0.314827 5:-1 6:0.615392 7:-0.447368 8:-1 9:-1 10:-1 11:-1 12:-1 13:-0.675438 14:-0.473684 15:-1 16:-1 17:-1 18:-1 19:-1 20:-1 21:-1 22:-1 23:-1 24:-1 28:-1 30:-0.161343 31:0.262576 32:-0.423236 33:0.262576 34:-0.80445 35:-0.423236 36:-0.161343 37:0.262576 38:-0.423236 39:0.262576 40:-0.80445 41:-0.423236 42:-0.529698 43:-0.15941 44:0.101725 45:-1 46:0.135283 47:0.301563 48:-1 49:0.290071 50:-1 51:-1 52:-0.428114 53:-0.470187 54:-0.260264 55:-1 56:-0.628966 57:-0.516848 58:-1 59:-0.490706 60:-1 61:-1 
0.2782914723737495 1:-0.333333 2:-0.429748 3:0.14413 4:0.0155986 5:-1 6:-0.324958 7:0.627905 8:-0.784186 9:-0.704651 10:-0.658916 11:-0.806202 12:-0.776745 13:-1 14:-1 15:-0.643412 16:-0.523256 17:-1 18:-0.680233 19:-1 20:-1 21:-1 22:-1 23:-1 24:-1 28:-1 30:-0.435734 31:0.612699 32:0.106189 33:0.612699 34:0.0428471 35:0.106189 36:-0.435734 37:0.612699 38:0.106189 39:0.612699 40:0.0428471 41:0.106189 42:-0.217175 43:-0.307942 44:-0.22291 45:0.0591819 46:-0.112473 47:-0.0485524 48:0.216565 49:-0.550482 50:-0.688532 51:-1 52:0.981087 53:0.35385 54:0.659612 55:0.136609 56:0.0188071 57:-0.0571778 58:0.0654233 59:-0.728049 60:-0.743495 61:-1 
0.138277453019687 1:-0.751244 2:0.639124 3:-0.422935 4:0.00887479 5:-0.5 6:0.48265 7:-0.522726 8:-1 9:-0.807575 10:-1 11:-1 12:-1 13:-0.719696 14:-1 15:-1 16:-0.53409 17:-0.536363 18:-1 19:-1 20:-1 21:-1 22:-1 23:-1 24:-1 28:-1 30:-0.851091 31:-0.160308 32:-0.360669 33:-0.160308 34:-0.176695 35:-0.360669 36:-0.851091 37:-0.160308 38:-0.360669 39:-0.160308 40:-0.176695 41:-0.360669 42:-0.51956 43:-0.329341 44:-0.593623 45:-1 46:-0.754162 47:-0.732633 48:-0.864815 49:-0.70703 50:-1 51:-1 52:0.369124 53:0.208046 54:0.202375 55:-1 56:0.183967 57:-0.196608 58:-0.73963 59:-0.0365142 60:-1 61:-1 
0.6360772461518095 1:-0.721393 2:-0.438416 3:-0.811052 4:-0.675852 5:-0.765957 6:0.883047 7:-0.925532 8:-1 9:-0.819858 10:-1 11:-1 12:-0.591491 13:-1 14:-1 15:-1 16:-1 17:-1 18:-1 19:-1 20:-1 21:-1 22:-1 23:-1 24:-1 28:-1 30:0.00781622 31:0.0163068 32:-0.819551 33:0.0163068 34:-0.852225 35:-0.819551 36:0.00781622 37:0.0163068 38:-0.819551 39:0.0163068 40:-0.852225 41:-0.819551 42:-0.628751 43:-0.583186 44:-0.22035 45:-0.410595 46:-0.148714 47:-0.53153 48:-0.506544 49:-0.652895 50:-1 51:-1 52:-0.785106 53:-0.69327 54:-0.726336 55:-0.659862 56:-0.343813 57:-0.251827 58:-0.721477 59:-0.68186 60:-1 61:-1 
0.3957525691507185 1:-0.60199 2:-0.45047 3:-0.190551 4:-0.197006 5:-1 6:-0.128963 7:0.542372 8:-0.842712 9:-0.712994 10:-0.751412 11:-1 12:-1 13:-1 14:-1 15:-1 16:-0.652541 17:-0.654236 18:-1 19:-1 20:-1 21:-1 22:-1 23:-1 24:-1 28:-1 30:-0.573012 31:0.0376654 32:0.188848 33:0.0376654 34:-0.429496 35:0.188848 36:-0.573012 37:0.0376654 38:0.188848 39:0.0376654 40:-0.429496 41:0.188848 42:-0.0282214 43:-0.305634 44:-0.396952 45:-0.937651 46:-0.805839 47:-0.876463 48:-0.680192 49:-0.869838 50:-0.664836 51:-0.73451 52:0.302473 53:-0.0420458 54:0.00949688 55:-0.612176 56:-0.342402 57:-0.371572 58:-0.300641 59:-0.300387 60:-0.873316 61:-0.69369 
0.6308534883159987 1:-0.970149 2:0.622443 3:-0.644331 4:-0.144596 5:-0.5 6:0.579652 7:-0.522726 8:-1 9:-1 10:-1 11:-1 12:-1 13:-1 14:-1 15:-1 16:-0.068183 17:-1 18:-1 19:-1 20:-1 21:-1 22:-1 23:-1 24:-1 28:-1 30:-0.771672 31:0.00170582 32:0.0860541 33:0.00170582 34:-0.615308 35:0.0860541 36:-0.771672 37:0.00170582 38:0.0860541 39:0.00170582 40:-0.615308 41:0.0860541 42:-0.970792 43:-0.938805 44:-0.572016 45:-1 46:-0.8628 47:-0.835128 48:-1 49:-0.951008 50:-1 51:-1 52:-0.125444 53:-0.252172 54:-0.110216 55:-1 56:-0.708291 57:-0.720959 58:-1 59:-0.694436 60:-1 61:-1 
0.1556898854140415 1:-0.243781 2:-0.774737 3:0.864721 4:0.101315 5:-0.884211 6:-0.844762 7:0.178946 8:0.0256871 9:0.515088 10:-1 11:-0.298245 12:-0.595791 13:-0.870176 14:-0.578948 15:-1 16:-0.568422 17:-0.35579 18:-1 19:-1 20:-1 21:-1 22:-1 23:-1 24:-1 28:-1 30:-0.235588 31:-0.23565 32:-0.625002 33:-0.23565 34:-0.00919127 35:-0.625002 36:-0.235588 37:-0.23565 38:-0.625002 39:-0.23565 40:-0.00919127 41:-0.625002 42:0.0367409 43:-0.232069 44:-0.175287 45:-0.158088 46:-0.538248 47:-0.498825 48:-0.379757 49:-0.486307 50:-1 51:-1 52:0.0673156 53:-0.116727 54:0.0979113 55:0.250986 56:0.574644 57:0.607603 58:0.685251 59:0.562292 60:-1 61:-1 
0.4864970457944261 1:-0.641791 2:-0.224767 3:-0.558339 4:-0.679897 5:-1 6:0.48265 7:-0.427274 8:-0.746909 9:-0.84606 10:-0.466669 11:-1 12:-1 13:-1 14:-1 15:-1 16:-1 17:-1 18:-1 19:-1 20:-1 21:-1 22:-1 23:-1 24:-1 28:-1 30:-0.41616 31:-0.354346 32:-0.399008 33:-0.354346 34:-0.563798 35:-0.399008 36:-0.41616 37:-0.354346 38:-0.399008 39:-0.354346 40:-0.563798 41:-0.399008 42:-0.171183 43:-0.11197 44:-0.128618 45:-0.655301 46:-0.266588 47:-0.435603 48:-0.602115 49:-0.415698 50:-0.900407 51:-1 52:-0.17008 53:-0.347526 54:-0.167151 55:-0.678547 56:-0.081123 57:0.0403342 58:-0.64019 59:-0.110139 60:-0.635071 61:-1 
0.7059592306316335 1:-0.671642 2:0.11286 3:-0.279992 4:0.162287 5:-1 6:0.65427 7:-0.798077 8:-0.910769 9:-0.674359 10:-1 11:-1 12:-0.63077 13:-1 14:-1 15:-1 16:-0.211539 17:-1 18:-0.471153 19:-1 20:-1 21:-1 22:-1 23:-1 24:-1 28:-1 30:-0.625141 31:0.0280923 32:0.148639 33:0.0280923 34:-0.454572 35:0.148639 36:-0.625141 37:0.0280923 38:0.148639 39:0.0280923 40:-0.454572 41:0.148639 42:-0.372047 43:-0.586243 44:-0.459202 45:-0.343665 46:-0.622784 47:-1 48:-0.512824 49:-0.764332 50:-0.942328 51:-1 52:0.21737 53:-0.126378 54:0.0352884 55:0.00372212 56:-0.339911 57:-1 58:-0.371893 59:-0.318525 60:-0.824782 61:-1 
0.07240509470899746 1:-0.552239 2:-0.370334 3:-0.788436 4:-0.560199 5:-0.312499 6:0.531151 7:-0.5625 8:-1 9:-0.867708 10:-1 11:-0.479167 12:-0.700001 13:-1 14:-1 15:-1 16:-1 17:-1 18:-1 19:-1 20:-1 21:-1 22:-1 23:-1 24:-1 28:-1 30:-0.156308 31:-0.0318219 32:-0.456376 33:-0.0318219 34:-0.821908 35:-0.456376 36:-0.156308 37:-0.0318219 38:-0.456376 39:-0.0318219 40:-0.821908 41:-0.456376 42:-0.818822 43:0.219476 44:-0.012921 45:-0.226713 46:-0.187375 47:-0.174031 48:0.444781 49:-0.269244 50:-0.871318 51:-1 52:-0.817625 53:-0.373342 54:-0.494371 55:-0.608009 56:-0.283016 57:-0.541021 58:-0.695712 59:-0.470842 60:-0.791913 61:-1 
