svm_type c_svc
kernel_type rbf
gamma 0.0163934
nr_class 2
total_sv 488
rho 1.23884
label 1 2
nr_sv 243 245
SV
1 1:-0.6 2:-0.791971 3:0.170194 4:0.338393 5:-1 6:-0.0909091 7:0.130433 8:-0.902692 9:-0.765886 10:-1 11:-1 12:-1 13:-0.681161 14:-1 15:-1 16:-0.420291 17:-1 18:-1 19:-1 20:-1 21:1 22:-1 23:-1 24:-1 30:-0.997307 31:-0.0365003 32:-0.95809 33:-0.0365003 34:-0.830881 35:-0.95809 36:-0.997307 37:-0.0365003 38:-0.95809 39:-0.0365003 40:-0.830881 41:-0.95809 42:-0.966943 43:-0.976621 44:-0.929331 45:-0.870804 46:-0.905282 47:-0.962149 48:-0.969269 49:-0.981588 50:-0.930287 51:-0.776215 52:-0.902305 53:-0.72544 54:-0.565588 55:-0.474909 56:-0.150592 57:-0.19598 58:-0.210056 59:-0.80895 60:-0.833525 61:-0.72595 
1 1:-0.905882 2:-0.163157 3:0.00674192 4:0.181247 5:-1 6:0.345455 7:-0.711111 8:-0.552381 9:-1 10:-0.233335 11:-1 12:-1 13:-1 14:-1 15:-1 16:0.333333 17:-1 18:-1 19:-1 20:-1 21:-1 22:-1 23:-1 24:-1 30:-0.996743 31:0.0162281 32:-0.956047 33:0.0162281 34:-0.901831 35:-0.956047 36:-0.996743 37:0.0162281 38:-0.956047 39:0.0162281 40:-0.901831 41:-0.956047 42:-0.97928 43:-0.978555 44:-0.898441 45:-1 46:-0.929643 47:-0.962348 48:-1 49:-0.954621 50:-0.958572 51:-1 52:-0.977163 53:-0.680906 54:-0.498896 55:-1 56:-0.767847 57:-0.706695 58:-1 59:-0.59141 60:-0.901229 61:-1 
1 1:-0.529412 2:-0.618679 3:0.130888 4:0.0714317 5:-1 6:0.286713 7:-0.611112 8:-0.827839 9:-0.585799 10:-0.705128 11:-0.184616 12:-0.246156 13:-1 14:-1 15:-1 16:-1 17:-0.605769 18:-1 19:-1 20:-1 21:-1 22:-1 23:-1 24:-1 30:-0.994319 31:-0.271007 32:-0.957377 33:-0.271007 34:-0.687538 35:-0.957377 36:-0.994319 37:-0.271007 38:-0.957377 39:-0.271007 40:-0.687538 41:-0.957377 42:-0.969516 43:-0.978873 44:-0.837178 45:-0.823086 46:-0.824282 47:-0.900275 48:-0.904597 49:-0.904422 50:-0.97113 51:-1 52:-0.892692 53:-0.810082 54:-0.253911 55:-0.0195295 56:0.0429889 57:0.0447533 58:0.194759 59:-0.0583722 60:-0.74325 61:-1 
1 1:-0.0588235 2:-0.702508 3:0.183465 4:0.0270487 5:-1 6:-0.0434785 7:-0.246376 8:-0.708075 9:-0.531771 10:-0.166668 11:-0.539131 12:-1 13:-1 14:-0.782608 15:-1 16:-1 17:-0.777173 18:-0.510868 19:-1 20:-1 21:-1 22:-1 23:-1 24:-1 30:-0.994469 31:0.756058 32:-0.968806 33:0.756058 34:-0.347139 35:-0.968806 36:-0.994469 37:0.756058 38:-0.968806 39:0.756058 40:-0.347139 41:-0.968806 42:-0.83919 43:-0.801662 44:-0.835816 45:-0.860882 46:-0.795957 47:-0.797936 48:-0.812119 49:-0.915928 50:-0.930401 51:-0.833887 52:-0.428078 53:0.446935 54:0.749454 55:0.664064 56:-0.0629154 57:0.386599 58:0.170459 59:-0.562258 60:-0.966584 61:-0.741742 
1 1:-0.682353 2:-0.622029 3:-0.0219058 4:-0.3214 5:-1 6:0.328672 7:-0.703704 8:-0.655678 9:-0.44773 10:-0.606839 11:-0.456411 12:-0.497437 13:-1 14:-1 15:-1 16:-1 17:-1 18:-1 19:-1 20:-1 21:-1 22:-1 23:-1 24:-1 30:-0.993834 31:-0.235286 32:-0.956932 33:-0.235286 34:-0.732108 35:-0.956932 36:-0.993834 37:-0.235286 38:-0.956932 39:-0.235286 40:-0.732108 41:-0.956932 42:-0.971849 43:-0.825944 44:-0.833556 45:-0.939511 46:-0.871891 47:-0.918454 48:-0.916062 49:-0.940808 50:-0.946746 51:-1 52:-0.911615 53:-0.506857 54:-0.343721 55:-0.979053 56:-0.0141881 57:-0.291091 58:-0.359818 59:-0.471162 60:-0.790438 61:-1 
1 1:-0.870588 2:-0.000899274 3:-0.084081 4:0.261285 5:-1 6:0.715415 7:-1 8:-1 9:-1 10:-0.333334 11:-1 12:-1 13:-0.36232 14:-1 15:-1 16:0.159421 17:-1 18:-1 19:-1 20:-1 21:-1 22:-1 23:-1 24:-1 30:-0.979159 31:0.157857 32:-0.967125 33:0.157857 34:-0.870239 35:-0.967125 36:-0.979159 37:0.157857 38:-0.967125 39:0.157857 40:-0.870239 41:-0.967125 42:-0.469598 43:-0.962063 44:-0.962003 45:-0.965852 46:-0.916903 47:-0.935813 48:-1 49:-0.925691 50:-1 51:-1 52:-0.926944 53:-0.994542 54:-0.816177 55:-0.771357 56:-0.42418 57:-0.451554 58:-1 59:-0.546735 60:-1 61:-1 
1 1:-0.682353 2:-0.0180285 3:-0.244673 4:-0.0336968 5:-1 6:0.496504 7:-0.62963 8:-0.770452 9:-1 10:-1 11:-1 12:-1 13:-0.623933 14:-1 15:-1 16:-0.31624 17:-1 18:-1 19:-1 20:-1 21:-1 22:-1 23:-1 24:-1 30:-0.986456 31:0.280508 32:-0.97102 33:0.280508 34:-0.61042 35:-0.97102 36:-0.986456 37:0.280508 38:-0.97102 39:0.280508 40:-0.61042 41:-0.97102 42:-0.651974 43:-0.82637 44:-0.827827 45:-1 46:-0.781874 47:-0.755948 48:-1 49:-0.765222 50:-1 51:-1 52:-0.296729 53:-0.346686 54:-0.100469 55:-1 56:-0.462741 57:-0.318824 58:-1 59:-0.517438 60:-1 61:-1 
1 1:-0.858824 2:-0.173776 3:-0.150571 4:-0.00742509 5:-1 6:0.545455 7:-0.759259 8:-1 9:-0.551281 10:-0.361112 11:-1 12:-1 13:-1 14:-1 15:-0.38889 16:-1 17:-1 18:-1 19:-1 20:-1 21:-1 22:-1 23:-1 24:-1 30:-0.997237 31:-0.0313013 32:-0.958373 33:-0.0313013 34:-0.831499 35:-0.958373 36:-0.997237 37:-0.0313013 38:-0.958373 39:-0.0313013 40:-0.831499 41:-0.958373 42:-0.978966 43:-1 44:-0.856332 45:-1 46:-0.933578 47:-0.958033 48:-1 49:-0.948976 50:-0.955602 51:-1 52:-0.97568 53:-1 54:-0.281358 55:-1 56:-0.322892 57:-0.271294 58:-1 59:-0.397317 60:-0.93966 61:-1 
1 1:-0.870588 2:-0.0178726 3:-0.374453 4:-0.402906 5:-1 6:0.715415 7:-0.874396 8:-1 9:-1 10:0.333331 11:-1 12:-1 13:-1 14:-1 15:-1 16:-1 17:-1 18:-1 19:-1 20:-1 21:-1 22:-1 23:-1 24:-1 30:-0.981226 31:0.175671 32:-0.961952 33:0.175671 34:-0.820268 35:-0.961952 36:-0.981226 37:0.175671 38:-0.961952 39:0.175671 40:-0.820268 41:-0.961952 42:-0.500016 43:-0.979672 44:-0.884277 45:-1 46:-0.910339 47:-0.93452 48:-1 49:-0.931941 50:-0.970394 51:-1 52:-0.929942 53:-0.874443 54:-0.789857 55:-1 56:-0.406556 57:-0.35161 58:-1 59:-0.513809 60:-0.91241 61:-1 
1 1:-0.847059 2:-0.0254843 3:0.0731265 4:0.475097 5:-0.902857 6:0.563636 7:-0.884444 8:-1 9:-1 10:-1 11:-1 12:-1 13:-1 14:0.6 15:-1 16:0.0666667 17:-1 18:-1 19:-1 20:-1 21:-1 22:-1 23:-1 24:-1 30:-0.983449 31:0.158 32:-0.966535 33:0.158 34:-0.876787 35:-0.966535 36:-0.983449 37:0.158 38:-0.966535 39:0.158 40:-0.876787 41:-0.966535 42:-0.50935 43:-0.967565 44:-0.922433 45:-1 46:-0.912752 47:-0.915954 48:-1 49:-0.917184 50:-1 51:-1 52:-0.913483 53:-0.938654 54:-0.731035 55:-1 56:-0.471028 57:-0.333555 58:-1 59:-0.631633 60:-1 61:-1 
0.5942929218063692 1:-0.435294 2:-0.581887 3:-0.0454547 4:-0.0993345 5:-0.919048 6:0.381819 7:-0.662962 8:-0.925397 9:-0.641025 10:-0.48889 11:-0.646666 12:-1 13:-1 14:-0.666666 15:-0.755556 16:-1 17:-1 18:-1 19:-1 20:-1 21:-1 22:-1 23:-1 24:-1 30:-0.994972 31:-0.237394 32:-0.959051 33:-0.237394 34:-0.434502 35:-0.959051 36:-0.994972 37:-0.237394 38:-0.959051 39:-0.237394 40:-0.434502 41:-0.959051 42:-0.785829 43:-0.842247 44:-0.856078 45:-0.930245 46:-0.933735 47:-0.931528 48:-0.928134 49:-0.960218 50:-1 51:-1 52:-0.292092 53:-0.0165937 54:0.279783 55:-0.575652 56:0.212794 57:0.40875 58:0.471946 59:-0.227881 60:-1 61:-1 
1 1:-0.870588 2:-0.167375 3:-0.164981 4:0.110904 5:-1 6:0.620553 7:-0.874396 8:-1 9:-0.531771 10:-0.333334 11:-1 12:-1 13:-1 14:-1 15:-1 16:0.159421 17:-1 18:-1 19:-1 20:-1 21:-1 22:-1 23:-1 24:-1 30:-0.997246 31:0.0101502 32:-0.957473 33:0.0101502 34:-0.83642 35:-0.957473 36:-0.997246 37:0.0101502 38:-0.957473 39:0.0101502 40:-0.83642 41:-0.957473 42:-0.976731 43:-0.99545 44:-0.924343 45:-1 46:-0.922218 47:-0.964057 48:-1 49:-0.947461 50:-1 51:-1 52:-0.985293 53:-0.767392 54:-0.465643 55:-1 56:-0.3743 57:-0.255214 58:-1 59:-0.382899 60:-1 61:-1 
1 1:-0.670588 2:-0.492652 3:0.302142 4:0.297195 5:-1 6:-0.0363636 7:-0.205556 8:-0.888095 9:-0.730769 10:-0.616667 11:0.0600003 12:-0.510001 13:-1 14:-1 15:-0.633334 16:-1 17:-1 18:0.125001 19:-1 20:-1 21:-1 22:-1 23:-1 24:-1 30:-0.980685 31:0.017408 32:-0.966819 33:0.017408 34:-0.834704 35:-0.966819 36:-0.980685 37:0.017408 38:-0.966819 39:0.017408 40:-0.834704 41:-0.966819 42:-0.333528 43:-1 44:-0.84999 45:-0.865003 46:-0.909351 47:-0.967629 48:-0.931772 49:-0.929483 50:-0.993571 51:-1 52:-0.918704 53:-1 54:-0.41134 55:-0.0712097 56:-0.601028 57:-0.717869 58:-0.576991 59:-0.444956 60:-0.799435 61:-1 
1 1:-0.541176 2:-0.781284 3:-0.0999923 4:-0.449238 5:-1 6:0.0160437 7:0.0196069 8:-0.824463 9:-1 10:-0.699348 11:-0.584315 12:-0.615688 13:-1 14:-1 15:-1 16:-1 17:-1 18:-1 19:-1 20:-1 21:-1 22:-1 23:-1 24:-1 30:-0.997337 31:0.0464119 32:-0.957526 33:0.0464119 34:-0.808483 35:-0.957526 36:-0.997337 37:0.0464119 38:-0.957526 39:0.0464119 40:-0.808483 41:-0.957526 42:-0.961273 43:-0.951261 44:-0.991593 45:-0.941879 46:-0.89772 47:-0.956541 48:-0.941239 49:-0.947969 50:-0.939277 51:-1 52:-0.837858 53:-0.560417 54:-0.462423 55:-0.428054 56:-0.142163 57:-0.0700538 58:-0.204202 59:-0.432462 60:-0.708222 61:-1 
1 1:-0.258824 2:-0.284063 3:0.0384008 4:0.168803 5:-1 6:0.447273 7:-0.807407 8:-0.701587 9:-0.85641 10:-0.795556 11:-0.717334 12:-0.477334 13:-1 14:-0.2 15:-1 16:-1 17:-0.726667 18:-1 19:-1 20:-1 21:-1 22:-1 23:-1 24:-1 30:-0.986394 31:0.274492 32:-0.961991 33:0.274492 34:-0.586107 35:-0.961991 36:-0.986394 37:0.274492 38:-0.961991 39:0.274492 40:-0.586107 41:-0.961991 42:-0.492564 43:-0.712082 44:-0.717219 45:-0.728598 46:-1 47:-0.762152 48:-0.766169 49:-0.795661 50:-0.968832 51:-0.841799 52:-0.198445 53:-0.365927 54:-0.251083 55:-0.0802033 56:-1 57:-0.456137 58:-0.581627 59:-0.470807 60:-0.922384 61:-0.751315 
1 1:-0.870588 2:-0.137488 3:-0.32927 4:-0.405745 5:-1 6:0.620553 7:-1 8:-0.805383 9:0.404687 10:-1 11:-1 12:-1 13:-1 14:-1 15:-1 16:-1 17:-1 18:-1 19:-1 20:-1 21:-1 22:-1 23:-1 24:-1 30:-0.997333 31:0.168884 32:-0.959622 33:0.168884 34:-0.699243 35:-0.959622 36:-0.997333 37:0.168884 38:-0.959622 39:0.168884 40:-0.699243 41:-0.959622 42:-0.884264 43:-1 44:-0.897647 45:-1 46:-0.871301 47:-0.936603 48:-1 49:-0.95681 50:-1 51:-1 52:-0.571331 53:-1 54:-0.483701 55:-1 56:-0.414565 57:-0.358987 58:-1 59:-0.341054 60:-1 61:-1 
1 1:-0.882353 2:-0.0206232 3:-0.0625705 4:-0.0391406 5:-1 6:0.404959 7:-0.737374 8:-0.796537 9:-0.510489 10:-1 11:-0.0363644 12:-1 13:-1 14:-0.09091 15:-1 16:-1 17:-1 18:-1 19:-1 20:-1 21:-1 22:-1 23:-1 24:-1 30:-0.981035 31:0.166614 32:-0.967566 33:0.166614 34:-0.879992 35:-0.967566 36:-0.981035 37:0.166614 38:-0.967566 39:0.166614 40:-0.879992 41:-0.967566 42:-0.505749 43:-1 44:-0.861944 45:-1 46:-0.908731 47:-0.928101 48:-1 49:-0.932971 50:-1 51:-1 52:-0.915686 53:-1 54:-0.570832 55:-1 56:-0.5052 57:-0.33262 58:-1 59:-0.51785 60:-1 61:-1 
1 1:-0.564706 2:-0.612724 3:-0.32797 4:-0.280561 5:-0.900875 6:0.510204 7:-0.587302 8:-1 9:-0.780219 10:-1 11:-1 12:-1 13:-1 14:-1 15:-1 16:-0.455781 17:-1 18:-1 19:-1 20:-1 21:-1 22:-1 23:-1 24:-1 30:-0.98072 31:-0.273548 32:-0.955335 33:-0.273548 34:-0.473768 35:-0.955335 36:-0.98072 37:-0.273548 38:-0.955335 39:-0.273548 40:-0.473768 41:-0.955335 42:-0.332064 43:-0.918731 44:-0.948762 45:-0.972161 46:-0.934801 47:-0.910937 48:-0.892092 49:-0.984184 50:-0.992337 51:-1 52:-0.398243 53:-0.084795 54:0.0547127 55:-0.268799 56:-0.414974 57:-0.345608 58:-0.582916 59:-0.817032 60:-0.871699 61:-1 
1 1:-0.776471 2:0.0200269 3:-0.443401 4:-0.412734 5:-0.921659 6:0.648095 7:-0.81362 8:-0.855607 9:-1 10:-1 11:-1 12:-0.367742 13:-1 14:-1 15:-1 16:-1 17:-1 18:-1 19:-1 20:-1 21:-1 22:-1 23:-1 24:-1 30:-0.981636 31:0.143614 32:-0.966028 33:0.143614 34:-0.853707 35:-0.966028 36:-0.981636 37:0.143614 38:-0.966028 39:0.143614 40:-0.853707 41:-0.966028 42:-0.443345 43:-0.861181 44:-1 45:-0.813053 46:-0.879205 47:-0.905934 48:-1 49:-0.927464 50:-0.986843 51:-1 52:-0.930193 53:-0.670842 54:-1 55:-0.40472 56:-0.450324 57:-0.533007 58:-1 59:-0.504756 60:-0.892349 61:-1 
1 1:-0.423529 2:-0.578001 3:-0.163854 4:-0.368162 5:-0.960187 6:0.391951 7:-0.668489 8:-0.70648 9:-0.64691 10:-0.497268 11:-1 12:-1 13:-0.759564 14:-1 15:-1 16:-1 17:-1 18:-1 19:-1 20:-1 21:-1 22:-1 23:-1 24:-1 30:-0.994286 31:-0.238883 32:-0.957887 33:-0.238883 34:-0.507382 35:-0.957887 36:-0.994286 37:-0.238883 38:-0.957887 39:-0.238883 40:-0.507382 41:-0.957887 42:-0.802152 43:-0.826936 44:-0.833396 45:-0.834037 46:-0.913265 47:-0.927921 48:-0.907372 49:-0.952709 50:-1 51:-1 52:-0.270423 53:-0.116205 54:0.142449 55:0.200615 56:0.125158 57:0.0709052 58:0.189909 59:-0.177745 60:-1 61:-1 
1 1:-0.647059 2:-0.780072 3:0.111867 4:0.0655872 5:-1 6:-0.194805 7:0.238093 8:-0.786849 9:-1 10:-1 11:-0.495238 12:-1 13:-0.650795 14:-1 15:-1 16:-1 17:-1 18:0.0714286 19:-1 20:-1 21:-1 22:-1 23:-1 24:-1 30:-0.997798 31:0.0641503 32:-0.957658 33:0.0641503 34:-0.8114 35:-0.957658 36:-0.997798 37:0.0641503 38:-0.957658 39:0.0641503 40:-0.8114 41:-0.957658 42:-1 43:-0.958752 44:-0.989123 45:-0.938382 46:-0.933271 47:-0.973801 48:-0.987736 49:-0.959905 50:-0.935076 51:-1 52:-1 53:-0.562302 54:-0.582029 55:-0.196752 56:-0.203261 57:-0.339712 58:-0.237132 59:-0.436949 60:-0.805321 61:-1 
1 1:-0.670588 2:-0.791182 3:-0.0278324 4:-0.238926 5:-1 6:-0.0909091 7:0.155555 8:-0.888095 9:-1 10:-1 11:-0.47 12:-0.510001 13:-0.633334 14:-1 15:-1 16:-1 17:-1 18:-1 19:-1 20:-1 21:-1 22:-1 23:-1 24:-1 30:-0.998014 31:0.0406522 32:-0.959613 33:0.0406522 34:-0.79509 35:-0.959613 36:-0.998014 37:0.0406522 38:-0.959613 39:0.0406522 40:-0.79509 41:-0.959613 42:-1 43:-0.997005 44:-0.89095 45:-0.972032 46:-0.91539 47:-0.958393 48:-0.953227 49:-0.994449 50:-0.935235 51:-0.779944 52:-1 53:-0.87774 54:-0.25826 55:-0.648478 56:-0.13883 57:-0.228347 58:-0.239665 59:-0.732975 60:-0.802371 61:-0.716488 
1 1:0.0117647 2:-0.744083 3:-0.186816 4:-0.330797 5:-0.975219 6:0.332097 7:-0.41043 8:-0.817299 9:-0.780219 10:-1 11:-1 12:-0.6 13:-1 14:-1 15:-1 16:-0.727891 17:-1 18:-1 19:-1 20:-1 21:-1 22:-1 23:-1 24:-1 30:-0.990007 31:0.246757 32:-0.962947 33:0.246757 34:-0.609989 35:-0.962947 36:-0.990007 37:0.246757 38:-0.962947 39:0.246757 40:-0.609989 41:-0.962947 42:-0.762468 43:-0.704814 44:-0.712858 45:-0.762469 46:-0.796686 47:-0.76456 48:-0.761296 49:-0.943664 50:-0.945555 51:-0.813857 52:-0.346573 53:0.299974 54:0.161962 55:-0.167502 56:-0.11091 57:-0.316189 58:-0.315646 59:-0.56916 60:-0.971005 61:-0.816744 
1 1:-0.564706 2:-0.753797 3:0.0919007 4:0.260382 5:-1 6:0.153989 7:-0.233561 8:-0.725948 9:-1 10:-1 11:-1 12:-1 13:-1 14:-1 15:-0.700681 16:-0.455781 17:-1 18:-0.0816301 19:-1 20:-1 21:-1 22:-1 23:-1 24:-1 30:-0.996158 31:0.127936 32:-0.958941 33:0.127936 34:-0.734356 35:-0.958941 36:-0.996158 37:0.127936 38:-0.958941 39:0.127936 40:-0.734356 41:-0.958941 42:-0.776279 43:-0.860624 44:-0.962747 45:-0.877866 46:-0.880563 47:-0.966072 48:-0.969101 49:-0.986457 50:-0.934788 51:-0.8065 52:-0.490392 53:-0.239792 54:-0.698454 55:-0.330594 56:-0.328302 57:-0.250731 58:-0.223274 59:-0.436033 60:-0.725716 61:-0.826366 
1 1:-0.623529 2:-0.75421 3:0.00547569 4:0.186748 5:-1 6:0.00826549 7:0.116162 8:-1 9:-0.755244 10:-1 11:-1 12:-1 13:-1 14:-1 15:-0.666667 16:-1 17:-1 18:-1 19:0.113638 20:-1 21:-1 22:-1 23:-1 24:-1 30:-0.995977 31:0.191558 32:-0.957355 33:0.191558 34:-0.775465 35:-0.957355 36:-0.995977 37:0.191558 38:-0.957355 39:0.191558 40:-0.775465 41:-0.957355 42:-0.777845 43:-0.998119 44:-1 45:-0.880561 46:-0.883199 47:-0.985983 48:-0.973618 49:-0.954183 50:-0.97754 51:-1 52:-0.578983 53:-0.878324 54:-1 55:-0.581005 56:-0.222642 57:-0.105624 58:-0.396511 59:-0.511596 60:-0.854242 61:-1 
1 1:-0.670588 2:-0.616521 3:-0.0614092 4:-0.36488 5:-0.939286 6:0.181818 7:-0.566667 8:-0.776191 9:0.0769247 10:-0.616667 11:-0.47 12:-1 13:-1 14:-1 15:-1 16:-1 17:-1 18:-1 19:-1 20:-1 21:-1 22:-1 23:-1 24:-1 30:-0.99461 31:-0.193141 32:-0.956351 33:-0.193141 34:-0.778074 35:-0.956351 36:-0.99461 37:-0.193141 38:-0.956351 39:-0.193141 40:-0.778074 41:-0.956351 42:-0.972426 43:-0.852092 44:-0.843055 45:-0.906373 46:-0.926479 47:-0.932585 48:-0.933696 49:-0.958233 50:-1 51:-1 52:-0.898585 53:-0.314373 54:-0.161804 55:-0.243699 56:-0.95601 57:-0.24249 58:-0.492541 59:-0.613669 60:-1 61:-1 
1 1:-0.552941 2:-0.752436 3:0.0184067 4:0.0445823 5:-1 6:0.170909 7:-0.248889 8:-0.820953 9:-0.56923 10:-1 11:-1 12:-1 13:-1 14:-1 15:-1 16:-0.466667 17:-0.59 18:-1 19:-1 20:-1 21:-1 22:-1 23:-1 24:-1 30:-0.995985 31:0.14217 32:-0.957912 33:0.14217 34:-0.744413 35:-0.957912 36:-0.995985 37:0.14217 38:-0.957912 39:0.14217 40:-0.744413 41:-0.957912 42:-0.778111 43:-0.871675 44:-0.882356 45:-0.8816 46:-0.883267 47:-0.976744 48:-1 49:-0.984973 50:-0.940639 51:-1 52:-0.487158 53:-0.36485 54:-0.790277 55:-0.317491 56:-0.311867 57:-0.0914189 58:-1 59:-0.424908 60:-0.721475 61:-1 
1 1:-0.870588 2:0.00315599 3:-0.0430581 4:0.324143 5:-1 6:0.715415 7:-1 8:-1 9:-0.531771 10:-1 11:-1 12:-1 13:-1 14:-1 15:0.275359 16:-1 17:-1 18:-1 19:-1 20:-1 21:-1 22:-1 23:-1 24:-1 30:-0.97885 31:0.164587 32:-0.967988 33:0.164587 34:-0.872186 35:-0.967988 36:-0.97885 37:0.164587 38:-0.967988 39:0.164587 40:-0.872186 41:-0.967988 42:-0.462521 43:-1 44:-1 45:-0.889259 46:-0.913019 47:-0.916803 48:-1 49:-0.907219 50:-1 51:-1 52:-0.906225 53:-1 54:-1 55:-0.690181 56:-0.488037 57:-0.378281 58:-1 59:-0.70152 60:-1 61:-1 
1 1:-0.388235 2:-0.749068 3:-0.0756096 4:-0.227021 5:-0.962054 6:0.113636 7:-0.142361 8:-0.860119 9:-0.831731 10:-1 11:-0.66875 12:-1 13:-0.770834 14:-1 15:-0.770834 16:-1 17:-1 18:-1 19:-1 20:-1 21:-1 22:-1 23:-1 24:-1 30:-0.997398 31:0.204435 32:-0.960273 33:0.204435 34:-0.536734 35:-0.960273 36:-0.997398 37:0.204435 38:-0.960273 39:0.204435 40:-0.536734 41:-0.960273 42:-0.901619 43:-0.825845 44:-0.828417 45:-0.9154 46:-0.897991 47:-0.888058 48:-0.900961 49:-0.933126 50:-0.930804 51:-0.800852 52:-0.382862 53:0.311765 54:0.128727 55:-0.0873428 56:-0.209742 57:-0.329698 58:-0.317072 59:-0.579951 60:-0.805785 61:-0.807782 
1 1:-0.4 2:-0.75035 3:-0.0173783 4:-0.101382 5:-0.961451 6:-0.108226 7:0.146383 8:-0.786849 9:-1 10:-1 11:-0.663492 12:-1 13:-0.767197 14:-1 15:-1 16:-1 17:-1 18:-0.285714 19:-1 20:-1 21:-1 22:-1 23:-1 24:-1 30:-0.997181 31:0.0333722 32:-0.960444 33:0.0333722 34:-0.632978 35:-0.960444 36:-0.997181 37:0.0333722 38:-0.960444 39:0.0333722 40:-0.632978 41:-0.960444 42:-0.869505 43:-0.853249 44:-0.870076 45:-0.826741 46:-0.870817 47:-0.936969 48:-0.900927 49:-0.939068 50:-0.929315 51:-0.889021 52:-0.380275 53:-0.0797935 54:0.151312 55:-0.0951934 56:-0.532719 57:-0.00500711 58:-0.502413 59:-0.36306 60:-0.695815 61:-0.733003 
1 1:-0.470588 2:-0.588609 3:-0.0302414 4:-0.12036 5:-1 6:0.349281 7:-0.543859 8:-0.842941 9:-0.622132 10:-1 11:-0.628069 12:-1 13:-0.485382 14:-0.649122 15:-1 16:-1 17:-1 18:-1 19:-1 20:-1 21:-1 22:-1 23:-1 24:-1 30:-0.9941 31:-0.220964 32:-0.969209 33:-0.220964 34:-0.553511 35:-0.969209 36:-0.9941 37:-0.220964 38:-0.969209 39:-0.220964 40:-0.553511 41:-0.969209 42:-0.834052 43:-0.819862 44:-0.819102 45:-0.824234 46:-0.89185 47:-0.896257 48:-0.922916 49:-0.965055 50:-1 51:-1 52:-0.288424 53:-0.279693 54:0.122066 55:0.143318 56:-0.335703 57:0.247432 58:-0.163396 59:-0.996225 60:-1 61:-1 
1 1:-0.482353 2:-0.619036 3:0.375491 4:0.554851 5:-0.956633 6:0.25974 7:-0.690476 8:-0.920068 9:-0.807692 10:-0.726192 11:0.135714 12:-0.300001 13:-0.476192 14:-1 15:-0.738097 16:-1 17:-1 18:-1 19:-1 20:-1 21:-1 22:-1 23:0.410708 24:-1 30:-0.994196 31:-0.291079 32:-0.958562 33:-0.291079 34:-0.725455 35:-0.958562 36:-0.994196 37:-0.291079 38:-0.958562 39:-0.291079 40:-0.725455 41:-0.958562 42:-0.857269 43:-0.813386 44:-0.817787 45:-0.827995 46:-0.873921 47:-0.894705 48:-0.903629 49:-0.977276 50:-1 51:-0.731609 52:-0.793044 53:-0.191284 54:0.0161659 55:0.138059 56:-0.3099 57:0.0380275 58:-0.309026 59:-0.444438 60:-1 61:-0.81384 
1 1:-0.858824 2:-0.025161 3:-0.312648 4:-0.349389 5:-0.797619 6:0.363636 7:-0.87963 8:-0.813492 9:-0.551281 10:0.277775 11:-1 12:-1 13:-1 14:-1 15:-1 16:-1 17:-1 18:-1 19:-1 20:-1 21:-1 22:-1 23:-1 24:-1 30:-0.981825 31:0.13482 32:-0.963375 33:0.13482 34:-0.803137 35:-0.963375 36:-0.981825 37:0.13482 38:-0.963375 39:0.13482 40:-0.803137 41:-0.963375 42:-0.510367 43:-0.960281 44:-0.871434 45:-1 46:-0.934025 47:-0.936584 48:-1 49:-0.908955 50:-1 51:-1 52:-0.986508 53:-0.826854 54:-0.716343 55:-1 56:-0.530159 57:-0.300407 58:-1 59:-0.615207 60:-1 61:-1 
1 1:-0.435294 2:-0.706897 3:0.238663 4:-0.0690137 5:-1 6:-0.345455 7:0.155555 8:-0.626985 9:-1 10:0.022221 11:-0.646666 12:-0.673333 13:-0.755556 14:-1 15:-1 16:-0.555555 17:-1 18:-1 19:-1 20:-1 21:-1 22:-1 23:-1 24:-1 30:-0.993075 31:-0.108933 32:-0.958177 33:-0.108933 34:-0.81634 35:-0.958177 36:-0.993075 37:-0.108933 38:-0.958177 39:-0.108933 40:-0.81634 41:-0.958177 42:-0.859802 43:-0.816422 44:-0.8011 45:-0.873373 46:-0.848134 47:-0.859275 48:-1 49:-0.874156 50:-0.955288 51:-1 52:-0.834206 53:-0.700067 54:-0.3073 55:-0.660811 56:-0.0493684 57:0.0623 58:-1 59:-0.257898 60:-0.864812 61:-1 
1 1:-0.847059 2:-0.162531 3:-0.150966 4:0.034681 5:-0.902857 6:0.563636 7:-1 8:-0.820953 9:-1 10:-0.386668 11:-1 12:-0.216001 13:-1 14:-0.2 15:-1 16:-1 17:-1 18:-1 19:-1 20:-1 21:-1 22:-1 23:-1 24:-1 30:-0.996757 31:0.00922017 32:-0.957729 33:0.00922017 34:-0.841324 35:-0.957729 36:-0.996757 37:0.00922017 38:-0.957729 39:0.00922017 40:-0.841324 41:-0.957729 42:-0.96653 43:-0.91163 44:-0.853388 45:-1 46:-0.911144 47:-0.969125 48:-1 49:-0.974376 50:-1 51:-1 52:-0.993198 53:-0.725701 54:-0.313753 55:-1 56:-0.287449 57:-0.259515 58:-1 59:-0.228201 60:-1 61:-1 
1 1:-0.505882 2:-0.615093 3:0.394722 4:0.407957 5:-0.955026 6:0.232323 7:-0.786008 8:-0.834216 9:-0.80057 10:-0.4321 11:0.962964 12:-1 13:-1 14:-0.25926 15:-0.728396 16:-1 17:-1 18:-0.166667 19:-1 20:-1 21:-1 22:-1 23:-1 24:-1 30:-0.994791 31:-0.280779 32:-0.957614 33:-0.280779 34:-0.670015 35:-0.957614 36:-0.994791 37:-0.280779 38:-0.957614 39:-0.280779 40:-0.670015 41:-0.957614 42:-0.988962 43:-0.965015 44:-0.837729 45:-0.832654 46:-0.890179 47:-0.924338 48:-0.917455 49:-0.92867 50:-0.999765 51:-1 52:-0.944918 53:-0.61502 54:0.120031 55:0.127896 56:0.136105 57:0.135648 58:0.036745 59:-0.625862 60:-0.828611 61:-1 
1 1:-0.505882 2:-0.746106 3:-0.0427184 4:-0.0538872 5:-0.910053 6:-0.131314 7:0.0699573 8:-0.751323 9:-1 10:-0.71605 11:-1 12:-1 13:-0.728396 14:-1 15:-1 16:-1 17:-1 18:-0.166667 19:-1 20:-1 21:-1 22:-1 23:-1 24:-1 30:-0.997561 31:0.139032 32:-0.957943 33:0.139032 34:-0.660296 35:-0.957943 36:-0.997561 37:0.139032 38:-0.957943 39:0.139032 40:-0.660296 41:-0.957943 42:-0.890225 43:-0.926283 44:-0.868159 45:-0.916767 46:-0.963068 47:-0.966584 48:-0.973751 49:-0.941171 50:-0.941052 51:-1 52:-0.314449 53:-0.417119 54:-0.299934 55:-0.252378 56:-0.0786192 57:-0.162323 58:-0.253073 59:-0.50194 60:-0.917742 61:-1 
1 1:-0.858824 2:-0.170132 3:-0.0128816 4:0.328369 5:-0.898809 6:0.454545 7:-0.759259 8:-1 9:-1 10:-0.361112 11:-1 12:-1 13:-1 14:-1 15:0.222218 16:-1 17:-1 18:-1 19:-1 20:-1 21:-1 22:-1 23:-1 24:-1 30:-0.997558 31:0.0296251 32:-0.958636 33:0.0296251 34:-0.887944 35:-0.958636 36:-0.997558 37:0.0296251 38:-0.958636 39:0.0296251 40:-0.887944 41:-0.958636 42:-0.99237 43:-1 44:-0.890887 45:-1 46:-0.943007 47:-0.927668 48:-1 49:-0.975804 50:-0.959826 51:-1 52:-0.949588 53:-1 54:-0.524503 55:-1 56:-0.393123 57:-0.353698 58:-1 59:-0.632524 60:-0.754677 61:-1 
1 1:-0.4 2:-0.590228 3:0.399583 4:0.479976 5:-0.961451 6:0.203464 7:-0.633157 8:-0.857899 9:-0.82906 10:-0.0264561 11:-1 12:-1 13:-0.767197 14:-0.68254 15:-0.068785 16:-1 17:-1 18:-1 19:-0.222222 20:-1 21:-1 22:-1 23:-1 24:-1 30:-0.994768 31:-0.408767 32:-0.969157 33:-0.408767 34:-0.605149 35:-0.969157 36:-0.994768 37:-0.408767 38:-0.969157 39:-0.408767 40:-0.605149 41:-0.969157 42:-0.85226 43:-0.809521 44:-0.982778 45:-0.907282 46:-0.806468 47:-0.929225 48:-0.91246 49:-0.905629 50:-0.954588 51:-1 52:-0.642445 53:-0.0921173 54:-0.672075 55:0.105784 56:0.278045 57:0.0468008 58:-0.164014 59:0.00954638 60:-0.826311 61:-1 
1 1:-0.541176 2:-0.619951 3:0.332951 4:0.49995 5:-1 6:0.144385 7:-0.433553 8:-0.824463 9:-0.788839 10:-0.699348 11:-0.584315 12:-0.615688 13:-0.71242 14:-0.215686 15:-1 16:-1 17:-1 18:-1 19:-1 20:-1 21:-1 22:0.313725 23:-1 24:-1 30:-0.994664 31:-0.185484 32:-0.968423 33:-0.185484 34:-0.793895 35:-0.968423 36:-0.994664 37:-0.185484 38:-0.968423 39:-0.185484 40:-0.793895 41:-0.968423 42:-0.853215 43:-0.896801 44:-0.861328 45:-0.810979 46:-0.969285 47:-0.852957 48:-0.887717 49:-0.937561 50:-0.94548 51:-0.82781 52:-0.792303 53:-0.67033 54:-0.442707 55:0.0368536 56:-0.793523 57:-0.0330746 58:-0.307722 59:-0.578564 60:-0.735331 61:-0.930655 
1 1:-0.564706 2:-0.620295 3:0.028447 4:0.0479886 5:-1 6:0.421151 7:-0.646259 8:-0.817299 9:-0.560439 10:-1 11:-1 12:-1 13:-1 14:-0.591836 15:-0.401363 16:-1 17:-1 18:-1 19:-1 20:-1 21:-1 22:-1 23:-1 24:-1 30:-0.971976 31:-0.061558 32:-0.953675 33:-0.061558 34:-0.645832 35:-0.953675 36:-0.971976 37:-0.061558 38:-0.953675 39:-0.061558 40:-0.645832 41:-0.953675 42:-0.217085 43:-0.821902 44:-0.827102 45:-0.80572 46:-0.821296 47:-0.891079 48:-0.886459 49:-0.927511 50:-0.960494 51:-1 52:-0.812737 53:-0.250601 54:-0.4968 55:-0.182909 56:-0.0436163 57:0.167685 58:-0.0681277 59:-0.235887 60:-0.966751 61:-1 
1 1:-0.517647 2:-0.616268 3:0.069439 4:-0.22005 5:-1 6:0.176673 7:-0.563943 8:-0.746631 9:-0.187227 10:-0.421385 11:-0.6 12:-0.26038 13:-1 14:-1 15:-1 16:-1 17:-1 18:-1 19:-1 20:-1 21:-1 22:-1 23:-1 24:-1 30:-0.995076 31:-0.271703 32:-0.957421 33:-0.271703 34:-0.686481 35:-0.957421 36:-0.995076 37:-0.271703 38:-0.957421 39:-0.271703 40:-0.686481 41:-0.957421 42:-0.976468 43:-0.833881 44:-0.836455 45:-0.883304 46:-0.908578 47:-0.901215 48:-0.916604 49:-0.929714 50:-0.97656 51:-0.708627 52:-0.883739 53:-0.399163 54:0.127045 55:-0.538279 56:0.101028 57:0.119412 58:-0.332128 59:-0.305487 60:-0.850693 61:-0.591942 
1 1:-0.858824 2:-0.0767291 3:-0.0855881 4:0.180263 5:-0.797619 6:0.363636 7:-0.87963 8:-0.813492 9:-1 10:-0.361112 11:-1 12:-0.183334 13:-1 14:-1 15:-0.38889 16:-1 17:-1 18:-1 19:-1 20:-1 21:-1 22:-1 23:-1 24:-1 30:-0.988513 31:-0.0183031 32:-0.965157 33:-0.0183031 34:-0.818284 35:-0.965157 36:-0.988513 37:-0.0183031 38:-0.965157 39:-0.0183031 40:-0.818284 41:-0.965157 42:-0.609007 43:-0.979554 44:-0.896286 45:-1 46:-0.915074 47:-0.939361 48:-1 49:-0.912188 50:-1 51:-1 52:-0.959913 53:-0.682576 54:-0.664536 55:-1 56:-0.423502 57:-0.37462 58:-1 59:-0.689712 60:-1 61:-1 
1 1:-0.658824 2:-0.620006 3:-0.121407 4:-0.291282 5:-1 6:0.46785 7:-0.647697 8:-1 9:-0.737336 10:-0.626018 11:0.0341468 12:-0.521953 13:-1 14:-1 15:-1 16:-1 17:-1 18:-1 19:-1 20:-1 21:-1 22:-1 23:-1 24:-1 30:-0.994264 31:-0.159902 32:-0.955921 33:-0.159902 34:-0.784849 35:-0.955921 36:-0.994264 37:-0.159902 38:-0.955921 39:-0.159902 40:-0.784849 41:-0.955921 42:-0.966465 43:-0.830556 44:-0.84137 45:-0.979836 46:-0.899093 47:-0.919923 48:-0.910625 49:-1 50:-0.974439 51:-1 52:-0.891453 53:-0.412581 54:-0.220951 55:-0.785091 56:-0.172107 57:-0.205453 58:-0.127582 59:-1 60:-0.826836 61:-1 
1 1:-0.6 2:-0.759578 3:0.18785 4:0.318031 5:-1 6:-0.0909091 7:0.130433 8:-0.902692 9:-1 10:-1 11:-1 12:-0.573914 13:-1 14:-1 15:-0.681161 16:-1 17:-0.554349 18:-0.0217395 19:-1 20:-1 21:-1 22:-1 23:-1 24:-1 30:-0.995331 31:0.17818 32:-0.957445 33:0.17818 34:-0.797942 35:-0.957445 36:-0.995331 37:0.17818 38:-0.957445 39:0.17818 40:-0.797942 41:-0.957445 42:-0.768056 43:-0.999695 44:-1 45:-0.905251 46:-0.849602 47:-0.973282 48:-0.978349 49:-0.975251 50:-0.920568 51:-0.34175 52:-0.711423 53:-0.869388 54:-1 55:-0.507549 56:-0.0718615 57:-0.240004 58:-0.820106 59:-0.396918 60:-0.704077 61:-0.8391 
1 1:-0.635294 2:-0.623322 3:0.0487469 4:-0.226371 5:-1 6:0.238901 7:-0.664083 8:-0.58361 9:-0.749553 10:-0.286823 11:-0.0139538 12:-0.544187 13:-1 14:-1 15:-1 16:-1 17:-1 18:-1 19:-1 20:-1 21:-1 22:-1 23:-1 24:-1 30:-0.994513 31:-0.228737 32:-0.955738 33:-0.228737 34:-0.726804 35:-0.955738 36:-0.994513 37:-0.228737 38:-0.955738 39:-0.228737 40:-0.726804 41:-0.955738 42:-0.963629 43:-0.839384 44:-0.842861 45:-0.903952 46:-1 47:-0.930872 48:-0.921719 49:-0.957348 50:-0.998262 51:-1 52:-0.877868 53:-0.402165 54:-0.18692 55:-0.250762 56:-1 57:-0.201022 58:-0.159283 59:-0.616582 60:-0.821845 61:-1 
0.2371168596835681 1:-0.858824 2:0.00478232 3:-0.263296 4:-0.178712 5:-1 6:0.636363 7:-0.87963 8:-1 9:-1 10:0.277775 11:-1 12:-0.183334 13:-1 14:-1 15:-1 16:-1 17:-1 18:-1 19:-1 20:-1 21:-1 22:-1 23:-1 24:-1 30:-0.979932 31:0.170761 32:-0.967834 33:0.170761 34:-0.828138 35:-0.967834 36:-0.979932 37:0.170761 38:-0.967834 39:0.170761 40:-0.828138 41:-0.967834 42:-0.474693 43:-0.962132 44:-0.899867 45:-1 46:-0.91006 47:-0.935181 48:-1 49:-0.91873 50:-1 51:-1 52:-0.887409 53:-0.938185 54:-0.565685 55:-1 56:-0.34196 57:-0.358259 58:-1 59:-0.640669 60:-1 61:-1 
1 1:-0.435294 2:-0.582089 3:-0.122414 4:-0.232265 5:-1 6:0.563636 7:-0.759259 8:-1 9:-0.461538 10:-0.48889 11:-1 12:-0.673333 13:-1 14:-1 15:-0.755556 16:-1 17:-1 18:-1 19:-1 20:-1 21:-1 22:-1 23:-1 24:-1 30:-0.993764 31:-0.206081 32:-0.957508 33:-0.206081 34:-0.527259 35:-0.957508 36:-0.993764 37:-0.206081 38:-0.957508 39:-0.206081 40:-0.527259 41:-0.957508 42:-0.819159 43:-0.841629 44:-0.828459 45:-0.832543 46:-0.902335 47:-0.900911 48:-0.883944 49:-0.983254 50:-1 51:-0.868625 52:-0.274855 53:-0.673716 54:0.218439 55:0.0969734 56:0.110251 57:0.306507 58:0.455885 59:-0.374436 60:-1 61:-0.905142 
1 1:-0.858824 2:-0.023057 3:-0.0438302 4:0.293034 5:-0.898809 6:0.363636 7:-0.518518 8:-1 9:-1 10:-1 11:-1 12:-1 13:-1 14:-1 15:0.222218 16:-1 17:-1 18:-1 19:-1 20:-1 21:-1 22:-1 23:-1 24:-1 30:-0.982136 31:0.120022 32:-0.963224 33:0.120022 34:-0.924502 35:-0.963224 36:-0.982136 37:0.120022 38:-0.963224 39:0.120022 40:-0.924502 41:-0.963224 42:-0.510561 43:-0.951426 44:-0.921154 45:-1 46:-0.9269 47:-0.947045 48:-1 49:-0.964302 50:-0.971577 51:-1 52:-0.970924 53:-0.955789 54:-0.754642 55:-1 56:-0.604552 57:-0.546571 58:-1 59:-0.778848 60:-0.810195 61:-1 
1 1:-0.764706 2:-0.17409 3:0.148325 4:0.42623 5:-0.924107 6:0.454545 7:-0.909722 8:-0.860119 9:-1 10:-1 11:-0.3375 12:-1 13:-0.0833358 14:-0.375 15:-1 16:-0.166667 17:-1 18:-1 19:-1 20:-1 21:-1 22:-1 23:-1 24:-1 30:-0.996507 31:0.234868 32:-0.959245 33:0.234868 34:-0.915672 35:-0.959245 36:-0.996507 37:0.234868 38:-0.959245 39:0.234868 40:-0.915672 41:-0.959245 42:-0.935342 43:-0.929932 44:-0.870908 45:-1 46:-0.824459 47:-0.859744 48:-0.9533 49:-1 50:-1 51:-1 52:-0.925547 53:-0.9254 54:-0.376583 55:-1 56:-0.226168 57:-0.713131 58:-0.998959 59:-1 60:-1 61:-1 
1 1:-0.647059 2:-0.784579 3:0.155182 4:0.451401 5:-1 6:0.168832 7:-0.174604 8:-0.893424 9:-1 10:-1 11:-1 12:-1 13:-1 14:-1 15:-0.650795 16:-1 17:-1 18:0.0714286 19:0.166666 20:-1 21:-1 22:-1 23:-1 24:-1 30:-0.997337 31:0.0270467 32:-0.958293 33:0.0270467 34:-0.812122 35:-0.958293 36:-0.997337 37:0.0270467 38:-0.958293 39:0.0270467 40:-0.812122 41:-0.958293 42:-1 43:-0.980928 44:-0.888614 45:-0.921815 46:-0.951332 47:-0.961257 48:-0.977615 49:-1 50:-0.965705 51:-1 52:-1 53:-0.865914 54:-0.297812 55:-0.474722 56:-0.135448 57:-0.118056 58:-0.222877 59:-1 60:-0.874879 61:-1 
1 1:-0.870588 2:-0.0830037 3:-0.150144 4:0.0379363 5:-1 6:0.525692 7:-0.874396 8:-0.610767 9:-1 10:-0.333334 11:-1 12:-1 13:-1 14:-1 15:-0.36232 16:-1 17:-1 18:-1 19:-1 20:-1 21:-1 22:-1 23:-1 24:-1 30:-0.989955 31:0.244693 32:-0.962696 33:0.244693 34:-0.824348 35:-0.962696 36:-0.989955 37:0.244693 38:-0.962696 39:0.244693 40:-0.824348 41:-0.962696 42:-0.644609 43:-0.973855 44:-0.876275 45:-1 46:-0.902259 47:-0.924771 48:-1 49:-0.929404 50:-1 51:-1 52:-0.849681 53:-0.901645 54:-0.563748 55:-1 56:-0.480403 57:-0.288081 58:-1 59:-0.529391 60:-1 61:-1 
1 1:-0.482353 2:-0.58513 3:-0.00784447 4:0.126114 5:-1 6:0.454545 7:-0.690476 8:-0.920068 9:-0.230768 10:-1 11:-1 12:-0.650001 13:-1 14:-1 15:-0.738097 16:-1 17:-1 18:-1 19:-0.125002 20:-1 21:-1 22:-1 23:-1 24:-1 30:-0.994073 31:-0.229338 32:-0.958389 33:-0.229338 34:-0.534482 35:-0.958389 36:-0.994073 37:-0.229338 38:-0.958389 39:-0.229338 40:-0.534482 41:-0.958389 42:-0.835648 43:-0.813492 44:-0.823964 45:-0.84583 46:-0.887674 47:-0.891893 48:-0.878205 49:-0.973286 50:-1 51:-1 52:-0.282884 53:-0.259924 54:0.00829099 55:0.168669 56:0.0457499 57:0.250389 58:0.0238291 59:-0.663763 60:-1 61:-1 
1 1:-0.705882 2:-0.794632 3:0.00634352 4:-0.109598 5:-1 6:-0.00245596 7:-0.141142 8:-0.637066 9:-0.70894 10:-1 11:-1 12:-0.470272 13:-1 14:-1 15:-1 16:-0.27928 17:-1 18:-1 19:-1 20:-1 21:-1 22:-1 23:-1 24:-1 30:-0.99776 31:0.000566953 32:-0.958736 33:0.000566953 34:-0.797864 35:-0.958736 36:-0.99776 37:0.000566953 38:-0.958736 39:0.000566953 40:-0.797864 41:-0.958736 42:-1 43:-0.994183 44:-0.927311 45:-0.90364 46:-0.950151 47:-0.973073 48:-0.975921 49:-0.942603 50:-0.972233 51:-1 52:-1 53:-0.876214 54:-0.364528 55:-0.306698 56:-0.169673 57:-0.22011 58:-0.232123 59:-0.757242 60:-0.864927 61:-1 
1 1:-0.423529 2:-0.574204 3:0.0107784 4:0.0672578 5:-0.960187 6:0.356185 7:-0.621128 8:-0.85324 9:-0.823455 10:-0.497268 11:-0.65246 12:-0.67869 13:-1 14:-0.672132 15:-1 16:-1 17:-1 18:-0.262296 19:-1 20:-1 21:-1 22:-1 23:-1 24:-1 30:-0.994224 31:-0.185179 32:-0.95841 33:-0.185179 34:-0.53733 35:-0.95841 36:-0.994224 37:-0.185179 38:-0.95841 39:-0.185179 40:-0.53733 41:-0.95841 42:-0.840773 43:-0.821094 44:-0.979078 45:-0.830029 46:-0.875656 47:-0.90551 48:-0.902107 49:-0.882472 50:-0.96012 51:-0.814978 52:-0.24822 53:-0.251537 54:-0.624468 55:0.0913281 56:0.130099 57:0.317081 58:-0.121746 59:0.441688 60:-0.714055 61:-0.752068 
1 1:-0.494118 2:-0.613759 3:0.339567 4:0.56718 5:-1 6:0.32562 7:-0.684848 8:-0.83723 9:-0.804196 10:-0.442426 11:-1 12:-0.643637 13:-0.733334 14:-0.636364 15:-0.466669 16:-1 17:-1 18:-1 19:-1 20:-1 21:-1 22:-1 23:0.43636 24:-1 30:-0.994819 31:-0.281893 32:-0.968246 33:-0.281893 34:-0.74423 35:-0.968246 36:-0.994819 37:-0.281893 38:-0.968246 39:-0.281893 40:-0.74423 41:-0.968246 42:-0.848485 43:-0.833672 44:-0.830643 45:-0.839625 46:-0.878063 47:-0.86214 48:-0.898728 49:-0.943319 50:-1 51:-1 52:-0.704412 53:-0.489828 54:-0.40963 55:0.0509167 56:0.00319504 57:-0.0455429 58:-0.295435 59:-0.530977 60:-1 61:-1 
1 1:-0.423529 2:-0.584867 3:-0.0287466 4:-0.000917012 5:-1 6:0.391951 7:-0.621128 8:-0.85324 9:-0.64691 10:-0.497268 11:-1 12:-0.67869 13:-1 14:-1 15:-0.759564 16:-1 17:-0.663935 18:-1 19:-1 20:-1 21:-1 22:-1 23:-1 24:-1 30:-0.994919 31:-0.250662 32:-0.958414 33:-0.250662 34:-0.429032 35:-0.958414 36:-0.994919 37:-0.250662 38:-0.958414 39:-0.250662 40:-0.429032 41:-0.958414 42:-0.792227 43:-0.848551 44:-0.844664 45:-0.865419 46:-0.896226 47:-0.928872 48:-0.913007 49:-0.989611 50:-1 51:-1 52:-0.311267 53:-0.556464 54:0.259593 55:0.373896 56:0.197555 57:0.376498 58:0.468447 59:-0.27524 60:-1 61:-1 
1 1:-0.588235 2:-0.774285 3:-0.0348739 4:-0.344 5:-1 6:0.025144 7:-0.0780144 8:-0.809524 9:-0.770867 10:-0.673759 11:-0.548936 12:-1 13:-0.687944 14:-1 15:-1 16:-1 17:-1 18:-1 19:-1 20:-1 21:-1 22:-1 23:-1 24:-1 30:-0.997438 31:0.0875596 32:-0.956868 33:0.0875596 34:-0.813726 35:-0.956868 36:-0.997438 37:0.0875596 38:-0.956868 39:0.0875596 40:-0.813726 41:-0.956868 42:-0.976045 43:-0.951729 44:-0.979913 45:-0.923988 46:-0.969472 47:-0.952573 48:-0.978173 49:-0.976966 50:-0.931568 51:-1 52:-0.967924 53:-0.579197 54:-0.574832 55:-0.422734 56:-0.170345 57:-0.141884 58:-0.171494 59:-0.162324 60:-0.802103 61:-1 
1 1:-0.635294 2:-0.778314 3:0.0464461 4:-0.315548 5:-1 6:-0.319238 7:0.343668 8:-0.791805 9:-0.499105 10:-1 11:-0.506977 12:-1 13:-0.658916 14:-1 15:-1 16:-1 17:-1 18:-1 19:-1 20:-1 21:-1 22:-1 23:-1 24:-1 30:-0.996443 31:0.0517894 32:-0.955618 33:0.0517894 34:-0.840669 35:-0.955618 36:-0.996443 37:0.0517894 38:-0.955618 39:0.0517894 40:-0.840669 41:-0.955618 42:-0.991408 43:-0.958652 44:-0.98327 45:-0.914751 46:-0.931625 47:-0.954482 48:-0.967916 49:-0.946472 50:-0.964577 51:-1 52:-0.917239 53:-0.708896 54:-0.613483 55:-0.48827 56:-0.160429 57:-0.370683 58:-0.209027 59:-0.47485 60:-0.869 61:-1 
1 1:-0.458824 2:-0.761891 3:-0.0432928 4:-0.285485 5:-1 6:-0.0909091 7:0.095784 8:-0.768473 9:-0.628646 10:-1 11:-1 12:-0.662069 13:-1 14:-1 15:-0.747127 16:-1 17:-1 18:-1 19:-1 20:-1 21:-1 22:-1 23:-1 24:-1 30:-0.997336 31:0.0665742 32:-0.959142 33:0.0665742 34:-0.662913 35:-0.959142 36:-0.997336 37:0.0665742 38:-0.959142 39:0.0665742 40:-0.662913 41:-0.959142 42:-0.847112 43:-0.87691 44:-0.876435 45:-0.855184 46:-0.892065 47:-0.962072 48:-1 49:-0.958321 50:-0.97934 51:-1 52:-0.746075 53:-0.304654 54:-0.232826 55:-0.0280018 56:-0.0638555 57:0.169775 58:-1 59:-0.0648353 60:-0.814368 61:-1 
1 1:-0.0588235 2:-0.747674 3:-0.165697 4:-0.214065 5:-1 6:0.241107 7:-0.183574 8:-0.902692 9:-0.882943 10:-1 11:-0.769564 12:-1 13:-0.84058 14:-1 15:-1 16:-1 17:-1 18:-1 19:-0.467389 20:-1 21:-1 22:-1 23:-1 24:-1 30:-0.988524 31:0.106836 32:-0.965812 33:0.106836 34:-0.68495 35:-0.965812 36:-0.988524 37:0.106836 38:-0.965812 39:0.106836 40:-0.68495 41:-0.965812 42:-0.765611 43:-0.705726 44:-0.713306 45:-0.731557 46:-0.832821 47:-0.774197 48:-0.761277 49:-0.907992 50:-0.983542 51:-0.834245 52:-0.376144 53:-0.0848659 54:0.236603 55:-0.317493 56:-0.105003 57:-0.195318 58:-0.259879 59:-0.723568 60:-0.953018 61:-0.841934 
1 1:-0.517647 2:-0.619548 3:0.318189 4:0.195845 5:-1 6:0.259004 7:-0.727463 8:-0.831088 9:-0.796807 10:-0.710693 11:1 12:-0.63019 13:-0.723272 14:-0.622642 15:-1 16:-0.496856 17:-1 18:-1 19:-1 20:-1 21:-1 22:-1 23:-1 24:-1 30:-0.995481 31:-0.287348 32:-0.969086 33:-0.287348 34:-0.641208 35:-0.969086 36:-0.995481 37:-0.287348 38:-0.969086 39:-0.287348 40:-0.641208 41:-0.969086 42:-0.873965 43:-0.830411 44:-0.879975 45:-0.883141 46:-0.851192 47:-0.925763 48:-0.936083 49:-0.975346 50:-0.948983 51:-0.785421 52:-0.789775 53:-0.0647493 54:-0.705003 55:-0.0720146 56:0.19303 57:0.175726 58:-0.566174 59:-0.323439 60:-0.745144 61:-0.770177 
1 1:-0.576471 2:-0.762484 3:0.0735064 4:0.045147 5:-1 6:0.136364 7:-0.157407 8:-0.906746 9:-1 10:-1 11:-1 12:-0.591668 13:-0.38889 14:-1 15:-1 16:-1 17:-0.572917 18:-1 19:-1 20:-1 21:-1 22:-1 23:-1 24:-1 30:-0.995935 31:0.166329 32:-0.957497 33:0.166329 34:-0.792621 35:-0.957497 36:-0.995935 37:0.166329 38:-0.957497 39:0.166329 40:-0.792621 41:-0.957497 42:-0.773241 43:-0.979941 44:-1 45:-0.876525 46:-0.887651 47:-0.94136 48:-0.970749 49:-0.975178 50:-0.934065 51:-1 52:-0.617095 53:-0.859699 54:-1 55:-0.379336 56:-0.496421 57:-0.19406 58:-0.21573 59:-0.24375 60:-0.746993 61:-1 
1 1:-0.611765 2:-0.752845 3:-0.0759524 4:0.0405489 5:-0.946032 6:0.030304 7:-0.101235 8:-0.701587 9:-0.760684 10:-1 11:-1 12:-1 13:-1 14:-1 15:-1 16:-1 17:-1 18:-1 19:-1 20:0.48889 21:-1 22:-1 23:-1 24:-1 30:-0.995286 31:0.0960771 32:-0.959064 33:0.0960771 34:-0.736481 35:-0.959064 36:-0.995286 37:0.0960771 38:-0.959064 39:0.0960771 40:-0.736481 41:-0.959064 42:-0.758421 43:-0.829947 44:-0.98019 45:-0.830615 46:-0.844555 47:-0.982632 48:-0.99077 49:-0.988944 50:-0.93228 51:-1 52:-0.586869 53:-0.642692 54:-0.911285 55:-0.0405641 56:-0.204995 57:-0.367767 58:-0.232581 59:-0.602193 60:-0.711859 61:-1 
1 1:-0.847059 2:-0.010888 3:-0.239293 4:0.0583999 5:-1 6:0.650909 7:-0.884444 8:-0.820953 9:-0.56923 10:-1 11:-1 12:-1 13:-1 14:-1 15:-1 16:0.0666667 17:-1 18:-1 19:-1 20:-1 21:-1 22:-1 23:-1 24:-1 30:-0.982116 31:0.153882 32:-0.96583 33:0.153882 34:-0.822682 35:-0.96583 36:-0.982116 37:0.153882 38:-0.96583 39:0.153882 40:-0.822682 41:-0.96583 42:-0.49365 43:-0.969998 44:-0.891308 45:-1 46:-0.910495 47:-0.930086 48:-1 49:-0.920526 50:-1 51:-1 52:-0.921228 53:-0.929055 54:-0.802977 55:-1 56:-0.187922 57:-0.453559 58:-1 59:-0.599265 60:-1 61:-1 
1 1:-0.870588 2:-0.0852848 3:-0.337528 4:-0.398261 5:-1 6:0.620553 7:-0.748792 8:-1 9:-1 10:-0.333334 11:-0.0782598 12:-1 13:-1 14:-1 15:-1 16:-1 17:-1 18:-1 19:-1 20:-1 21:-1 22:-1 23:-1 24:-1 30:-0.989417 31:-0.106053 32:-0.965206 33:-0.106053 34:-0.831641 35:-0.965206 36:-0.989417 37:-0.106053 38:-0.965206 39:-0.106053 40:-0.831641 41:-0.965206 42:-0.634451 43:-0.986629 44:-0.8957 45:-1 46:-0.921067 47:-0.939459 48:-1 49:-0.908921 50:-1 51:-1 52:-0.897873 53:-0.857286 54:-0.668224 55:-1 56:-0.397414 57:-0.37839 58:-1 59:-0.651355 60:-1 61:-1 
1 1:-0.588235 2:-0.0647502 3:-0.137254 4:0.187044 5:-1 6:0.628626 7:-0.877069 8:-0.904762 9:-0.770867 10:-0.673759 11:-1 12:-1 13:-1 14:-1 15:-0.375888 16:-0.432624 17:-1 18:-1 19:-1 20:-1 21:-1 22:-1 23:-1 24:-1 30:-0.986042 31:0.259266 32:-0.960736 33:0.259266 34:-0.726481 35:-0.960736 36:-0.986042 37:0.259266 38:-0.960736 39:0.259266 40:-0.726481 41:-0.960736 42:-0.563509 43:-0.733934 44:-0.721224 45:-1 46:-0.752503 47:-0.761361 48:-1 49:-0.769701 50:-1 51:-1 52:-0.531567 53:-0.714384 54:-0.3255 55:-1 56:-0.601552 57:-0.477792 58:-1 59:-0.459529 60:-1 61:-1 
1 1:-0.858824 2:-0.0100967 3:-0.353891 4:-0.342582 5:-1 6:0.636363 7:-0.759259 8:-1 9:-1 10:-1 11:0.766666 12:-1 13:-1 14:-1 15:-1 16:-1 17:-1 18:-1 19:-1 20:-1 21:-1 22:-1 23:-1 24:-1 30:-0.981444 31:0.173253 32:-0.967649 33:0.173253 34:-0.839998 35:-0.967649 36:-0.981444 37:0.173253 38:-0.967649 39:0.173253 40:-0.839998 41:-0.967649 42:-0.503488 43:-0.972254 44:-0.854089 45:-1 46:-0.884075 47:-0.925541 48:-1 49:-0.926901 50:-1 51:-1 52:-0.913689 53:-0.927041 54:-0.286511 55:-1 56:-0.446526 57:-0.404278 58:-1 59:-0.595617 60:-1 61:-1 
1 1:-0.858824 2:-0.087072 3:-0.297268 4:-0.335754 5:-1 6:0.636363 7:-0.87963 8:-0.813492 9:-1 10:-0.361112 11:-0.116666 12:-1 13:-1 14:-1 15:-1 16:-1 17:-1 18:-1 19:-1 20:-1 21:-1 22:-1 23:-1 24:-1 30:-0.989825 31:0.114845 32:-0.964085 33:0.114845 34:-0.858297 35:-0.964085 36:-0.989825 37:0.114845 38:-0.964085 39:0.114845 40:-0.858297 41:-0.964085 42:-0.634099 43:-0.981798 44:-0.879023 45:-1 46:-0.916175 47:-0.921386 48:-1 49:-0.911811 50:-1 51:-1 52:-0.949492 53:-0.870474 54:-0.723305 55:-1 56:-0.334056 57:-0.386331 58:-1 59:-0.672738 60:-1 61:-1 
1 1:-0.858824 2:-0.0156045 3:-0.219738 4:-0.00676674 5:-1 6:0.636363 7:-0.87963 8:-1 9:-0.551281 10:-0.361112 11:-1 12:-1 13:-1 14:-1 15:-0.38889 16:-1 17:-1 18:-1 19:-1 20:-1 21:-1 22:-1 23:-1 24:-1 30:-0.981838 31:0.152499 32:-0.966381 33:0.152499 34:-0.846683 35:-0.966381 36:-0.981838 37:0.152499 38:-0.966381 39:0.152499 40:-0.846683 41:-0.966381 42:-0.499885 43:-0.970081 44:-0.890863 45:-1 46:-0.908216 47:-0.926514 48:-1 49:-0.940008 50:-1 51:-1 52:-0.917335 53:-0.890051 54:-0.618058 55:-1 56:-0.363064 57:-0.277905 58:-1 59:-0.452178 60:-1 61:-1 
1 1:-0.858824 2:-0.0834148 3:-0.443067 4:-0.422069 5:-1 6:0.818183 7:-1 8:-1 9:-1 10:-0.361112 11:-0.116666 12:-1 13:-1 14:-1 15:-1 16:-1 17:-1 18:-1 19:-1 20:-1 21:-1 22:-1 23:-1 24:-1 30:-0.98617 31:0.196521 32:-0.962226 33:0.196521 34:-0.796193 35:-0.962226 36:-0.98617 37:0.196521 38:-0.962226 39:0.196521 40:-0.796193 41:-0.962226 42:-0.565286 43:-0.966813 44:-0.880537 45:-1 46:-0.86943 47:-0.904833 48:-1 49:-0.932025 50:-1 51:-1 52:-0.890603 53:-0.987704 54:-0.25135 55:-1 56:-0.405718 57:-0.698181 58:-1 59:-0.446172 60:-1 61:-1 
1 1:-0.905882 2:-0.174536 3:-0.122893 4:0.199449 5:-1 6:0.672727 7:-0.855556 8:-1 9:-1 10:-1 11:0.0600003 12:-1 13:-1 14:-1 15:-1 16:0.333333 17:-1 18:-1 19:-1 20:-1 21:-1 22:-1 23:-1 24:-1 30:-0.997651 31:0.0136165 32:-0.957117 33:0.0136165 34:-0.842357 35:-0.957117 36:-0.997651 37:0.0136165 38:-0.957117 39:0.0136165 40:-0.842357 41:-0.957117 42:-0.982299 43:-0.991086 44:-0.93173 45:-1 46:-0.97393 47:-0.960276 48:-1 49:-0.950231 50:-1 51:-1 52:-0.976057 53:-0.817457 54:-0.431898 55:-1 56:-0.342307 57:-0.320265 58:-1 59:-0.365208 60:-1 61:-1 
0.08442779878428912 1:-0.117647 2:-0.537928 3:0.333637 4:0.189087 5:-1 6:-0.404388 7:0.328224 8:-0.794198 9:-0.628646 10:-0.64751 11:-0.756321 12:-0.774712 13:-1 14:-1 15:-0.662836 16:-0.386973 17:-1 18:-0.482756 19:-1 20:-1 21:-1 22:-1 23:-1 24:-1 30:-0.987325 31:0.732594 32:-0.959477 33:0.732594 34:-0.382148 35:-0.959477 36:-0.987325 37:0.732594 38:-0.959477 39:0.732594 40:-0.382148 41:-0.959477 42:-0.522162 43:-0.72074 44:-0.730115 45:-0.744336 46:-0.763673 47:-0.75746 48:-0.746759 49:-0.952878 50:-0.953285 51:-1 52:0.146825 53:-0.351668 54:-0.281826 55:-0.314236 56:-0.721099 57:-0.826989 58:-0.558763 59:-0.397954 60:-0.802475 61:-1 
1 1:-0.788235 2:0.0425047 3:-0.393641 4:-0.340118 5:-0.919048 6:0.563636 7:-0.711111 8:-1 9:-1 10:-0.48889 11:-1 12:-0.346668 13:-1 14:-1 15:-1 16:-1 17:-1 18:-1 19:-1 20:-1 21:-1 22:-1 23:-1 24:-1 30:-0.979998 31:0.197288 32:-0.967536 33:0.197288 34:-0.675323 35:-0.967536 36:-0.979998 37:0.197288 38:-0.967536 39:0.197288 40:-0.675323 41:-0.967536 42:-0.407614 43:-0.866666 44:-1 45:-0.881534 46:-0.925885 47:-0.910822 48:-1 49:-0.937849 50:-1 51:-1 52:-0.698414 53:-0.386379 54:-1 55:0.277363 56:-0.25341 57:-0.580652 58:-1 59:-0.438263 60:-1 61:-1 
1 1:-0.494118 2:-0.616995 3:0.0923733 4:0.219059 5:-1 6:0.32562 7:-0.474748 8:-0.918615 9:-0.804196 10:-0.721213 11:-0.614546 12:-1 13:-1 14:-0.636364 15:-1 16:-1 17:-0.627273 18:-0.181818 19:-1 20:-1 21:-1 22:-1 23:-1 24:-1 30:-0.972168 31:-0.0480758 32:-0.953657 33:-0.0480758 34:-0.65021 35:-0.953657 36:-0.972168 37:-0.0480758 38:-0.953657 39:-0.0480758 40:-0.65021 41:-0.953657 42:-0.176058 43:-0.795001 44:-0.831434 45:-0.826369 46:-0.841119 47:-0.870497 48:-0.869067 49:-1 50:-1 51:-1 52:-0.87341 53:-0.503362 54:-0.50961 55:0.186347 56:-0.115181 57:0.146092 58:0.202924 59:-1 60:-1 61:-1 
1 1:-0.258824 2:-0.429526 3:0.0626662 4:0.292647 5:-1 6:0.447273 7:-0.691851 8:-1 9:-0.425641 10:-0.795556 11:-1 12:-1 13:-0.804445 14:-0.733334 15:-0.608889 16:-1 17:-0.453333 18:-1 19:-1 20:-1 21:-1 22:-1 23:-1 24:-1 30:-0.992073 31:0.657646 32:-0.958312 33:0.657646 34:-0.528807 35:-0.958312 36:-0.992073 37:0.657646 38:-0.958312 39:0.657646 40:-0.528807 41:-0.958312 42:-0.926541 43:-0.76628 44:-0.910551 45:-0.78233 46:-0.773431 47:-0.766145 48:-0.859368 49:-0.775646 50:-0.886353 51:-1 52:-0.691829 53:0.155376 54:-0.531057 55:0.413738 56:0.260182 57:-0.234151 58:-0.859881 59:-0.149726 60:-0.847568 61:-1 
1 1:-0.823529 2:-0.015286 3:-0.304026 4:-0.367508 5:-1 6:0.59596 7:-0.893004 8:-0.834216 9:-0.601139 10:-0.4321 11:-0.214815 12:-1 13:-1 14:-1 15:-1 16:-1 17:-1 18:-1 19:-1 20:-1 21:-1 22:-1 23:-1 24:-1 30:-0.983548 31:0.151384 32:-0.966367 33:0.151384 34:-0.863153 35:-0.966367 36:-0.983548 37:0.151384 38:-0.966367 39:0.151384 40:-0.863153 41:-0.966367 42:-0.510634 43:-0.886033 44:-0.876536 45:-1 46:-0.86518 47:-0.908066 48:-1 49:-0.942443 50:-1 51:-1 52:-0.93608 53:-0.886275 54:-0.566366 55:-1 56:-0.286769 57:-0.575805 58:-1 59:-0.426405 60:-1 61:-1 
1 1:-0.858824 2:-0.0201358 3:-0.188663 4:0.0303795 5:-1 6:0.545455 7:-0.759259 8:-1 9:-0.551281 10:-0.361112 11:-1 12:-1 13:-1 14:-1 15:-0.38889 16:-1 17:-1 18:-1 19:-1 20:-1 21:-1 22:-1 23:-1 24:-1 30:-0.982005 31:0.165605 32:-0.96667 33:0.165605 34:-0.844445 35:-0.96667 36:-0.982005 37:0.165605 38:-0.96667 39:0.165605 40:-0.844445 41:-0.96667 42:-0.508525 43:-1 44:-0.89416 45:-1 46:-0.922529 47:-0.929432 48:-1 49:-0.92057 50:-1 51:-1 52:-0.910728 53:-1 54:-0.663218 55:-1 56:-0.328625 57:-0.423766 58:-1 59:-0.611918 60:-1 61:-1 
1 1:-0.870588 2:-0.0235493 3:-0.255887 4:0.134105 5:-1 6:0.810276 7:-1 8:-1 9:-1 10:-0.333334 11:-1 12:-1 13:-1 14:-1 15:-1 16:0.159421 17:-1 18:-1 19:-1 20:-1 21:-1 22:-1 23:-1 24:-1 30:-0.981531 31:0.160493 32:-0.962117 33:0.160493 34:-0.842124 35:-0.962117 36:-0.981531 37:0.160493 38:-0.962117 39:0.160493 40:-0.842124 41:-0.962117 42:-0.507881 43:-0.975602 44:-0.889749 45:-1 46:-0.913512 47:-0.930424 48:-1 49:-0.929038 50:-1 51:-1 52:-0.926958 53:-0.901848 54:-0.736541 55:-1 56:-0.457143 57:-0.432301 58:-1 59:-0.530872 60:-1 61:-1 
1 1:-0.235294 2:-0.286657 3:0.053083 4:0.291025 5:-1 6:0.489965 7:-0.737374 8:-0.941868 9:-0.72028 10:-1 11:-0.724676 12:-0.745455 13:-0.809525 14:-0.48052 15:-0.809525 16:-1 17:-0.467533 18:-1 19:-1 20:-1 21:-1 22:-1 23:-1 24:-1 30:-0.986804 31:0.26901 32:-0.962553 33:0.26901 34:-0.572684 35:-0.962553 36:-0.986804 37:0.26901 38:-0.962553 39:0.26901 40:-0.572684 41:-0.962553 42:-0.486872 43:-0.710458 44:-0.715468 45:-0.71986 46:-0.845034 47:-0.766655 48:-0.764464 49:-0.799038 50:-0.926249 51:-1 52:-0.256003 53:-0.320649 54:0.00695611 55:-0.0836629 56:-0.234514 57:-0.470265 58:-0.601431 59:-0.435179 60:-0.904443 61:-1 
1 1:-0.223529 2:-0.236144 3:-0.0912367 4:-0.0847908 5:-1 6:0.580419 7:-0.851852 8:-0.942613 9:-0.861933 10:-0.410258 11:-0.456411 12:-0.748719 13:-0.623933 14:-0.74359 15:-1 16:-1 17:-1 18:-1 19:-1 20:-1 21:-1 22:-1 23:-1 24:-1 30:-0.98525 31:0.215181 32:-0.96269 33:0.215181 34:-0.528086 35:-0.96269 36:-0.98525 37:0.215181 38:-0.96269 39:0.215181 40:-0.528086 41:-0.96269 42:-0.41162 43:-0.707386 44:-0.841042 45:-0.719462 46:-0.733731 47:-0.767748 48:-0.771529 49:-0.766211 50:-0.922522 51:-0.935699 52:-0.169799 53:-0.00861076 54:-0.405396 55:-0.483017 56:-0.22688 57:-0.387004 58:-0.392437 59:-0.354622 60:-0.817553 61:-0.397117 
1 1:-0.364706 2:-0.585128 3:-0.0333483 4:-0.13722 5:-1 6:0.272728 7:-0.518518 8:-0.728716 9:-0.673659 10:-0.767677 11:-0.357576 12:-0.703031 13:-1 14:-1 15:-1 16:-0.59596 17:-1 18:-1 19:-1 20:-1 21:-1 22:-1 23:-1 24:-1 30:-0.994351 31:-0.21572 32:-0.957423 33:-0.21572 34:-0.475184 35:-0.957423 36:-0.994351 37:-0.21572 38:-0.957423 39:-0.21572 40:-0.475184 41:-0.957423 42:-0.831153 43:-0.821861 44:-0.830241 45:-0.845634 46:-0.869592 47:-0.902868 48:-0.896647 49:-0.976062 50:-1 51:-1 52:-0.242628 53:-0.249868 54:0.388142 55:0.228789 56:0.105077 57:0.309661 58:0.319198 59:-0.53762 60:-1 61:-1 
1 1:-0.870588 2:-0.016412 3:-0.167399 4:0.0329869 5:-1 6:0.525692 7:-0.748792 8:-1 9:-0.531771 10:-0.333334 11:-1 12:-1 13:-1 14:-1 15:-0.36232 16:-1 17:-1 18:-1 19:-1 20:-1 21:-1 22:-1 23:-1 24:-1 30:-0.98175 31:0.183158 32:-0.967194 33:0.183158 34:-0.84829 35:-0.967194 36:-0.98175 37:0.183158 38:-0.967194 39:0.183158 40:-0.84829 41:-0.967194 42:-0.500124 43:-1 44:-0.889747 45:-1 46:-0.908796 47:-0.929614 48:-1 49:-0.912296 50:-1 51:-1 52:-0.908341 53:-1 54:-0.729548 55:-1 56:-0.479372 57:-0.444729 58:-1 59:-0.684505 60:-1 61:-1 
1 1:-0.470588 2:-0.571312 3:-0.0426875 4:0.0523498 5:-1 6:0.425837 7:-0.645224 8:-0.842941 9:-0.622132 10:-0.730994 11:-0.256141 12:-1 13:-1 14:-1 15:-1 16:-1 17:-1 18:-1 19:-1 20:0.175443 21:-1 22:-1 23:-1 24:-1 30:-0.993535 31:-0.186778 32:-0.957758 33:-0.186778 34:-0.49669 35:-0.957758 36:-0.993535 37:-0.186778 38:-0.957758 39:-0.186778 40:-0.49669 41:-0.957758 42:-0.805956 43:-0.984444 44:-0.974282 45:-0.825866 46:-0.819557 47:-0.905822 48:-0.907144 49:-0.918331 50:-0.958245 51:-1 52:-0.234823 53:-0.685744 54:-0.455339 55:0.0443422 56:0.116522 57:0.310664 58:0.34632 59:-0.182309 60:-0.746649 61:-1 
1 1:-0.823529 2:-0.0101243 3:-0.327417 4:-0.130012 5:-1 6:0.676768 7:-0.786008 8:-1 9:-1 10:-0.4321 11:-1 12:-1 13:-1 14:-0.25926 15:-1 16:-1 17:-1 18:-1 19:-1 20:-1 21:-1 22:-1 23:-1 24:-1 30:-0.983009 31:0.224094 32:-0.961884 33:0.224094 34:-0.642875 35:-0.961884 36:-0.983009 37:0.224094 38:-0.961884 39:0.224094 40:-0.642875 41:-0.961884 42:-0.487029 43:-0.850189 44:-0.892859 45:-1 46:-0.911886 47:-0.925017 48:-1 49:-0.916296 50:-1 51:-1 52:-0.699107 53:-0.483313 54:-0.269828 55:-1 56:-0.460045 57:-0.476353 58:-1 59:-0.693312 60:-1 61:-1 
1 1:-0.858824 2:-0.0114306 3:-0.130885 4:0.126905 5:-1 6:0.545455 7:-0.759259 8:-1 9:-0.551281 10:-0.361112 11:-1 12:-1 13:-1 14:-1 15:-1 16:0.111112 17:-1 18:-1 19:-1 20:-1 21:-1 22:-1 23:-1 24:-1 30:-0.981693 31:0.191469 32:-0.967547 33:0.191469 34:-0.842838 35:-0.967547 36:-0.981693 37:0.191469 38:-0.967547 39:0.191469 40:-0.842838 41:-0.967547 42:-0.499284 43:-0.964678 44:-0.888227 45:-1 46:-0.917097 47:-0.928385 48:-1 49:-0.912215 50:-0.991702 51:-1 52:-0.885792 53:-0.925934 54:-0.743699 55:-1 56:-0.33046 57:-0.475795 58:-1 59:-0.74694 60:-0.885091 61:-1 
1 1:-0.564706 2:-0.0250148 3:0.247595 4:0.256148 5:-1 6:0.332097 7:-0.823129 8:-1 9:-0.560439 10:-1 11:0.29796 12:1 13:-0.700681 14:-0.591836 15:-1 16:-1 17:-1 18:-1 19:-1 20:-1 21:-1 22:-1 23:-1 24:-1 30:-0.988557 31:0.353375 32:-0.956584 33:0.353375 34:-0.6469 35:-0.956584 36:-0.988557 37:0.353375 38:-0.956584 39:0.353375 40:-0.6469 41:-0.956584 42:-0.704114 43:-0.825463 44:-0.912153 45:-0.919362 46:-0.729179 47:-0.726805 48:-1 49:-0.717439 50:-0.949767 51:-0.459697 52:-0.20635 53:-0.501735 54:-0.562779 55:-0.642108 56:-0.580872 57:-0.550017 58:-1 59:-0.681934 60:-0.963556 61:-0.891342 
1 1:-0.247059 2:-0.295414 3:-0.0596118 4:0.0223518 5:-1 6:0.454545 7:-0.695907 8:-0.705514 9:-0.858299 10:-1 11:-1 12:-0.742106 13:-1 14:-0.210526 15:-1 16:-0.649123 17:-1 18:-1 19:-1 20:-1 21:-1 22:-1 23:-1 24:-1 30:-0.987113 31:0.211667 32:-0.962933 33:0.211667 34:-0.580322 35:-0.962933 36:-0.987113 37:0.211667 38:-0.962933 39:0.211667 40:-0.580322 41:-0.962933 42:-0.494675 43:-0.70614 44:-0.903304 45:-0.718298 46:-0.778566 47:-0.763889 48:-0.765832 49:-0.758147 50:-0.963944 51:-1 52:-0.258569 53:-0.309655 54:-0.700781 55:-0.0441742 56:-0.101788 57:-0.438509 58:-0.510516 59:-0.426386 60:-0.809678 61:-1 
1 1:-0.894118 2:-0.167509 3:-0.20054 4:-0.0368272 5:-1 6:0.584416 7:-0.862434 8:-0.786849 9:-1 10:-1 11:0.00952304 12:-1 13:-1 14:-0.04762 15:-1 16:-1 17:-1 18:-1 19:-1 20:-1 21:-1 22:-1 23:-1 24:-1 30:-0.996495 31:0.0975253 32:-0.954609 33:0.0975253 34:-0.924912 35:-0.954609 36:-0.996495 37:0.0975253 38:-0.954609 39:0.0975253 40:-0.924912 41:-0.954609 42:-0.987591 43:-0.978088 44:-0.929349 45:-1 46:-0.944455 47:-0.990887 48:-1 49:-0.978633 50:-0.982457 51:-1 52:-0.958083 53:-0.960861 54:-0.878075 55:-1 56:-0.334014 57:-0.681669 58:-1 59:-0.717368 60:-0.986539 61:-1 
1 1:-0.858824 2:-0.0432667 3:-0.0302537 4:0.361971 5:-1 6:0.636363 7:-0.87963 8:-1 9:-1 10:-0.361112 11:-1 12:-1 13:-1 14:-0.166666 15:-1 16:0.111112 17:-1 18:-1 19:-1 20:-1 21:-1 22:-1 23:-1 24:-1 30:-0.985405 31:0.192551 32:-0.96182 33:0.192551 34:-0.850075 35:-0.96182 36:-0.985405 37:0.192551 38:-0.96182 39:0.192551 40:-0.850075 41:-0.96182 42:-0.545532 43:-1 44:-0.893021 45:-1 46:-0.907855 47:-0.927946 48:-1 49:-0.912483 50:-1 51:-1 52:-0.89336 53:-1 54:-0.682721 55:-1 56:-0.481245 57:-0.374976 58:-1 59:-0.707189 60:-1 61:-1 
1 1:-0.305882 2:-0.292968 3:-0.0433021 4:0.0980625 5:-1 6:0.600511 7:-0.877934 8:-0.936955 9:-0.848321 10:-0.136152 11:-1 12:-0.723944 13:-1 14:-0.71831 15:-0.793428 16:-1 17:-0.711268 18:-1 19:-1 20:-1 21:-1 22:-1 23:-1 24:-1 30:-0.986309 31:0.172364 32:-0.963099 33:0.172364 34:-0.626915 35:-0.963099 36:-0.986309 37:0.172364 38:-0.963099 39:0.172364 40:-0.626915 41:-0.963099 42:-0.484324 43:-0.707608 44:-0.720638 45:-0.732051 46:-0.952723 47:-0.75859 48:-0.805338 49:-0.80094 50:-0.972723 51:-1 52:-0.31995 53:-0.263418 54:-0.251269 55:-0.132479 56:-0.850969 57:-0.339335 58:-0.499505 59:-0.389289 60:-0.885735 61:-1 
1 1:-0.505882 2:-0.0156808 3:-0.295903 4:-0.0963237 5:-1 6:0.59596 7:-0.679013 8:-0.917108 9:-0.80057 10:-1 11:-1 12:-1 13:-1 14:-1 15:-0.728396 16:-0.506173 17:-1 18:-1 19:-1 20:-1 21:-1 22:-1 23:-1 24:-1 30:-0.985971 31:0.270924 32:-0.962311 33:0.270924 34:-0.558271 35:-0.962311 36:-0.985971 37:0.270924 38:-0.962311 39:0.270924 40:-0.558271 41:-0.962311 42:-0.497451 43:-0.750563 44:-0.756097 45:-1 46:-0.753814 47:-0.788837 48:-0.955821 49:-0.79326 50:-0.922739 51:-1 52:-0.3775 53:-0.675333 54:-0.302359 55:-1 56:-0.309049 57:-0.200007 58:-0.874215 59:-0.2023 60:-0.587012 61:-1 
1 1:-0.576471 2:-0.77864 3:0.0594821 4:0.0185604 5:-1 6:-0.272726 7:0.38426 8:-0.906746 9:-0.775641 10:-1 11:-0.558334 12:-1 13:-1 14:-0.583334 15:-1 16:-1 17:-1 18:-0.0625006 19:-1 20:-1 21:-1 22:-1 23:-1 24:-1 30:-0.996923 31:0.0407511 32:-0.956916 33:0.0407511 34:-0.806698 35:-0.956916 36:-0.996923 37:0.0407511 38:-0.956916 39:0.0407511 40:-0.806698 41:-0.956916 42:-0.982843 43:-0.951231 44:-0.986162 45:-0.886269 46:-0.930363 47:-0.941926 48:-0.924442 49:-0.957386 50:-0.921659 51:-0.671079 52:-0.856284 53:-0.638729 54:-0.542383 55:-0.186923 56:-0.117661 57:-0.192466 58:-0.218374 59:-0.482145 60:-0.828298 61:-0.683764 
1 1:-0.647059 2:-0.78945 3:0.117281 4:0.331026 5:-1 6:0.064936 7:-0.10582 8:-0.786849 9:-1 10:-1 11:-0.495238 12:-1 13:-1 14:-0.52381 15:-1 16:-1 17:-1 18:-1 19:-1 20:-1 21:-1 22:0.595239 23:-1 24:-1 30:-0.997002 31:0.0603837 32:-0.957611 33:0.0603837 34:-0.825191 35:-0.957611 36:-0.997002 37:0.0603837 38:-0.957611 39:0.0603837 40:-0.825191 41:-0.957611 42:-0.958436 43:-0.99291 44:-0.907442 45:-0.92577 46:-0.874759 47:-0.968983 48:-0.957239 49:-0.975522 50:-0.974416 51:-1 52:-0.911682 53:-0.865593 54:-0.310305 55:-0.435497 56:-0.17393 57:-0.209438 58:-0.294364 59:-0.386414 60:-0.844525 61:-1 
1 1:-0.458824 2:-0.823729 3:-0.373079 4:-0.291342 5:-1 6:0.849529 7:-1 8:-0.845649 9:-0.814323 10:-1 11:-1 12:-1 13:-1 14:-1 15:-1 16:-0.540229 17:-1 18:-1 19:-1 20:-1 21:-1 22:-1 23:-1 24:-1 30:-0.996421 31:-0.0498861 32:-0.970567 33:-0.0498861 34:-0.745352 35:-0.970567 36:-0.996421 37:-0.0498861 38:-0.970567 39:-0.0498861 40:-0.745352 41:-0.970567 42:-0.978185 43:-0.884673 44:-0.882383 45:-0.884647 46:-0.913809 47:-0.895684 48:-0.894333 49:-0.968958 50:-0.939531 51:-1 52:-0.905643 53:-0.629653 54:-0.464464 55:-0.373512 56:-0.0417954 57:0.0848336 58:0.109039 59:-0.233784 60:-0.84287 61:-1 
1 1:-0.529412 2:-0.613829 3:0.00312235 4:0.190599 5:-0.953297 6:0.328672 7:-0.5 8:-0.913919 9:-0.792899 10:-0.705128 11:-1 12:-0.623077 13:-1 14:-1 15:-0.717949 16:-1 17:-1 18:-1 19:-0.0576902 20:-1 21:-1 22:-1 23:-1 24:-1 30:-0.972196 31:-0.0494138 32:-0.953406 33:-0.0494138 34:-0.660512 35:-0.953406 36:-0.972196 37:-0.0494138 38:-0.953406 39:-0.0494138 40:-0.660512 41:-0.953406 42:-0.204932 43:-0.815039 44:-0.823621 45:-0.802601 46:-0.811742 47:-0.880777 48:-0.887553 49:-0.959243 50:-0.961128 51:-1 52:-0.871217 53:-0.273898 54:-0.50025 55:-0.0368275 56:-0.0745084 57:0.121775 58:-0.0233166 59:-0.128274 60:-0.967751 61:-1 
1 1:-0.447059 2:-0.582427 3:0.0899458 4:0.245591 5:-0.958838 6:0.37134 7:-0.657251 8:-0.924132 9:-0.634941 10:-0.480227 11:-0.281356 12:-1 13:-1 14:-1 15:-0.751412 16:-1 17:-1 18:-1 19:-1 20:-1 21:0.559329 22:-1 23:-1 24:-1 30:-0.994531 31:-0.205171 32:-0.959034 33:-0.205171 34:-0.497347 35:-0.959034 36:-0.994531 37:-0.205171 38:-0.959034 39:-0.205171 40:-0.497347 41:-0.959034 42:-0.812156 43:-0.81932 44:-0.984354 45:-0.847886 46:-0.859411 47:-0.915472 48:-0.912687 49:-0.933571 50:-0.950847 51:-1 52:-0.275107 53:-0.123937 54:-0.598425 55:0.223334 56:0.166843 57:0.348343 58:0.410644 59:-0.143442 60:-0.737865 61:-1 
1 1:-0.870588 2:-0.0852442 3:0.00816875 4:0.412329 5:-0.89441 6:0.525692 7:-0.874396 8:-1 9:-1 10:-1 11:-0.0782598 12:-1 13:-1 14:-1 15:-0.36232 16:0.159421 17:-1 18:-1 19:-1 20:-1 21:-1 22:-1 23:-1 24:-1 30:-0.989337 31:-0.121224 32:-0.964827 33:-0.121224 34:-0.849415 35:-0.964827 36:-0.989337 37:-0.121224 38:-0.964827 39:-0.121224 40:-0.849415 41:-0.964827 42:-0.62783 43:-0.960046 44:-0.890861 45:-1 46:-0.933956 47:-0.943946 48:-1 49:-0.913194 50:-0.970251 51:-1 52:-0.878221 53:-0.99074 54:-0.712388 55:-1 56:-0.55269 57:-0.252277 58:-1 59:-0.648359 60:-0.905854 61:-1 
1 1:-0.647059 2:-0.0336907 3:-0.255127 4:0.0205589 5:-0.942177 6:0.584416 7:-0.793651 8:-0.893424 9:-1 10:-1 11:-0.495238 12:-1 13:-1 14:-1 15:-0.30159 16:-1 17:-1 18:-1 19:-1 20:-1 21:-1 22:-1 23:-1 24:-1 30:-0.986418 31:0.367977 32:-0.957695 33:0.367977 34:-0.621932 35:-0.957695 36:-0.986418 37:0.367977 38:-0.957695 39:0.367977 40:-0.621932 41:-0.957695 42:-0.693777 43:-0.740806 44:-0.790006 45:-1 46:-0.736334 47:-0.758935 48:-1 49:-0.781027 50:-0.898481 51:-1 52:-0.318395 53:-0.605045 54:-0.458821 55:-1 56:-0.218952 57:-0.560866 58:-1 59:-0.390637 60:-0.922736 61:-1 
1 1:-0.882353 2:-0.0152812 3:-0.128689 4:0.155803 5:-1 6:0.702479 7:-1 8:-0.796537 9:-1 10:-1 11:-0.0363644 12:-1 13:-1 14:-1 15:-1 16:0.21212 17:-1 18:-1 19:-1 20:-1 21:-1 22:-1 23:-1 24:-1 30:-0.98094 31:0.184874 32:-0.968484 33:0.184874 34:-0.842291 35:-0.968484 36:-0.98094 37:0.184874 38:-0.968484 39:0.184874 40:-0.842291 41:-0.968484 42:-0.508783 43:-0.976004 44:-0.871123 45:-1 46:-0.915267 47:-0.930199 48:-1 49:-0.927838 50:-1 51:-1 52:-0.89226 53:-0.874012 54:-0.45745 55:-1 56:-0.455459 57:-0.438316 58:-1 59:-0.592299 60:-1 61:-1 
1 1:-0.882353 2:0.0530377 3:-0.166102 4:0.0849423 5:-0.88961 6:0.504132 7:-1 8:-0.593074 9:-1 10:-0.303032 11:-1 12:-1 13:-1 14:-1 15:-0.333336 16:-1 17:-1 18:-1 19:-1 20:-1 21:-1 22:-1 23:-1 24:-1 30:-0.971764 31:0.154703 32:-0.969759 33:0.154703 34:-0.883426 35:-0.969759 36:-0.971764 37:0.154703 38:-0.969759 39:0.154703 40:-0.883426 41:-0.969759 42:-0.390865 43:-1 44:-1 45:-0.855324 46:-0.914904 47:-0.933895 48:-1 49:-0.935594 50:-1 51:-1 52:-0.918251 53:-1 54:-1 55:-0.603791 56:-0.45248 57:-0.481444 58:-1 59:-0.410406 60:-1 61:-1 
1 1:-0.882353 2:-0.170944 3:-0.132831 4:0.0481889 5:-1 6:0.504132 7:-0.868687 8:-0.796537 9:-0.510489 10:-0.303032 11:-1 12:-1 13:-1 14:-1 15:-0.333336 16:-1 17:-1 18:-1 19:-1 20:-1 21:-1 22:-1 23:-1 24:-1 30:-0.997781 31:-0.0701634 32:-0.959325 33:-0.0701634 34:-0.847941 35:-0.959325 36:-0.997781 37:-0.0701634 38:-0.959325 39:-0.0701634 40:-0.847941 41:-0.959325 42:-1 43:-0.981945 44:-0.918333 45:-1 46:-0.930342 47:-0.972729 48:-1 49:-0.934636 50:-0.95228 51:-1 52:-1 53:-0.800164 54:-0.392589 55:-1 56:-0.285933 57:-0.694556 58:-1 59:-0.432385 60:-0.841581 61:-1 
1 1:-0.882353 2:-0.016732 3:-0.0938063 4:0.0988458 5:-1 6:0.504132 7:-0.868687 8:-0.593074 9:-1 10:-0.303032 11:-1 12:-1 13:-1 14:-1 15:-1 16:0.21212 17:-1 18:-1 19:-1 20:-1 21:-1 22:-1 23:-1 24:-1 30:-0.980822 31:0.174829 32:-0.967471 33:0.174829 34:-0.863444 35:-0.967471 36:-0.980822 37:0.174829 38:-0.967471 39:0.174829 40:-0.863444 41:-0.967471 42:-0.50143 43:-1 44:-0.865363 45:-1 46:-0.911202 47:-0.935283 48:-1 49:-0.922156 50:-1 51:-1 52:-0.923542 53:-1 54:-0.58962 55:-1 56:-0.392395 57:-0.455903 58:-1 59:-0.595416 60:-1 61:-1 
1 1:-0.917647 2:-0.182554 3:0.0313871 4:0.207071 5:-1 6:0.425837 7:-0.847953 8:-0.764411 9:-0.433197 10:-0.192983 11:-1 12:-1 13:-1 14:-1 15:-1 16:0.403509 17:-1 18:-1 19:-1 20:-1 21:-1 22:-1 23:-1 24:-1 30:-0.997302 31:-0.0612956 32:-0.958178 33:-0.0612956 34:-0.882332 35:-0.958178 36:-0.997302 37:-0.0612956 38:-0.958178 39:-0.0612956 40:-0.882332 41:-0.958178 42:-0.985192 43:-0.976966 44:-0.900647 45:-1 46:-0.924749 47:-0.969803 48:-1 49:-0.938762 50:-0.957312 51:-1 52:-0.966723 53:-0.684728 54:-0.464007 55:-1 56:-0.772452 57:-0.736842 58:-1 59:-0.468922 60:-0.878991 61:-1 
1 1:-0.870588 2:0.00851264 3:-0.205198 4:-0.0498694 5:-1 6:0.525692 7:-0.748792 8:-1 9:-0.531771 10:-0.333334 11:-1 12:-1 13:-1 14:-0.130434 15:-1 16:-1 17:-1 18:-1 19:-1 20:-1 21:-1 22:-1 23:-1 24:-1 30:-0.978008 31:0.159928 32:-0.96663 33:0.159928 34:-0.840514 35:-0.96663 36:-0.978008 37:0.159928 38:-0.96663 39:0.159928 40:-0.840514 41:-0.96663 42:-0.4591 43:-0.963934 44:-0.966795 45:-0.962341 46:-0.93099 47:-0.932147 48:-1 49:-0.911151 50:-1 51:-1 52:-0.927577 53:-0.927503 54:-0.764277 55:-0.72094 56:-0.435342 57:-0.41297 58:-1 59:-0.713582 60:-1 61:-1 
1 1:-0.788235 2:0.0402366 3:-0.302738 4:-0.100516 5:-1 6:0.709092 7:-0.903704 8:-0.850794 9:-1 10:-1 11:-1 12:-0.346668 13:-1 14:-0.333334 15:-1 16:-1 17:-1 18:-1 19:-1 20:-1 21:-1 22:-1 23:-1 24:-1 30:-0.979935 31:0.208367 32:-0.968059 33:0.208367 34:-0.649761 35:-0.968059 36:-0.979935 37:0.208367 38:-0.968059 39:0.208367 40:-0.649761 41:-0.968059 42:-0.409366 43:-0.868252 44:-1 45:-0.882975 46:-0.857458 47:-0.924711 48:-1 49:-0.944322 50:-1 51:-1 52:-0.675676 53:-0.341132 54:-1 55:0.207766 56:-0.326307 57:-0.461245 58:-1 59:-0.376076 60:-1 61:-1 
1 1:-0.541176 2:-0.715459 3:-0.00129712 4:-0.43631 5:-1 6:-0.326203 7:0.472766 8:-1 9:-0.788839 10:-0.398694 11:-0.168627 12:-1 13:-1 14:-1 15:-1 16:-1 17:-1 18:-1 19:-1 20:-1 21:-1 22:-1 23:-1 24:-1 30:-0.995218 31:-0.22492 32:-0.958849 33:-0.22492 34:-0.719274 35:-0.958849 36:-0.995218 37:-0.22492 38:-0.958849 39:-0.22492 40:-0.719274 41:-0.958849 42:-0.855355 43:-0.985523 44:-0.829622 45:-0.843254 46:-0.889816 47:-0.891501 48:-0.911773 49:-0.941949 50:-1 51:-0.903783 52:-0.738643 53:-0.719565 54:-0.0275037 55:0.0787811 56:0.00546379 57:0.187868 58:0.0180145 59:-0.232999 60:-1 61:-0.734911 
1 1:-0.458824 2:-0.612584 3:-0.0560756 4:-0.0342485 5:-0.958128 6:0.473355 7:-0.750958 8:-0.922824 9:-0.257293 10:-1 11:-0.634482 12:-1 13:-0.747127 14:-1 15:-1 16:-1 17:-1 18:-0.224136 19:-1 20:-1 21:-1 22:-1 23:-1 24:-1 30:-0.983921 31:-0.170396 32:-0.954841 33:-0.170396 34:-0.687111 35:-0.954841 36:-0.983921 37:-0.170396 38:-0.954841 39:-0.170396 40:-0.687111 41:-0.954841 42:-0.427395 43:-0.975901 44:-0.809581 45:-0.799458 46:-0.792944 47:-0.875942 48:-0.890843 49:-0.859601 50:-0.977836 51:-0.947473 52:-0.705602 53:-0.70532 54:-0.353951 55:-0.301205 56:-0.0962558 57:0.14155 58:0.197467 59:-0.068045 60:-0.770536 61:-0.73164 
1 1:-0.517647 2:-0.611306 3:0.49489 4:0.440891 5:-1 6:0.0943404 7:-0.563943 8:-0.831088 9:-0.39042 10:-0.710693 11:-0.6 12:-0.63019 13:-0.446543 14:-0.622642 15:-0.446543 16:-1 17:-1 18:-0.150944 19:-1 20:-1 21:-1 22:-1 23:-1 24:-1 30:-0.996321 31:-0.36174 32:-0.968174 33:-0.36174 34:-0.533141 35:-0.968174 36:-0.996321 37:-0.36174 38:-0.968174 39:-0.36174 40:-0.533141 41:-0.968174 42:-0.878737 43:-0.864798 44:-0.850241 45:-0.859367 46:-0.942288 47:-0.925929 48:-0.937877 49:-0.914832 50:-0.960467 51:-0.768011 52:-0.696743 53:0.108434 54:0.2703 55:0.378023 56:-0.421508 57:0.220127 58:0.119036 59:-0.494484 60:-0.746017 61:-0.775515 
1 1:-0.870588 2:-0.135381 3:-0.259581 4:0.0625244 5:-1 6:0.715415 7:-0.874396 8:-1 9:-1 10:-0.333334 11:-1 12:-1 13:-1 14:-1 15:-0.36232 16:-1 17:-1 18:-1 19:-1 20:-1 21:-1 22:-1 23:-1 24:-1 30:-0.997191 31:0.17887 32:-0.958943 33:0.17887 34:-0.684065 35:-0.958943 36:-0.997191 37:0.17887 38:-0.958943 39:0.17887 40:-0.684065 41:-0.958943 42:-0.878375 43:-0.978698 44:-0.917085 45:-1 46:-0.893882 47:-0.944628 48:-1 49:-0.962124 50:-1 51:-1 52:-0.580145 53:-0.806593 54:-0.526688 55:-1 56:-0.367943 57:-0.268663 58:-1 59:-0.391435 60:-1 61:-1 
1 1:-0.905882 2:-0.0199766 3:-0.237548 4:-0.319605 5:-1 6:0.454545 7:-0.711111 8:-0.776191 9:-1 10:-0.233335 11:0.0600003 12:-1 13:-1 14:-1 15:-1 16:-1 17:-1 18:-1 19:-1 20:-1 21:-1 22:-1 23:-1 24:-1 30:-0.979365 31:0.1869 32:-0.967838 33:0.1869 34:-0.839628 35:-0.967838 36:-0.979365 37:0.1869 38:-0.967838 39:0.1869 40:-0.839628 41:-0.967838 42:-0.503237 43:-1 44:-0.885927 45:-1 46:-0.930245 47:-0.927308 48:-1 49:-0.92126 50:-1 51:-1 52:-0.897479 53:-1 54:-0.756816 55:-1 56:-0.562918 57:-0.318741 58:-1 59:-0.610996 60:-1 61:-1 
1 1:-0.517647 2:-0.233071 3:-0.0110224 4:0.338442 5:-1 6:0.588337 7:-0.836478 8:-0.915544 9:-0.593614 10:-1 11:-1 12:-0.63019 13:-1 14:-1 15:-1 16:0.006288 17:-1 18:-0.150944 19:-1 20:-1 21:-1 22:-1 23:-1 24:-1 30:-0.986453 31:-0.274181 32:-0.96682 33:-0.274181 34:-0.4669 35:-0.96682 36:-0.986453 37:-0.274181 38:-0.96682 39:-0.274181 40:-0.4669 41:-0.96682 42:-0.378292 43:-0.865829 44:-0.820825 45:-0.813651 46:-0.897586 47:-1 48:-0.891391 49:-0.937529 50:-0.98457 51:-1 52:-0.556454 53:-0.245235 54:0.198342 55:0.337891 56:-0.336339 57:-1 58:-0.416094 59:-0.381549 60:-0.885312 61:-1 
1 1:-0.4 2:-0.615536 3:0.27951 4:0.571833 5:-1 6:0.341992 7:-0.587302 8:-0.92895 9:-1 10:-0.513229 11:-0.663492 12:-0.37778 13:-1 14:-1 15:-1 16:-0.57672 17:-0.674604 18:-0.285714 19:-1 20:-1 21:0.460318 22:-1 23:-1 24:-1 30:-0.994765 31:-0.222357 32:-0.956775 33:-0.222357 34:-0.59817 35:-0.956775 36:-0.994765 37:-0.222357 38:-0.956775 39:-0.222357 40:-0.59817 41:-0.956775 42:-0.847324 43:-0.817563 44:-0.830071 45:-0.891562 46:-0.90777 47:-0.902802 48:-0.899318 49:-0.882436 50:-0.927356 51:-0.954068 52:-0.700295 53:-0.276854 54:0.169298 55:0.100898 56:0.275457 57:-0.190025 58:0.00805553 59:0.265714 60:-0.635444 61:-0.766174 
1 1:-0.258824 2:-0.294769 3:-0.0858228 4:0.00372009 5:-1 6:0.505454 7:-0.768889 8:-0.76127 9:-0.71282 10:-0.795556 11:-1 12:-1 13:-0.804445 14:-0.466666 15:-1 16:-1 17:-0.726667 18:-1 19:-1 20:-1 21:-1 22:-1 23:-1 24:-1 30:-0.986621 31:0.164077 32:-0.963468 33:0.164077 34:-0.598404 35:-0.963468 36:-0.986621 37:0.164077 38:-0.963468 39:0.164077 40:-0.598404 41:-0.963468 42:-0.487337 43:-0.705368 44:-0.852836 45:-0.71716 46:-0.7796 47:-0.767793 48:-0.765312 49:-0.762758 50:-0.970062 51:-1 52:-0.319764 53:-0.290741 54:-0.523736 55:0.0106013 56:-0.229058 57:-0.445265 58:-0.479382 59:-0.374392 60:-0.767244 61:-1 
1 1:-0.494118 2:-0.624761 3:-0.102244 4:-0.455775 5:-1 6:0.0876029 7:-0.159597 8:-0.918615 9:-0.216782 10:-0.721213 11:-0.614546 12:-1 13:-1 14:-1 15:-1 16:-1 17:-1 18:-1 19:-1 20:-1 21:-1 22:-1 23:-1 24:-1 30:-0.994417 31:-0.374716 32:-0.968494 33:-0.374716 34:-0.649495 35:-0.968494 36:-0.994417 37:-0.374716 38:-0.968494 39:-0.374716 40:-0.649495 41:-0.968494 42:-0.852138 43:-0.80612 44:-0.816531 45:-0.862601 46:-0.836635 47:-0.895647 48:-0.890485 49:-0.954607 50:-0.967228 51:-1 52:-0.719158 53:-0.127095 54:-0.11346 55:-0.163101 56:0.00989988 57:0.0454897 58:-0.00645897 59:-0.463658 60:-0.643862 61:-1 
1 1:-0.870588 2:-0.152125 3:-0.0962306 4:0.180388 5:-1 6:0.525692 7:-0.748792 8:-1 9:-0.0635439 10:-1 11:-1 12:-1 13:-1 14:-1 15:-1 16:-1 17:-0.108695 18:-1 19:-1 20:-1 21:-1 22:-1 23:-1 24:-1 30:-0.996734 31:0.029946 32:-0.956078 33:0.029946 34:-0.846213 35:-0.956078 36:-0.996734 37:0.029946 38:-0.956078 39:0.029946 40:-0.846213 41:-0.956078 42:-0.992805 43:-0.972042 44:-0.923047 45:-1 46:-0.917325 47:-0.981374 48:-1 49:-0.929025 50:-0.943439 51:-1 52:-0.957956 53:-0.871087 54:-0.40342 55:-1 56:-0.284082 57:-0.269645 58:-1 59:-0.420441 60:-0.885536 61:-1 
1 1:-0.470588 2:-0.87591 3:0.0623728 4:0.104669 5:-1 6:0.0430633 7:-0.0877211 8:-0.92147 9:-0.622132 10:-1 11:-0.628069 12:-1 13:-1 14:-1 15:-0.74269 16:-0.064328 17:-1 18:-1 19:-1 20:-1 21:-1 22:-1 23:-1 24:-1 30:-0.997501 31:0.159588 32:-0.960183 33:0.159588 34:-0.922602 35:-0.960183 36:-0.997501 37:0.159588 38:-0.960183 39:0.159588 40:-0.922602 41:-0.960183 42:-0.915318 43:-0.899372 44:-0.918484 45:-0.901638 46:-0.886647 47:-0.927247 48:-0.887984 49:-0.844375 50:-0.904283 51:-1 52:-0.909998 53:-0.794954 54:-0.809064 55:-0.225729 56:-0.219577 57:-0.588995 58:-0.679675 59:-0.659515 60:-0.826083 61:-1 
1 1:-0.435294 2:-0.676664 3:0.190438 4:-0.0458516 5:-1 6:-0.163636 7:0.0111107 8:-0.776191 9:-0.641025 10:-0.744444 11:-0.646666 12:-0.673333 13:-0.511113 14:-1 15:-0.755556 16:-1 17:-1 18:-1 19:-1 20:-1 21:-1 22:-1 23:-1 24:-1 30:-0.995424 31:0.613705 32:-0.959389 33:0.613705 34:-0.578598 35:-0.959389 36:-0.995424 37:0.613705 38:-0.959389 39:0.613705 40:-0.578598 41:-0.959389 42:-0.871287 43:-0.838082 44:-0.821351 45:-0.93006 46:-0.791555 47:-0.790013 48:-1 49:-0.894781 50:-0.948509 51:-1 52:-0.603817 53:-0.00741055 54:0.167064 55:-0.138054 56:-0.26769 57:-0.503963 58:-1 59:-0.618114 60:-0.911983 61:-1 
0.1715366897085473 1:-0.435294 2:-0.606511 3:0.0896246 4:0.276849 5:-0.959524 6:0.345455 7:-0.566667 8:-0.850794 9:-0.820512 10:-1 11:-0.646666 12:-1 13:-1 14:-1 15:-0.755556 16:-0.111112 17:-0.658333 18:-1 19:-1 20:-1 21:-1 22:-1 23:-1 24:-1 30:-0.974945 31:-0.062401 32:-0.954489 33:-0.062401 34:-0.579138 35:-0.954489 36:-0.974945 37:-0.062401 38:-0.954489 39:-0.062401 40:-0.579138 41:-0.954489 42:-0.189672 43:-0.815553 44:-0.824824 45:-0.808058 46:-0.798234 47:-0.875957 48:-0.880514 49:-0.930135 50:-0.963484 51:-1 52:-0.688529 53:-0.293295 54:0.0439492 55:-0.18804 56:0.296178 57:0.215514 58:0.345202 59:-0.310529 60:-0.809569 61:-1 
1 1:-0.529412 2:-0.283874 3:-0.193202 4:0.105822 5:-1 6:0.706295 7:-0.888889 8:-0.913919 9:-1 10:-0.705128 11:-1 12:-0.623077 13:-1 14:-1 15:-0.717949 16:-1 17:-1 18:-0.134613 19:-1 20:-1 21:-1 22:-1 23:-1 24:-1 30:-0.992688 31:0.511608 32:-0.961563 33:0.511608 34:-0.685281 35:-0.961563 36:-0.992688 37:0.511608 38:-0.961563 39:0.511608 40:-0.685281 41:-0.961563 42:-0.951385 43:-0.780408 44:-0.784272 45:-0.773289 46:-0.808047 47:-0.804502 48:-0.790631 49:-0.824648 50:-0.951721 51:-1 52:-0.939241 53:0.15692 54:0.263483 55:-0.171861 56:-0.170824 57:-0.674264 58:-0.592109 59:-0.383887 60:-0.995827 61:-1 
1 1:-0.552941 2:-0.617359 3:0.129888 4:0.0676585 5:-0.951429 6:0.301818 7:-0.653333 8:-0.910476 9:-0.784615 10:-0.693334 11:0.272 12:-0.608001 13:-1 14:-0.6 15:-0.706667 16:-1 17:-1 18:-1 19:-1 20:-1 21:-1 22:-1 23:-1 24:-1 30:-0.993473 31:-0.246199 32:-0.957295 33:-0.246199 34:-0.705375 35:-0.957295 36:-0.993473 37:-0.246199 38:-0.957295 39:-0.246199 40:-0.705375 41:-0.957295 42:-0.981546 43:-0.978506 44:-0.817346 45:-0.817007 46:-0.809294 47:-0.871013 48:-0.903779 49:-0.928309 50:-0.952015 51:-1 52:-0.87701 53:-0.719976 54:-0.150191 55:0.0433737 56:-0.112044 57:-0.0676445 58:-0.181766 59:-0.582528 60:-0.773616 61:-1 
1 2:-0.752606 3:-0.19059 4:-0.17104 5:-0.949926 6:0.190253 7:-0.136312 8:-0.907707 9:-1 10:-0.841924 11:-1 12:-1 13:-0.848797 14:-1 15:-1 16:-1 17:-1 18:-1 19:-1 20:-1 21:-0.0515431 22:-1 23:-1 24:-1 30:-0.989076 31:0.14923 32:-0.966293 33:0.14923 34:-0.669787 35:-0.966293 36:-0.989076 37:0.14923 38:-0.966293 39:0.14923 40:-0.669787 41:-0.966293 42:-0.763242 43:-0.703176 44:-0.712994 45:-0.792748 46:-0.769792 47:-0.739239 48:-0.767504 49:-0.771546 50:-0.927341 51:-0.592717 52:-0.38884 53:-0.0488819 54:0.23114 55:-0.155171 56:-0.348431 57:-0.132432 58:-0.362952 59:-0.588462 60:-0.847539 61:-0.688467 
1 1:-0.423529 2:-0.583088 3:-0.127386 4:-0.169643 5:-0.960187 6:0.42772 7:-0.573771 8:-0.92662 9:-0.64691 10:-1 11:-0.65246 12:-0.67869 13:-1 14:-1 15:-1 16:-0.562843 17:-1 18:-1 19:-1 20:-1 21:-1 22:-1 23:-1 24:-1 30:-0.993455 31:-0.233202 32:-0.958383 33:-0.233202 34:-0.565341 35:-0.958383 36:-0.993455 37:-0.233202 38:-0.958383 39:-0.233202 40:-0.565341 41:-0.958383 42:-0.823378 43:-0.853144 44:-0.815226 45:-0.821646 46:-0.875647 47:-0.889626 48:-0.873363 49:-0.974323 50:-1 51:-0.800934 52:-0.333122 53:-0.670626 54:0.316804 55:-0.0231876 56:0.00130231 57:0.300683 58:0.212545 59:-0.515238 60:-1 61:-0.935311 
1 1:-0.694118 2:-0.801263 3:0.213011 4:0.50925 5:-1 6:0.138756 7:-0.163742 8:-0.882206 9:-1 10:-1 11:-1 12:-1 13:-1 14:-1 15:-0.614036 16:-1 17:-1 18:0.184212 19:0.289475 20:-1 21:-1 22:-1 23:-1 24:-1 30:-0.998152 31:0.0403237 32:-0.959786 33:0.0403237 34:-0.810316 35:-0.959786 36:-0.998152 37:0.0403237 38:-0.959786 39:0.0403237 40:-0.810316 41:-0.959786 42:-1 43:-0.999036 44:-0.895826 45:-0.962507 46:-0.944749 47:-0.974302 48:-0.977931 49:-1 50:-0.961471 51:-1 52:-1 53:-0.876097 54:-0.424756 55:-0.830662 56:-0.142598 57:-0.134641 58:-0.223721 59:-1 60:-0.865589 61:-1 
1 1:-0.117647 2:-0.752293 3:-0.124313 4:-0.0177662 5:-1 6:0.272728 7:-0.236271 8:-0.845649 9:-0.876215 10:-1 11:-1 12:-1 13:-1 14:-1 15:-1 16:-0.693485 17:-1 18:-1 19:-1 20:-1 21:-1 22:-0.229881 23:-1 24:-1 30:-0.988614 31:0.0963775 32:-0.962614 33:0.0963775 34:-0.670547 35:-0.962614 36:-0.988614 37:0.0963775 38:-0.962614 39:0.0963775 40:-0.670547 41:-0.962614 42:-0.754212 43:-0.713475 44:-0.725214 45:-0.725799 46:-0.806636 47:-0.782424 48:-0.77311 49:-0.955227 50:-0.965508 51:-1 52:-0.365401 53:0.0382685 54:0.0851831 55:-0.340375 56:-0.0614304 57:-0.0481396 58:-0.223904 59:-0.60305 60:-0.957428 61:-1 
1 1:-0.505882 2:-0.745419 3:0.0600256 4:0.0182143 5:-1 6:-0.212122 7:0.283949 8:-0.751323 9:-1 10:-1 11:-0.607408 12:-1 13:-0.728396 14:-1 15:-1 16:-1 17:-1 18:-1 19:-0.0925929 20:-1 21:-1 22:-1 23:-1 24:-1 30:-0.997345 31:0.149046 32:-0.957857 33:0.149046 34:-0.67801 35:-0.957857 36:-0.997345 37:0.149046 38:-0.957857 39:0.149046 40:-0.67801 41:-0.957857 42:-0.891936 43:-0.948421 44:-0.898784 45:-0.987031 46:-0.889821 47:-0.898378 48:-0.965007 49:-0.928479 50:-0.93851 51:-0.920361 52:-0.403145 53:-0.54482 54:-0.11862 55:-0.758162 56:-0.0355342 57:-0.241124 58:-0.183839 59:-0.682413 60:-0.949297 61:-0.705093 
1 1:-0.235294 2:-0.285367 3:-0.0328294 4:0.0893842 5:-1 6:0.46163 7:-0.737374 8:-0.709338 9:-0.86014 10:-0.800866 11:-1 12:-1 13:-0.809525 14:-0.48052 15:-0.809525 16:-0.65368 17:-1 18:-1 19:-1 20:-1 21:-1 22:-1 23:-1 24:-1 30:-0.986379 31:0.176765 32:-0.963293 33:0.176765 34:-0.601855 35:-0.963293 36:-0.986379 37:0.176765 38:-0.963293 39:0.176765 40:-0.601855 41:-0.963293 42:-0.472778 43:-0.710412 44:-0.716991 45:-0.771612 46:-1 47:-0.768266 48:-0.768163 49:-0.803729 50:-0.965615 51:-1 52:-0.27559 53:-0.248159 54:-0.0411255 55:-0.16824 56:-1 57:-0.32532 58:-0.507329 59:-0.365279 60:-0.930639 61:-1 
1 1:-0.847059 2:-0.167932 3:-0.308102 4:-0.382531 5:-1 6:0.476364 7:-0.537778 8:-1 9:-0.56923 10:-1 11:-0.152 12:-1 13:-1 14:-1 15:-1 16:-1 17:-1 18:-1 19:-1 20:-1 21:-1 22:-1 23:-1 24:-1 30:-0.997391 31:0.00991653 32:-0.958377 33:0.00991653 34:-0.867952 35:-0.958377 36:-0.997391 37:0.00991653 38:-0.958377 39:0.00991653 40:-0.867952 41:-0.958377 42:-0.9857 43:-0.887681 44:-0.887939 45:-1 46:-0.946077 47:-0.918533 48:-1 49:-0.986721 50:-0.946675 51:-1 52:-0.960491 53:-0.556875 54:-0.305726 55:-1 56:-0.215285 57:-0.451099 58:-1 59:-0.648616 60:-0.911343 61:-1 
1 1:-0.858824 2:-0.172808 3:-0.0606865 4:0.249565 5:-1 6:0.363636 7:-0.518518 8:-0.813492 9:-1 10:-1 11:-1 12:-1 13:-1 14:-0.166666 15:-1 16:0.111112 17:-1 18:-1 19:-1 20:-1 21:-1 22:-1 23:-1 24:-1 30:-0.997893 31:0.00823966 32:-0.960031 33:0.00823966 34:-0.816389 35:-0.960031 36:-0.997893 37:0.00823966 38:-0.960031 39:0.00823966 40:-0.816389 41:-0.960031 42:-1 43:-1 44:-0.845255 45:-1 46:-0.93072 47:-0.959944 48:-1 49:-0.966543 50:-0.970649 51:-1 52:-1 53:-1 54:-0.375708 55:-1 56:-0.297813 57:-0.213469 58:-1 59:-0.344059 60:-0.976416 61:-1 
1 1:-0.635294 2:-0.38387 3:-0.4593 4:-0.483738 5:-1 6:0.847781 7:-0.932817 8:-1 9:-1 10:-0.643412 11:-1 12:-0.544187 13:-1 14:-1 15:-1 16:-1 17:-1 18:-1 19:-1 20:-1 21:-1 22:-1 23:-1 24:-1 30:-0.994766 31:0.228579 32:-0.968038 33:0.228579 34:-0.838669 35:-0.968038 36:-0.994766 37:0.228579 38:-0.968038 39:0.228579 40:-0.838669 41:-0.968038 42:-0.997814 43:-0.802031 44:-0.780762 45:-0.784681 46:-0.801492 47:-0.887856 48:-0.925835 49:-0.922738 50:-0.997591 51:-0.947576 52:-0.899374 53:-0.687351 54:-0.583295 55:-0.595293 56:-0.274226 57:0.0245396 58:-0.303224 59:-0.376615 60:-0.940025 61:-0.97186 
0.0005827698024718792 1:-0.823529 2:-0.0396988 3:-0.248033 4:0.058478 5:-1 6:0.515152 7:-0.572017 8:-1 9:-1 10:-1 11:-0.214815 12:-1 13:-1 14:-1 15:-1 16:-0.0123467 17:-1 18:-1 19:-1 20:-1 21:-1 22:-1 23:-1 24:-1 30:-0.98733 31:0.456976 32:-0.959886 33:0.456976 34:-0.557533 35:-0.959886 36:-0.98733 37:0.456976 38:-0.959886 39:0.456976 40:-0.557533 41:-0.959886 42:-0.56439 43:-0.875408 44:-0.849599 45:-1 46:-0.89361 47:-0.920273 48:-1 49:-0.915805 50:-1 51:-1 52:-0.513488 53:-0.684285 54:-0.372251 55:-1 56:-0.503174 57:-0.501325 58:-1 59:-0.685217 60:-1 61:-1 
1 1:-0.164706 2:-0.258064 3:0.129008 4:0.388925 5:-1 6:0.447974 7:-0.791165 8:-0.83821 9:-0.7405 10:-0.630522 11:-0.744578 12:-0.763856 13:-1 14:-0.518072 15:-1 16:-1 17:-0.0120478 18:-1 19:-1 20:-1 21:-1 22:-1 23:-1 24:-1 30:-0.98623 31:0.312734 32:-0.962134 33:0.312734 34:-0.573866 35:-0.962134 36:-0.98623 37:0.312734 38:-0.962134 39:0.312734 40:-0.573866 41:-0.962134 42:-0.447257 43:-0.710131 44:-0.716219 45:-0.718975 46:-0.7706 47:-0.761177 48:-0.766609 49:-0.908941 50:-0.958135 51:-1 52:-0.205168 53:-0.355405 54:0.0503613 55:-0.0864485 56:-0.466241 57:-0.392872 58:-0.321838 59:-0.470205 60:-0.871688 61:-1 
1 1:-0.294118 2:-0.238194 3:0.0376627 4:0.175959 5:-1 6:0.393939 7:-0.759259 8:-0.689154 9:-0.551281 10:-1 11:-0.705555 12:-1 13:-0.796297 14:-0.444444 15:-1 16:-0.629629 17:-0.715278 18:-1 19:-1 20:-1 21:-1 22:-1 23:-1 24:-1 30:-0.98492 31:0.19447 32:-0.962554 33:0.19447 34:-0.550745 35:-0.962554 36:-0.98492 37:0.19447 38:-0.962554 39:0.19447 40:-0.550745 41:-0.962554 42:-0.411449 43:-0.706779 44:-0.866118 45:-0.717594 46:-0.78553 47:-0.768822 48:-0.768008 49:-0.782003 50:-0.96734 51:-1 52:-0.240509 53:-0.293653 54:-0.214981 55:-0.472996 56:-0.0815703 57:-0.422627 58:-0.406527 59:-0.181912 60:-0.786052 61:-1 
1 1:-0.247059 2:-0.658737 3:0.161012 4:0.225986 5:-1 6:-0.0909091 7:-0.0497091 8:-0.882206 9:-0.291497 10:-0.394738 11:-1 12:-1 13:-0.807018 14:-1 15:-0.807018 16:-1 17:-1 18:-1 19:-1 20:-1 21:-1 22:-1 23:0.0394723 24:-1 30:-0.997114 31:0.504174 32:-0.958457 33:0.504174 34:-0.152045 35:-0.958457 36:-0.997114 37:0.504174 38:-0.958457 39:0.504174 40:-0.152045 41:-0.958457 42:-0.92461 43:-0.873242 44:-0.872371 45:-0.932209 46:-0.831258 47:-0.848863 48:-0.87591 49:-0.946864 50:-0.95632 51:-0.83024 52:-0.392294 53:0.527003 54:0.68211 55:0.493254 56:0.324575 57:0.1861 58:-0.231782 59:-0.351674 60:-0.664582 61:-0.446216 
1 1:-0.458824 2:-0.619085 3:0.130715 4:0.357311 5:-0.958128 6:0.210031 7:-0.452108 8:-0.845649 9:-0.814323 10:-0.471265 11:-0.634482 12:-1 13:-1 14:-1 15:-0.747127 16:-1 17:-0.646551 18:-1 19:-1 20:0.155176 21:-1 22:-1 23:-1 24:-1 30:-0.98617 31:-0.11837 32:-0.957433 33:-0.11837 34:-0.757178 35:-0.957433 36:-0.98617 37:-0.11837 38:-0.957433 39:-0.11837 40:-0.757178 41:-0.957433 42:-0.480272 43:-0.851595 44:-0.798811 45:-0.792717 46:-0.782416 47:-0.865253 48:-0.860149 49:-0.913584 50:-0.960698 51:-1 52:-0.831962 53:-0.80083 54:-0.456388 55:-0.24169 56:-0.205698 57:0.0398047 58:-0.133348 59:-0.28796 60:-0.957175 61:-1 
1 1:-0.352941 2:-0.604344 3:0.0742692 4:0.0328152 5:-0.963753 6:0.251017 7:-0.611942 8:-0.799574 9:-0.517795 10:-0.771144 11:-0.0507465 12:-0.707463 13:-1 14:-0.701492 15:-1 16:-1 17:-0.694029 18:-1 19:-1 20:-1 21:-1 22:-1 23:-1 24:-1 30:-0.994505 31:-0.28959 32:-0.957774 33:-0.28959 34:-0.527437 35:-0.957774 36:-0.994505 37:-0.28959 38:-0.957774 39:-0.28959 40:-0.527437 41:-0.957774 42:-0.837697 43:-0.829782 44:-0.838527 45:-0.853869 46:-0.858092 47:-0.90234 48:-0.913238 49:-0.937803 50:-0.976038 51:-1 52:-0.352599 53:-0.0241565 54:0.165393 55:-0.0977129 56:0.153845 57:0.502566 58:0.166245 59:-0.426356 60:-0.81881 61:-1 
1 1:-0.294118 2:-0.679883 3:-0.101981 4:-0.716389 5:-1 6:-0.39394 7:0.604939 8:-0.689154 9:-0.850427 10:-1 11:-1 12:-1 13:-1 14:-1 15:-1 16:-1 17:-1 18:-1 19:-1 20:-1 21:-1 22:-1 23:-1 24:-1 30:-0.992931 31:-0.527486 32:-0.96897 33:-0.527486 34:-0.416047 35:-0.96897 36:-0.992931 37:-0.527486 38:-0.96897 39:-0.527486 40:-0.416047 41:-0.96897 42:-0.832193 43:-0.785516 44:-0.789332 45:-0.803391 46:-0.887449 47:-0.872582 48:-0.855866 49:-0.937156 50:-0.970699 51:-1 52:-0.166405 53:-0.0709216 54:0.216838 55:0.372609 56:-0.394249 57:0.370728 58:0.349825 59:-0.154256 60:-0.812751 61:-1 
1 1:-0.482353 2:-0.586178 3:0.00207848 4:0.102364 5:-0.956633 6:0.415585 7:-0.690476 8:-0.920068 9:-0.230768 10:-0.726192 11:-1 12:-1 13:-1 14:-1 15:-1 16:-0.523811 17:-1 18:-0.19643 19:-1 20:-1 21:-1 22:-1 23:-1 24:-1 30:-0.994572 31:-0.235144 32:-0.969137 33:-0.235144 34:-0.491308 35:-0.969137 36:-0.994572 37:-0.235144 38:-0.969137 39:-0.235144 40:-0.491308 41:-0.969137 42:-0.824869 43:-0.822507 44:-0.921911 45:-0.846162 46:-0.878908 47:-0.918197 48:-0.920907 49:-0.96257 50:-0.966556 51:-1 52:-0.288422 53:-0.180451 54:-0.625061 55:0.169171 56:0.0528032 57:0.305336 58:0.366938 59:-0.60982 60:-0.638384 61:-1 
1 1:-0.882353 2:-0.177592 3:0.0552078 4:0.390773 5:-0.88961 6:0.504132 7:-0.868687 8:-1 9:-1 10:-1 11:-0.0363644 12:-1 13:-1 14:-1 15:0.33333 16:-1 17:-1 18:-1 19:-1 20:-1 21:-1 22:-1 23:-1 24:-1 30:-0.997426 31:0.0314989 32:-0.958166 33:0.0314989 34:-0.90974 35:-0.958166 36:-0.997426 37:0.0314989 38:-0.958166 39:0.0314989 40:-0.90974 41:-0.958166 42:-0.98393 43:-1 44:-0.897426 45:-1 46:-0.938542 47:-0.930399 48:-1 49:-0.963034 50:-0.966984 51:-1 52:-0.971608 53:-1 54:-0.522315 55:-1 56:-0.429793 57:-0.358044 58:-1 59:-0.76167 60:-0.861617 61:-1 
1 1:0.0470588 2:-0.745484 3:-0.206195 4:-0.258334 5:-0.975955 6:0.287128 7:-0.284928 8:-0.822725 9:-1 10:-0.848185 11:-1 12:-1 13:-0.854786 14:-1 15:-1 16:-1 17:-1 18:-1 19:-0.514851 20:-1 21:-1 22:-1 23:-1 24:-1 30:-0.989417 31:0.238472 32:-0.961387 33:0.238472 34:-0.50585 35:-0.961387 36:-0.989417 37:0.238472 38:-0.961387 39:0.238472 40:-0.50585 41:-0.961387 42:-0.764616 43:-0.707452 44:-0.712263 45:-0.736402 46:-0.775679 47:-0.762431 48:-0.756704 49:-0.93109 50:-0.963753 51:-0.836118 52:-0.349014 53:0.464639 54:0.206104 55:-0.458477 56:0.122606 57:-0.0348859 58:-0.00072446 59:-0.795953 60:-0.842871 61:-0.888103 
1 1:-0.458824 2:-0.230174 3:-0.212094 4:0.0748588 5:-0.958128 6:0.661443 7:-0.850575 8:-1 9:-1 10:-0.735632 11:-1 12:-1 13:-0.494254 14:-0.655172 15:-1 16:-0.540229 17:-1 18:-1 19:-1 20:-1 21:-1 22:-1 23:-1 24:-1 30:-0.991496 31:-0.273914 32:-0.965917 33:-0.273914 34:-0.739657 35:-0.965917 36:-0.991496 37:-0.273914 38:-0.965917 39:-0.273914 40:-0.739657 41:-0.965917 42:-0.742899 43:-0.725982 44:-0.74216 45:-0.760343 46:-0.934932 47:-0.987768 48:-0.871987 49:-1 50:-0.977063 51:-1 52:-0.827572 53:-0.49719 54:-0.221382 55:0.315851 56:-0.361241 57:-0.597869 58:0.0144734 59:-1 60:-0.856985 61:-1 
1 1:-0.152941 2:-0.292012 3:0.0834973 4:0.172561 5:-1 6:0.324675 7:-0.621694 8:-0.73356 9:-0.74359 10:-0.81746 11:-1 12:-1 13:-0.825397 14:-0.285714 15:-0.476192 16:-1 17:-1 18:-1 19:-1 20:-1 21:-1 22:-1 23:-1 24:-1 30:-0.98767 31:0.374082 32:-0.962017 33:0.374082 34:-0.588627 35:-0.962017 36:-0.98767 37:0.374082 38:-0.962017 39:0.374082 40:-0.588627 41:-0.962017 42:-0.512474 43:-0.706168 44:-0.720552 45:-0.724192 46:-0.767794 47:-0.7553 48:-0.761363 49:-0.902899 50:-0.957396 51:-0.898339 52:-0.171046 53:0.00982308 54:-0.0408525 55:-0.0976562 56:-0.44759 57:-0.837093 58:-0.475145 59:-0.478563 60:-0.874292 61:-0.853877 
1 1:-0.329412 2:-0.599486 3:-0.00274865 4:-0.0711553 5:-0.964803 6:0.39921 7:-0.706925 8:-0.805383 9:-0.531771 10:-1 11:-0.692753 12:-0.715942 13:-0.78744 14:-0.710144 15:-0.78744 16:-1 17:-1 18:-1 19:-1 20:-1 21:-1 22:-1 23:-1 24:-1 30:-0.996109 31:-0.2834 32:-0.959074 33:-0.2834 34:-0.375906 35:-0.959074 36:-0.996109 37:-0.2834 38:-0.959074 39:-0.2834 40:-0.375906 41:-0.959074 42:-0.811305 43:-0.85269 44:-0.853479 45:-0.849839 46:-0.957723 47:-0.924793 48:-0.938091 49:-0.926711 50:-0.97507 51:-0.942067 52:-0.370932 53:0.107203 54:0.402468 55:0.683733 56:0.316256 57:0.64721 58:0.416071 59:-0.411738 60:-0.81834 61:-0.896474 
1 1:-0.670588 2:-0.505688 3:-0.423416 4:-0.647296 5:-1 6:0.781818 7:-1 8:-0.776191 9:-0.461538 10:-1 11:-1 12:-1 13:-1 14:-1 15:-1 16:-1 17:-1 18:-1 19:-1 20:-1 21:-1 22:-1 23:-1 24:-1 30:-0.995653 31:0.110462 32:-0.954879 33:0.110462 34:-0.857629 35:-0.954879 36:-0.995653 37:0.110462 38:-0.954879 39:0.110462 40:-0.857629 41:-0.954879 42:-0.963349 43:-0.993952 44:-0.888807 45:-0.857918 46:-0.918963 47:-0.958476 48:-0.964637 49:-0.973429 50:-1 51:-0.921051 52:-0.868734 53:-0.745392 54:-0.522952 55:-0.466326 56:-0.578011 57:-0.267786 58:-0.0108437 59:-0.572729 60:-1 61:-0.824845 
1 1:-0.611765 2:-0.620771 3:-0.0137093 4:-0.218944 5:-1 6:0.466668 7:-0.807407 8:-0.701587 9:-0.760684 10:-0.65926 11:-0.0577785 12:-1 13:-1 14:-0.555556 15:-1 16:-1 17:-1 18:-1 19:-1 20:-1 21:-1 22:-1 23:-1 24:-1 30:-0.994649 31:-0.226405 32:-0.957054 33:-0.226405 34:-0.730923 35:-0.957054 36:-0.994649 37:-0.226405 38:-0.957054 39:-0.226405 40:-0.730923 41:-0.957054 42:-0.973126 43:-0.832197 44:-0.837027 45:-0.872948 46:-0.880913 47:-0.898071 48:-0.931322 49:-0.97462 50:-0.962716 51:-0.748026 52:-0.926903 53:-0.368793 54:-0.272608 55:-0.762398 56:0.0830278 57:0.220272 58:-0.549397 59:-0.390194 60:-0.780431 61:-0.997834 
1 1:-0.505882 2:-0.202769 3:-0.0428296 4:0.0861315 5:-0.955026 6:0.313131 7:-0.572017 8:-0.751323 9:-0.80057 10:-1 11:-1 12:-0.637038 13:-1 14:-0.62963 15:-0.456792 16:-1 17:-1 18:-1 19:-1 20:-1 21:-1 22:-1 23:-1 24:-1 30:-0.983992 31:0.0289579 32:-0.965372 33:0.0289579 34:-0.654391 35:-0.965372 36:-0.983992 37:0.0289579 38:-0.965372 39:0.0289579 40:-0.654391 41:-0.965372 42:-0.315329 43:-0.849426 44:-0.808892 45:-0.802883 46:-0.927057 47:-0.900297 48:-0.885081 49:-0.965952 50:-0.955402 51:-1 52:-0.591472 53:-0.118334 54:0.183171 55:-0.426237 56:-0.771742 57:-0.354162 58:-0.406346 59:-0.586072 60:-0.65854 61:-1 
1 1:-0.611765 2:-0.625026 3:0.175009 4:0.0601044 5:-1 6:0.321212 7:-0.679013 8:-0.900529 9:-0.521367 10:-0.31852 11:-0.0577785 12:-1 13:-0.674075 14:-1 15:-1 16:-1 17:-0.544445 18:-1 19:-1 20:-1 21:-1 22:-1 23:-1 24:-1 30:-0.994534 31:-0.199266 32:-0.956697 33:-0.199266 34:-0.773893 35:-0.956697 36:-0.994534 37:-0.199266 38:-0.956697 39:-0.199266 40:-0.773893 41:-0.956697 42:-0.985435 43:-0.842448 44:-0.839691 45:-0.876883 46:-0.892926 47:-0.901264 48:-0.925552 49:-0.956388 50:-0.971342 51:-1 52:-0.873245 53:-0.381813 54:-0.26075 55:-0.736122 56:-0.326155 57:0.0826477 58:-0.245168 59:-0.638932 60:-0.825329 61:-1 
1 1:-0.0235294 2:-0.752938 3:-0.178224 4:-0.182461 5:-0.974436 6:0.333972 7:-0.330994 8:-0.905765 9:-0.88664 10:-0.838597 11:-1 12:-1 13:-0.845615 14:-1 15:-1 16:-1 17:-1 18:-1 19:-1 20:-0.294737 21:-1 22:-1 23:-1 24:-1 30:-0.989404 31:0.10953 32:-0.965957 33:0.10953 34:-0.692229 35:-0.965957 36:-0.989404 37:0.10953 38:-0.965957 39:0.10953 40:-0.692229 41:-0.965957 42:-0.763914 43:-0.707497 44:-0.713581 45:-0.919235 46:-0.772962 47:-0.742679 48:-0.770933 49:-0.881842 50:-0.911423 51:-0.601567 52:-0.399562 53:-0.0718019 54:0.263028 55:-0.219783 56:-0.280491 57:-0.14026 58:-0.259052 59:-0.584906 60:-0.821048 61:-0.724516 
1 1:-0.658824 2:-0.790836 3:-0.0766503 4:0.0440072 5:-1 6:0.095344 7:-0.0840117 8:-0.781649 9:-0.737336 10:-1 11:-1 12:-1 13:-1 14:-1 15:-1 16:-1 17:-1 18:-1 19:0.195121 20:-1 21:-1 22:-1 23:-1 24:-1 30:-0.997381 31:0.000834283 32:-0.95845 33:0.000834283 34:-0.836081 35:-0.95845 36:-0.997381 37:0.000834283 38:-0.95845 39:0.000834283 40:-0.836081 41:-0.95845 42:-0.992762 43:-0.983364 44:-0.879761 45:-0.908845 46:-0.931065 47:-0.970031 48:-0.979566 49:-0.986044 50:-0.96097 51:-1 52:-0.922656 53:-0.89249 54:-0.295795 55:-0.35335 56:-0.18697 57:-0.114161 58:-0.399002 59:-0.910791 60:-0.886817 61:-1 
1 1:-0.4 2:-0.581762 3:-0.0844207 4:-0.210955 5:-0.961451 6:0.411256 7:-0.724868 8:-0.786849 9:-0.487179 10:-0.513229 11:-1 12:-0.68889 13:-1 14:-1 15:-0.767197 16:-1 17:-1 18:-1 19:-1 20:-1 21:-1 22:-1 23:-1 24:-1 30:-0.994688 31:-0.281954 32:-0.957662 33:-0.281954 34:-0.402965 35:-0.957662 36:-0.994688 37:-0.281954 38:-0.957662 39:-0.281954 40:-0.402965 41:-0.957662 42:-0.783786 43:-0.840685 44:-0.841758 45:-0.867956 46:-0.8964 47:-0.939242 48:-0.933024 49:-0.972932 50:-0.991071 51:-0.710775 52:-0.259815 53:-0.00271172 54:-0.331689 55:0.374249 56:0.201892 57:0.405813 58:0.475616 59:-0.327432 60:-0.995588 61:-0.979098 
0.9774542226695984 1:-0.376471 2:-0.444778 3:0.0228879 4:0.289568 5:-1 6:0.597204 7:-0.911111 8:-0.862271 9:-0.834319 10:-0.29231 11:-1 12:-1 13:-1 14:-0.692308 15:-0.77436 16:-0.589744 17:-1 18:-1 19:-0.246154 20:-1 21:-1 22:-1 23:-1 24:-1 30:-0.967252 31:0.209863 32:-0.95505 33:0.209863 34:-0.226907 35:-0.95505 36:-0.967252 37:0.209863 38:-0.95505 39:0.209863 40:-0.226907 41:-0.95505 42:-0.962765 43:0.215115 44:-0.945123 45:-0.921056 46:-0.901344 47:-0.868158 48:-0.886698 49:-0.929606 50:-0.931166 51:-0.928919 52:-0.436148 53:0.187425 54:0.374182 55:0.524683 56:0.687116 57:0.33036 58:0.0648924 59:-0.899685 60:-0.873646 61:-0.939643 
1 1:-0.647059 2:-0.782472 3:-0.00903349 4:-0.351583 5:-1 6:-0.142858 7:0.100528 8:-0.680272 9:-1 10:-0.634922 11:-0.495238 12:-1 13:-0.650795 14:-1 15:-1 16:-1 17:-1 18:-1 19:-1 20:-1 21:-1 22:-1 23:-1 24:-1 30:-0.997803 31:0.0795298 32:-0.957049 33:0.0795298 34:-0.826657 35:-0.957049 36:-0.997803 37:0.0795298 38:-0.957049 39:0.0795298 40:-0.826657 41:-0.957049 42:-0.972085 43:-0.954599 44:-0.979977 45:-0.965831 46:-0.956731 47:-0.947845 48:-0.994352 49:-0.97949 50:-0.965619 51:-1 52:-0.834645 53:-0.534383 54:-0.568323 55:-0.535289 56:-0.170068 57:-0.172946 58:-0.726099 59:-0.451271 60:-0.850677 61:-1 
1 1:-0.647059 2:-0.762645 3:-0.00564864 4:0.114149 5:-0.942177 6:0.0129869 7:-0.0370384 8:-0.786849 9:-1 10:-1 11:-1 12:-1 13:-1 14:-1 15:-0.650795 16:-1 17:-1 18:0.0714286 19:-1 20:-1 21:-1 22:-1 23:-1 24:-1 30:-0.996273 31:0.147954 32:-0.958436 33:0.147954 34:-0.792918 35:-0.958436 36:-0.996273 37:0.147954 38:-0.958436 39:0.147954 40:-0.792918 41:-0.958436 42:-0.776646 43:-0.998402 44:-0.931189 45:-0.909656 46:-0.895457 47:-0.966334 48:-0.993337 49:-0.946829 50:-0.971145 51:-0.823742 52:-0.716206 53:-0.877063 54:-0.655606 55:-0.506861 56:-0.143684 57:-0.191608 58:-0.239267 59:-0.701876 60:-0.873057 61:-0.835026 
1 1:-0.658824 2:-0.786847 3:-0.112531 4:-0.0272824 5:-0.940767 6:0.0421295 7:-0.0135518 8:-0.781649 9:-1 10:-1 11:-1 12:-1 13:-1 14:-1 15:-1 16:-1 17:-1 18:-1 19:0.195121 20:-1 21:-1 22:-1 23:-1 24:-1 30:-0.996669 31:0.0169608 32:-0.95677 33:0.0169608 34:-0.786308 35:-0.95677 36:-0.996669 37:0.0169608 38:-0.95677 39:0.0169608 40:-0.786308 41:-0.95677 42:-0.955615 43:-0.997294 44:-0.90803 45:-0.908869 46:-0.9338 47:-0.979761 48:-0.927883 49:-0.99192 50:-0.931918 51:-0.733981 52:-0.917894 53:-0.869595 54:-0.394394 55:-0.423065 56:-0.204302 57:-0.267897 58:-0.0904415 59:-0.148618 60:-0.799594 61:-0.804772 
1 1:-0.870588 2:-0.157641 3:-0.294291 4:-0.348822 5:-1 6:0.620553 7:-1 8:-0.805383 9:-0.531771 10:0.333331 11:-1 12:-1 13:-1 14:-1 15:-1 16:-1 17:-1 18:-1 19:-1 20:-1 21:-1 22:-1 23:-1 24:-1 30:-0.996161 31:-0.0050963 32:-0.956858 33:-0.0050963 34:-0.835322 35:-0.956858 36:-0.996161 37:-0.0050963 38:-0.956858 39:-0.0050963 40:-0.835322 41:-0.956858 42:-0.985011 43:-0.979676 44:-0.832351 45:-1 46:-0.947115 47:-0.969167 48:-1 49:-0.942005 50:-1 51:-1 52:-0.973207 53:-0.812817 54:-0.346022 55:-1 56:-0.378364 57:-0.221342 58:-1 59:-0.389604 60:-1 61:-1 
1 1:-0.835294 2:0.00997812 3:-0.122287 4:0.198583 5:-1 6:0.664336 7:-0.888889 8:-1 9:-1 10:-0.410258 11:-1 12:-1 13:-1 14:-0.23077 15:-0.4359 16:-1 17:-1 18:-1 19:-1 20:-1 21:-1 22:-1 23:-1 24:-1 30:-0.980757 31:0.165697 32:-0.966914 33:0.165697 34:-0.829338 35:-0.966914 36:-0.980757 37:0.165697 38:-0.966914 39:0.165697 40:-0.829338 41:-0.966914 42:-0.457976 43:-0.964064 44:-1 45:-0.881705 46:-0.918177 47:-0.93461 48:-1 49:-0.923386 50:-1 51:-1 52:-0.907716 53:-0.998583 54:-1 55:-0.476148 56:-0.47686 57:-0.346485 58:-1 59:-0.594328 60:-1 61:-1 
1 1:-0.470588 2:-0.613309 3:-0.0764496 4:-0.0726776 5:-1 6:0.464115 7:-0.645224 8:-0.842941 9:-0.622132 10:-1 11:-1 12:-0.65614 13:-1 14:-0.649122 15:-1 16:-0.532163 17:-1 18:-1 19:-1 20:-1 21:-1 22:-1 23:-1 24:-1 30:-0.974451 31:-0.0557698 32:-0.953833 33:-0.0557698 34:-0.666714 35:-0.953833 36:-0.974451 37:-0.0557698 38:-0.953833 39:-0.0557698 40:-0.666714 41:-0.953833 42:-0.206299 43:-0.845718 44:-0.813089 45:-0.814601 46:-0.878094 47:-0.880559 48:-0.880513 49:-1 50:-0.970682 51:-1 52:-0.84309 53:-0.579116 54:-0.145578 55:0.0494858 56:-0.0803514 57:0.156555 58:0.260469 59:-1 60:-0.992223 61:-1 
1 1:-0.235294 2:-0.442686 3:0.142624 4:0.362427 5:-1 6:0.46163 7:-0.849928 8:-0.709338 9:-0.72028 10:-1 11:-1 12:-0.745455 13:-0.809525 14:-0.48052 15:-1 16:0.385283 17:-1 18:-1 19:-1 20:-1 21:-1 22:-1 23:-1 24:-1 30:-0.992535 31:0.627203 32:-0.958077 33:0.627203 34:-0.501992 35:-0.958077 36:-0.992535 37:0.627203 38:-0.958077 39:0.627203 40:-0.501992 41:-0.958077 42:-0.928857 43:-0.770843 44:-0.81495 45:-0.773367 46:-0.76519 47:-0.765155 48:-0.93548 49:-0.812613 50:-0.89252 51:-0.82722 52:-0.690258 53:0.2067 54:0.52106 55:0.234243 56:-0.290248 57:-0.191697 58:-0.764826 59:-0.318046 60:-0.783517 61:-0.810509 
1 1:-0.447059 2:-0.582901 3:0.115891 4:-0.0865785 5:-0.958838 6:0.223421 7:-0.657251 8:-0.924132 9:-0.269882 10:-0.480227 11:0.0779673 12:-0.335595 13:-0.751412 14:-1 15:-1 16:-1 17:-1 18:-1 19:-1 20:-1 21:-1 22:-1 23:-1 24:-1 30:-0.993416 31:-0.240087 32:-0.958738 33:-0.240087 34:-0.562916 35:-0.958738 36:-0.993416 37:-0.240087 38:-0.958738 39:-0.240087 40:-0.562916 41:-0.958738 42:-0.817422 43:-0.809526 44:-0.834954 45:-0.818011 46:-0.866689 47:-0.886682 48:-0.879334 49:-0.932003 50:-0.965535 51:-0.77094 52:-0.281873 53:-0.070363 54:-0.648426 55:0.115201 56:0.00081434 57:0.0053583 58:0.143446 59:-0.962761 60:-0.810124 61:-0.98246 
1 1:-0.541176 2:-0.777115 3:0.0273445 4:0.057346 5:-0.952381 6:-0.1123 7:0.0762522 8:-0.824463 9:-0.788839 10:-1 11:-0.584315 12:-1 13:-0.71242 14:-1 15:-1 16:-1 17:-1 18:-1 19:-0.0392172 20:-1 21:-1 22:-1 23:-1 24:-1 30:-0.997585 31:-0.000380361 32:-0.957863 33:-0.000380361 34:-0.787475 35:-0.957863 36:-0.997585 37:-0.000380361 38:-0.957863 39:-0.000380361 40:-0.787475 41:-0.957863 42:-0.922372 43:-0.894778 44:-0.872787 45:-0.947895 46:-0.959119 47:-0.907935 48:-0.971022 49:-0.979109 50:-0.992515 51:-0.659918 52:-0.734306 53:-0.244034 54:-0.249544 55:-0.180586 56:-0.201239 57:-0.188705 58:-0.204421 59:-0.590163 60:-0.898866 61:-0.821853 
1 1:-0.517647 2:-0.764086 3:-0.148288 4:-0.470743 5:-1 6:-0.0703258 7:0.0901448 8:-0.577718 9:-1 10:-1 11:-1 12:-1 13:-0.723272 14:-1 15:-1 16:-1 17:-1 18:-1 19:-1 20:-1 21:-1 22:-1 23:-1 24:-1 30:-0.994861 31:0.0371422 32:-0.957532 33:0.0371422 34:-0.775592 35:-0.957532 36:-0.994861 37:0.0371422 38:-0.957532 39:0.0371422 40:-0.775592 41:-0.957532 42:-0.754995 43:-0.846984 44:-0.852559 45:-0.845237 46:-0.852657 47:-0.966888 48:-0.980427 49:-0.980521 50:-0.927179 51:-0.655421 52:-0.785346 53:-0.473649 54:-0.478916 55:-0.303243 56:-0.111567 57:-0.196027 58:-0.225328 59:-0.662173 60:-0.664792 61:-0.633273 
1 1:-0.2 2:-0.296064 3:-0.177764 4:-0.187333 5:-1 6:0.481818 7:-0.675 8:-0.720238 9:-1 10:-0.616667 11:-1 12:-0.510001 13:-1 14:-1 15:-1 16:-0.666667 17:-1 18:-1 19:-1 20:-1 21:-1 22:-1 23:-1 24:-1 30:-0.987917 31:0.193112 32:-0.963397 33:0.193112 34:-0.583234 35:-0.963397 36:-0.987917 37:0.193112 38:-0.963397 39:0.193112 40:-0.583234 41:-0.963397 42:-0.49575 43:-0.707505 44:-0.882582 45:-0.714757 46:-0.778261 47:-0.764449 48:-0.767056 49:-0.756522 50:-0.969097 51:-1 52:-0.262496 53:-0.256002 54:-0.359687 55:-0.547358 56:-0.116161 57:-0.341485 58:-0.464935 59:-0.438336 60:-0.810793 61:-1 
1 1:-0.482353 2:-0.780751 3:-0.10691 4:-0.374566 5:-1 6:0.064936 7:-0.0198409 8:-0.840136 9:-1 10:-0.726192 11:-0.621429 12:-1 13:-0.738097 14:-1 15:-1 16:-1 17:-1 18:-1 19:-1 20:-1 21:-1 22:-1 23:-1 24:-1 30:-0.996904 31:0.0588992 32:-0.958265 33:0.0588992 34:-0.783981 35:-0.958265 36:-0.996904 37:0.0588992 38:-0.958265 39:0.0588992 40:-0.783981 41:-0.958265 42:-0.89326 43:-0.833311 44:-0.835076 45:-0.975315 46:-0.914912 47:-0.905013 48:-0.936348 49:-0.929252 50:-0.964719 51:-0.995037 52:-0.7534 53:-0.560493 54:-0.00591161 55:-0.332619 56:-0.16916 57:-0.195558 58:-0.141078 59:-0.465877 60:-0.85057 61:-0.780664 
1 1:-0.529412 2:-0.607481 3:-0.111617 4:-0.28734 5:-1 6:0.328672 7:-0.5 8:-0.913919 9:-0.171596 10:-1 11:-1 12:-0.623077 13:-1 14:-0.615384 15:-1 16:-1 17:-1 18:-1 19:-1 20:-1 21:-1 22:-1 23:-1 24:-1 30:-0.972248 31:-0.0856351 32:-0.952582 33:-0.0856351 34:-0.625839 35:-0.952582 36:-0.972248 37:-0.0856351 38:-0.952582 39:-0.0856351 40:-0.625839 41:-0.952582 42:-0.206506 43:-0.846161 44:-0.814178 45:-0.815608 46:-0.853119 47:-0.891113 48:-0.880437 49:-0.985483 50:-0.96586 51:-1 52:-0.801196 53:-0.693238 54:-0.120921 55:0.22281 56:-0.012477 57:0.179516 58:0.31329 59:-0.850304 60:-0.985368 61:-1 
1 1:-0.835294 2:-0.0849582 3:-0.161843 4:0.0241317 5:-0.906593 6:0.244755 7:-0.333334 8:-1 9:-1 10:-1 11:-1 12:-0.246156 13:-1 14:-1 15:-0.4359 16:-1 17:-1 18:-1 19:-1 20:-1 21:-1 22:-1 23:-1 24:-1 30:-0.99109 31:0.385528 32:-0.963307 33:0.385528 34:-0.813714 35:-0.963307 36:-0.99109 37:0.385528 38:-0.963307 39:0.385528 40:-0.813714 41:-0.963307 42:-0.640242 43:-0.904807 44:-0.880939 45:-1 46:-0.871864 47:-0.916782 48:-1 49:-0.937298 50:-1 51:-1 52:-0.759053 53:-0.857342 54:-0.473663 55:-1 56:-0.411068 57:-0.536063 58:-1 59:-0.358776 60:-1 61:-1 
1 1:-0.764706 2:0.0253884 3:-0.360438 4:-0.33394 5:-1 6:0.727273 7:-0.909722 8:-0.860119 9:-1 10:-1 11:-0.3375 12:-0.387501 13:-1 14:-1 15:-1 16:-1 17:-1 18:-1 19:-1 20:-1 21:-1 22:-1 23:-1 24:-1 30:-0.983128 31:0.192461 32:-0.966768 33:0.192461 34:-0.662656 35:-0.966768 36:-0.983128 37:0.192461 38:-0.966768 39:0.192461 40:-0.662656 41:-0.966768 42:-0.44265 43:-0.856274 44:-1 45:-0.866856 46:-0.913045 47:-0.911692 48:-1 49:-0.928367 50:-1 51:-1 52:-0.695595 53:-0.31809 54:-1 55:0.125699 56:-0.364515 57:-0.484296 58:-1 59:-0.557492 60:-1 61:-1 
1 1:-0.235294 2:-0.448684 3:0.202817 4:0.422132 5:-1 6:0.46163 7:-0.849928 8:-0.825603 9:-0.72028 10:-0.800866 11:-0.724676 12:-1 13:-0.809525 14:-0.22078 15:-0.809525 16:0.03896 17:-1 18:-1 19:-1 20:-1 21:-1 22:-1 23:-1 24:-1 30:-0.992275 31:0.699364 32:-0.958619 33:0.699364 34:-0.500507 35:-0.958619 36:-0.992275 37:0.699364 38:-0.958619 39:0.699364 40:-0.500507 41:-0.958619 42:-0.928111 43:-0.780405 44:-0.78193 45:-0.774251 46:-0.911165 47:-0.764589 48:-0.823399 49:-0.780088 50:-0.896503 51:-1 52:-0.675855 53:0.150755 54:0.436573 55:0.361148 56:-0.611255 57:-0.263994 58:-0.130332 59:-0.22085 60:-0.825417 61:-1 
1 1:-0.905882 2:-0.161859 3:-0.346259 4:-0.40007 5:-1 6:0.563636 7:-0.711111 8:-1 9:-1 10:0.533331 11:-1 12:-1 13:-1 14:-1 15:-1 16:-1 17:-1 18:-1 19:-1 20:-1 21:-1 22:-1 23:-1 24:-1 30:-0.997415 31:0.052373 32:-0.957384 33:0.052373 34:-0.802994 35:-0.957384 36:-0.997415 37:0.052373 38:-0.957384 39:0.052373 40:-0.802994 41:-0.957384 42:-1 43:-0.986837 44:-0.912303 45:-1 46:-0.96851 47:-0.974055 48:-1 49:-0.950248 50:-1 51:-1 52:-1 53:-0.842016 54:-0.385843 55:-1 56:-0.279498 57:-0.222251 58:-1 59:-0.30831 60:-1 61:-1 
