svm_type c_svc
kernel_type rbf
gamma 0.0163934
nr_class 2
total_sv 530
rho -0.628034
label 1 2
nr_sv 265 265
SV
1 1:0.18408 2:-0.369915 3:-0.370226 4:-0.207838 5:-0.840579 6:0.492491 7:-0.568842 8:-0.865507 9:-0.938647 10:-0.57488 11:-0.879227 12:-0.721739 13:-0.821255 14:-0.855072 15:-0.666668 16:-1 17:-1 18:-1 19:-1 20:-1 21:-1 22:-1 23:-1 24:-1 28:-1 30:-0.110506 31:-0.288205 32:0.135004 33:-0.288205 34:-0.382799 35:0.135004 36:-0.110506 37:-0.288205 38:0.135004 39:-0.288205 40:-0.382799 41:0.135004 42:0.526168 43:0.508209 44:0.541131 45:0.195897 46:0.143979 47:0.20347 48:-0.66267 49:-0.895666 50:-0.162489 51:0.184438 52:-0.139154 53:-0.179155 54:0.0858263 55:0.199388 56:-0.0328214 57:-0.429975 58:-0.450373 59:-0.801749 60:0.662229 61:1 
1 1:-0.343284 2:0.13848 3:-0.946495 4:-0.966266 5:-0.611765 6:0.788495 7:-0.711765 8:-0.945412 9:-1 10:-1 11:-1 12:-1 13:-1 14:-1 15:-1 16:-1 17:-1 18:-1 19:-1 20:-1 21:-1 22:-1 23:-1 24:-1 28:-1 30:-0.0582167 31:0.366808 32:0.237253 33:0.366808 34:-0.461201 35:0.237253 36:-0.0582167 37:0.366808 38:0.237253 39:0.366808 40:-0.461201 41:0.237253 42:-0.420426 43:-0.552356 44:0.368641 45:0.37356 46:0.518644 47:0.380494 48:-0.690646 49:-0.798884 50:-0.0772867 51:-1 52:-0.0994253 53:-0.0557329 54:0.0947737 55:-0.0611071 56:-0.256234 57:-0.316775 58:-0.794056 59:-0.837034 60:0.145918 61:-1 
1 1:-0.711443 2:0.251128 3:-0.981055 4:-0.97037 5:-0.770833 6:0.931289 7:-0.927084 8:-0.903333 9:-1 10:-1 11:-1 12:-1 13:-1 14:-1 15:-1 16:-1 17:-1 18:-1 19:-1 20:-1 21:-1 22:-1 23:-1 24:-1 28:-1 30:-0.585786 31:-0.0644286 32:0.116149 33:-0.0644286 34:-0.820529 35:0.116149 36:-0.585786 37:-0.0644286 38:0.116149 39:-0.0644286 40:-0.820529 41:0.116149 42:-0.473543 43:-0.328681 44:-0.27317 45:-0.44054 46:-0.608537 47:-0.604694 48:-0.288839 49:-0.483374 50:-0.688459 51:-0.512953 52:-0.526827 53:-0.468503 54:-0.480029 55:-0.580852 56:-0.386914 57:-0.436137 58:-0.513573 59:-0.824826 60:-0.74114 61:-0.95122 
1 1:-0.810945 2:0.566551 3:-0.883514 4:-0.685537 5:-0.710526 6:0.72771 7:-0.723684 8:-0.877895 9:-1 10:-1 11:-0.561403 12:-1 13:-1 14:-1 15:-1 16:-1 17:-1 18:-1 19:-1 20:-1 21:-1 22:-1 23:-1 24:-1 28:-1 30:-0.635819 31:0.00664708 32:0.227728 33:0.00664708 34:-0.727705 35:0.227728 36:-0.635819 37:0.00664708 38:0.227728 39:0.00664708 40:-0.727705 41:0.227728 42:-0.829741 43:-0.750637 44:-0.849167 45:-0.712049 46:-0.708341 47:-1 48:-0.860833 49:-1 50:-0.74134 51:-0.704488 52:-0.482792 53:-0.575726 54:-0.496252 55:-0.151542 56:-0.163371 57:-1 58:-0.370582 59:-1 60:-0.721937 61:0.0575071 
1 1:-0.651741 2:0.236546 3:-0.400902 4:-0.0185245 5:-0.796296 6:0.669471 7:-0.870371 8:-0.828148 9:-1 10:-1 11:-1 12:-0.644446 13:-0.771605 14:-0.25926 15:-1 16:-0.620371 17:-1 18:-1 19:-1 20:-1 21:-1 22:-1 23:-1 24:-1 28:-1 30:-0.734663 31:-0.00708969 32:0.0206591 33:-0.00708969 34:-0.413588 35:0.0206591 36:-0.734663 37:-0.00708969 38:0.0206591 39:-0.00708969 40:-0.413588 41:0.0206591 42:-0.652558 43:-0.57259 44:-0.383421 45:-0.497497 46:-0.358755 47:-0.796835 48:-0.780738 49:-0.591893 50:-0.760345 51:-1 52:-0.0561934 53:-0.166466 54:-0.38164 55:0.00600067 56:-0.0428319 57:-0.623684 58:-0.215753 59:0.128382 60:-0.21287 61:-1 
1 1:-0.860697 2:0.556371 3:-0.925156 4:-0.887496 5:-0.333332 6:0.547319 7:-0.469698 8:-0.859394 9:-1 10:-1 11:-1 12:-1 13:-1 14:-1 15:-1 16:-1 17:-1 18:-1 19:-1 20:-1 21:-1 22:-1 23:-1 24:-1 28:-1 30:-0.662414 31:0.0409533 32:0.210037 33:0.0409533 34:-0.707598 35:0.210037 36:-0.662414 37:0.0409533 38:0.210037 39:0.0409533 40:-0.707598 41:0.210037 42:-0.982733 43:-0.79462 44:-0.536334 45:-0.621323 46:-0.671847 47:-0.914291 48:-1 49:-0.963514 50:-0.980127 51:-0.819842 52:-0.948378 53:-0.543178 54:-0.448037 55:-0.483886 56:-0.163787 57:-0.220764 58:-1 59:-0.762852 60:-0.717751 61:-0.348582 
1 1:-0.681592 2:0.556131 3:-0.861935 4:-0.658103 5:-0.784314 6:0.813602 7:-0.794118 8:-0.90902 9:-1 10:-1 11:-1 12:-0.623531 13:-1 14:-1 15:-1 16:-1 17:-1 18:-1 19:-1 20:-1 21:-1 22:-1 23:-1 24:-1 28:-1 30:-0.781394 31:-0.0370275 32:-0.485971 33:-0.0370275 34:-0.0645916 35:-0.485971 36:-0.781394 37:-0.0370275 38:-0.485971 39:-0.0370275 40:-0.0645916 41:-0.485971 42:-0.555312 43:-0.650375 44:-0.688144 45:-0.633681 46:-0.674166 47:-0.653308 48:-0.821752 49:-1 50:-0.874884 51:-0.760596 52:0.340815 53:0.229192 54:0.468384 55:0.437517 56:0.414079 57:-0.130208 58:-0.289382 59:-1 60:-0.742586 61:-0.0281066 
1 1:0.552239 2:-0.476627 3:-0.723368 4:-0.716428 5:-0.811428 6:0.552492 7:-0.420001 8:-0.840914 9:-1 10:-0.832381 11:-1 12:-0.780572 13:-1 14:-1 15:-1 16:-1 17:-1 18:-1 19:-1 20:-1 21:-1 22:-1 23:-1 24:-1 28:-1 30:-0.000799358 31:-0.0929996 32:-0.516394 33:-0.0929996 34:-0.369249 35:-0.516394 36:-0.000799358 37:-0.0929996 38:-0.516394 39:-0.0929996 40:-0.369249 41:-0.516394 42:0.454456 43:0.440144 44:0.513315 45:0.488927 46:0.22199 47:-0.0697832 48:-0.340113 49:-0.777034 50:0.322089 51:-1 52:0.226798 53:0.202627 54:0.393838 55:0.0562298 56:-0.0698198 57:-0.113541 58:-0.64589 59:-0.820756 60:0.357237 61:-1 
1 1:-0.840796 2:0.563682 3:-0.858486 4:-0.679765 5:-0.371427 6:0.637855 7:-0.599999 8:-1 9:-1 10:-1 11:-0.52381 12:-1 13:-1 14:-1 15:-1 16:-1 17:-1 18:-1 19:-1 20:-1 21:-1 22:-1 23:-1 24:-1 28:-1 30:-0.680455 31:0.0388622 32:0.17607 33:0.0388622 34:-0.783636 35:0.17607 36:-0.680455 37:0.0388622 38:0.17607 39:0.0388622 40:-0.783636 41:0.17607 42:-0.842701 43:-0.764144 44:-0.586141 45:-0.587861 46:-0.586773 47:-0.884925 48:-0.731006 49:-0.910375 50:-1 51:-0.595275 52:-0.455079 53:-0.531021 54:-0.445231 55:-0.417038 56:-0.32919 57:-0.308217 58:-0.784917 59:-0.837611 60:-1 61:-0.797223 
1 1:-0.263682 2:-0.0939122 3:-0.721961 4:-0.636716 5:-0.88172 6:0.628676 7:-0.435485 8:-0.950107 9:-1 10:-1 11:-1 12:-0.793549 13:-1 14:-0.784946 15:-1 16:-1 17:-1 18:-1 19:-1 20:-1 21:-1 22:-1 23:-1 24:-1 28:-1 30:-0.426282 31:0.107519 32:0.402072 33:0.107519 34:-0.406547 35:0.402072 36:-0.426282 37:0.107519 38:0.402072 39:0.107519 40:-0.406547 41:0.402072 42:-0.540784 43:-0.695194 44:-0.628238 45:-0.652729 46:-0.433573 47:-0.621114 48:-0.822992 49:-0.0647504 50:0.181142 51:-1 52:-0.137724 53:-0.0574393 54:-0.0814125 55:-0.0716932 56:-0.260357 57:-0.373143 58:-0.468654 59:0.182048 60:0.318753 61:-1 
1 1:-0.860697 2:0.570455 3:-0.660144 4:-0.577511 5:-1 6:0.676656 7:-0.575758 8:-1 9:-1 10:-0.555557 11:-1 12:-0.418184 13:-1 14:-1 15:-1 16:-1 17:-1 18:-1 19:-1 20:-1 21:-1 22:-1 23:-1 24:-1 28:-1 30:-0.474675 31:0.109343 32:0.13246 33:0.109343 34:-0.797559 35:0.13246 36:-0.474675 37:0.109343 38:0.13246 39:0.109343 40:-0.797559 41:0.13246 42:-0.204463 43:-0.467221 44:-0.371878 45:-0.386899 46:-0.417998 47:-0.433451 48:-0.701555 49:-1 50:-0.812986 51:-1 52:-0.376594 53:-0.599858 54:-0.248458 55:-0.210455 56:-0.619962 57:-0.99394 58:-0.963272 59:-1 60:-0.897496 61:-1 
1 1:-0.61194 2:-0.252337 3:-0.841896 4:-0.923757 5:-1 6:0.807108 7:-0.698276 8:-0.84 9:-1 10:-1 11:-1 12:-1 13:-1 14:-1 15:-1 16:-1 17:-1 18:-1 19:-1 20:-1 21:-1 22:-1 23:-1 24:-1 28:-1 30:-0.770201 31:-0.0947748 32:0.00879372 33:-0.0947748 34:-0.60285 35:0.00879372 36:-0.770201 37:-0.0947748 38:0.00879372 39:-0.0947748 40:-0.60285 41:0.00879372 42:-0.577115 43:-0.497798 44:-0.287915 45:-0.587357 46:-0.39009 47:-0.50402 48:-0.706166 49:-0.601946 50:-0.597984 51:-0.833333 52:-0.169912 53:-0.216866 54:-0.290544 55:-0.196386 56:-0.421154 57:-0.0939108 58:-0.0796279 59:0.174755 60:-0.792151 61:-0.934198 
1 1:-0.283582 2:-0.127374 3:-0.560534 4:-0.357445 5:-0.516484 6:0.595643 7:-0.846154 8:-0.949011 9:-0.90696 10:-0.516485 11:-0.0842483 12:-0.789012 13:-0.864469 14:-1 15:-1 16:-1 17:-1 18:-1 19:-1 20:-1 21:-1 22:-1 23:-1 24:-1 28:-1 30:-0.275925 31:-0.473372 32:-0.686949 33:-0.473372 34:-0.340962 35:-0.686949 36:-0.275925 37:-0.473372 38:-0.686949 39:-0.473372 40:-0.340962 41:-0.686949 42:0.00810477 43:-0.136638 44:-0.150883 45:-0.097223 46:0.211472 47:-0.0742789 48:-0.791813 49:-0.96887 50:0.0950833 51:0.0311982 52:0.0146343 53:-0.0153059 54:0.109833 55:-0.00428114 56:-0.182872 57:-0.13933 58:-0.534937 59:-0.939297 60:0.139877 61:0.324183 
1 1:-0.0746269 2:-0.139936 3:-0.752676 4:-0.809773 5:-0.803572 6:0.569259 7:-0.531249 8:-0.751428 9:-0.773214 10:-1 11:-1 12:-1 13:-1 14:-1 15:-1 16:-1 17:-1 18:-1 19:-1 20:-1 21:-1 22:-1 23:-1 24:-1 28:-1 30:-0.435862 31:-0.0495552 32:0.380753 33:-0.0495552 34:-0.183527 35:0.380753 36:-0.435862 37:-0.0495552 38:0.380753 39:-0.0495552 40:-0.183527 41:0.380753 42:-0.459618 43:-0.330781 44:-0.432654 45:-0.569328 46:-0.386832 47:-0.762011 48:-0.696326 49:-0.301962 50:0.161847 51:0.105502 52:-0.259357 53:-0.266059 54:0.0511142 55:-0.107274 56:-0.058961 57:-0.262748 58:-0.412857 59:0.2549 60:0.847953 61:0.673181 
1 1:-0.20398 2:-0.135812 3:-0.829414 4:-0.659092 5:-0.777778 6:0.849106 7:-0.858586 8:-1 9:-0.914478 10:-0.703705 11:-1 12:-1 13:-0.875421 14:-1 15:-1 16:-1 17:-1 18:-1 19:-1 20:-1 21:-1 22:-1 23:-1 24:-1 28:-1 30:-0.639479 31:-0.0281187 32:0.127294 33:-0.0281187 34:0.172445 35:0.127294 36:-0.639479 37:-0.0281187 38:0.127294 39:-0.0281187 40:0.172445 41:0.127294 42:-0.137609 43:-0.00404289 44:-0.362975 45:-0.494381 46:-0.299564 47:-0.776585 48:-0.686462 49:-0.773377 50:-0.179343 51:-0.165716 52:0.469607 53:0.389004 54:0.178492 55:0.0843951 56:-0.137583 57:-0.276879 58:-0.213508 59:-0.227122 60:1 61:0.229239 
0.2894679677788345 1:-0.850746 2:0.554772 3:-0.894575 4:-0.737042 5:-1 6:0.750835 7:-0.588236 8:-1 9:-1 10:-1 11:-0.509803 12:-1 13:-1 14:-1 15:-1 16:-1 17:-1 18:-1 19:-1 20:-1 21:-1 22:-1 23:-1 24:-1 28:-1 30:-0.676595 31:0.0554286 32:0.180444 33:0.0554286 34:-0.727347 35:0.180444 36:-0.676595 37:0.0554286 38:0.180444 39:0.0554286 40:-0.727347 41:0.180444 42:-0.951091 43:-0.80093 44:-0.569099 45:-0.531332 46:-0.690981 47:-0.852251 48:-1 49:-0.932324 50:-0.9125 51:-1 52:-0.962915 53:-0.538761 54:-0.438757 55:-0.407184 56:-0.16526 57:-0.210998 58:-1 59:-0.769875 60:-0.705296 61:-1 
1 1:-0.850746 2:0.545526 3:-0.853097 4:-0.722028 5:-0.67647 6:0.562535 7:-0.382352 8:-1 9:-1 10:-1 11:-0.509803 12:-1 13:-1 14:-1 15:-1 16:-1 17:-1 18:-1 19:-1 20:-1 21:-1 22:-1 23:-1 24:-1 28:-1 30:-0.675754 31:0.0459806 32:0.1823 33:0.0459806 34:-0.700069 35:0.1823 36:-0.675754 37:0.0459806 38:0.1823 39:0.0459806 40:-0.700069 41:0.1823 42:-0.722256 43:-0.892812 44:-0.57131 45:-0.594606 46:-0.634633 47:-0.784677 48:-1 49:-0.815286 50:-0.923808 51:-1 52:-0.459152 53:-0.533437 54:-0.375923 55:-0.380257 56:-0.165601 57:-0.209759 58:-1 59:-0.70252 60:-0.709886 61:-1 
1 1:-0.60199 2:0.422909 3:-0.954795 4:-0.941953 5:-0.254237 6:0.739134 7:-0.762712 8:-0.921356 9:-1 10:-1 11:-1 12:-1 13:-1 14:-1 15:-1 16:-1 17:-1 18:-1 19:-1 20:-1 21:-1 22:-1 23:-1 24:-1 28:-1 30:-0.570059 31:0.0797808 32:0.304417 33:0.0797808 34:-0.491377 35:0.304417 36:-0.570059 37:0.0797808 38:0.304417 39:0.0797808 40:-0.491377 41:0.304417 42:-0.545211 43:-0.603099 44:-0.599454 45:-0.65568 46:-0.654349 47:-0.535086 48:-0.775004 49:-0.705508 50:-0.422521 51:-0.723238 52:-0.252212 53:-0.372887 54:-0.244846 55:-0.0181099 56:-0.276654 57:-0.512557 58:-0.651878 59:-0.741388 60:0.232987 61:-0.00291758 
1 1:-0.830846 2:0.568246 3:-0.814981 4:-0.698086 5:-0.694444 6:0.590432 7:-0.416666 8:-1 9:-1 10:-1 11:-0.537037 12:-1 13:-1 14:-1 15:-1 16:-1 17:-1 18:-1 19:-1 20:-1 21:-1 22:-1 23:-1 24:-1 28:-1 30:-0.595479 31:0.0904658 32:0.242391 33:0.0904658 34:-0.75983 35:0.242391 36:-0.595479 37:0.0904658 38:0.242391 39:0.0904658 40:-0.75983 41:0.242391 42:-0.975758 43:-0.89957 44:-0.499629 45:-0.404207 46:-0.496532 47:-0.889933 48:-1 49:-0.791915 50:-0.656915 51:-1 52:-0.704843 53:-0.555206 54:-0.451526 55:-0.552539 56:-0.292648 57:-0.547235 58:-1 59:-0.886282 60:-0.177252 61:-1 
1 1:-0.9801 2:0.624935 3:-0.587918 4:-0.162521 5:-1 6:0.759802 7:-0.833334 8:-1 9:-1 10:-0.30159 11:-1 12:-1 13:-1 14:-0.04762 15:-1 16:-1 17:-1 18:-1 19:-1 20:-1 21:-1 22:-1 23:-1 24:-1 28:-1 30:-0.763299 31:-0.0581075 32:0.0549097 33:-0.0581075 34:-0.798522 35:0.0549097 36:-0.763299 37:-0.0581075 38:0.0549097 39:-0.0581075 40:-0.798522 41:0.0549097 42:-0.797055 43:-1 44:-0.692982 45:-1 46:-0.447796 47:-0.789806 48:-1 49:-0.873439 50:-1 51:-1 52:-0.965164 53:-1 54:-0.499388 55:-1 56:-0.440103 57:-0.456584 58:-1 59:-0.352239 60:-1 61:-1 
1 1:-0.482587 2:0.111893 3:-0.221978 4:0.0050798 5:-1 6:0.463523 7:-0.704226 8:-0.673239 9:-0.642253 10:-1 11:-0.765258 12:-1 13:-0.826291 14:-0.43662 15:-1 16:-0.711268 17:-0.712676 18:-1 19:-1 20:-1 21:-1 22:-1 23:-1 24:-1 28:-1 30:-0.0983216 31:0.472441 32:-0.0658433 33:0.472441 34:-0.51742 35:-0.0658433 36:-0.0983216 37:0.472441 38:-0.0658433 39:0.472441 40:-0.51742 41:-0.0658433 42:0.347291 43:0.246471 44:-0.417541 45:0.196703 46:0.218187 47:0.285679 48:0.387569 49:0.338996 50:-0.792176 51:-0.81979 52:-0.0862472 53:-0.185638 54:-0.471858 55:-0.0672369 56:-0.134826 57:-0.621132 58:-0.609479 59:-0.575426 60:-0.771507 61:-0.920541 
1 1:-0.562189 2:-0.237197 3:-0.42391 4:-0.524486 5:-0.650794 6:0.285565 7:-0.444445 8:-0.705396 9:-0.731217 10:-0.068785 11:-1 12:-0.695239 13:-1 14:-1 15:-1 16:-1 17:-1 18:-1 19:-1 20:-1 21:-1 22:-1 23:-1 24:-1 28:-1 30:-0.42373 31:-0.312603 32:0.0462751 33:-0.312603 34:-0.56198 35:0.0462751 36:-0.42373 37:-0.312603 38:0.0462751 39:-0.312603 40:-0.56198 41:0.0462751 42:0.0760631 43:-0.10933 44:-0.602437 45:-0.18751 46:-0.385905 47:-0.461378 48:-0.414827 49:-0.512365 50:-0.828687 51:-1 52:-0.223473 53:-0.335081 54:-0.66917 55:0.265342 56:-0.0610722 57:0.0974138 58:0.096711 59:-0.288635 60:-0.531569 61:-1 
1 1:-0.810945 2:0.775991 3:-0.389831 4:-0.190706 5:-1 6:0.390753 7:-0.447368 8:-0.755789 9:-1 10:-0.228072 11:-1 12:-0.494738 13:-1 14:-1 15:-0.596492 16:-1 17:-1 18:-1 19:-1 20:-1 21:-1 22:-1 23:-1 24:-1 28:-1 30:-0.259404 31:0.223889 32:-0.515354 33:0.223889 34:-0.825614 35:-0.515354 36:-0.259404 37:0.223889 38:-0.515354 39:0.223889 40:-0.825614 41:-0.515354 42:-0.406268 43:-0.449801 44:-0.596225 45:-0.0969543 46:-0.0195174 47:0.149804 48:0.408714 49:-0.680428 50:-1 51:-1 52:-0.4074 53:-0.482544 54:-0.362009 55:-0.654869 56:-0.634048 57:-0.667767 58:-0.623095 59:-0.377526 60:-1 61:-1 
1 1:-0.442786 2:0.0855603 3:-0.485377 4:-0.299586 5:-1 6:0.637855 7:-0.766667 8:-0.876266 9:-0.774221 10:-0.21778 11:-1 12:-1 13:-0.835556 14:-1 15:-1 16:-0.726667 17:-1 18:-1 19:-1 20:-1 21:-1 22:-1 23:-1 24:-1 28:-1 30:-0.446888 31:0.614357 32:-0.398689 33:0.614357 34:-0.0884212 35:-0.398689 36:-0.446888 37:0.614357 38:-0.398689 39:0.614357 40:-0.0884212 41:-0.398689 42:-0.0370606 43:-0.184662 44:-0.460015 45:-0.0887543 46:0.0544157 47:-0.0418408 48:0.0863971 49:-0.00962104 50:-0.725073 51:-1 52:0.550995 53:0.300982 54:-0.226051 55:0.5144 56:-0.0710075 57:-0.0403503 58:-0.0594027 59:0.106984 60:-0.846368 61:-1 
1 1:-0.950249 2:0.64642 3:-0.292062 4:0.161274 5:-1 6:0.70899 7:-0.854167 8:-1 9:-1 10:-1 11:-0.305555 12:-1 13:-1 14:-1 15:-0.361112 16:-0.145833 17:-1 18:-1 19:-1 20:-1 21:-1 22:-1 23:-1 24:-1 28:-1 30:-0.737633 31:-0.0330614 32:0.0301856 33:-0.0330614 34:-0.796042 35:0.0301856 36:-0.737633 37:-0.0330614 38:0.0301856 39:-0.0330614 40:-0.796042 41:0.0301856 42:-1 43:-0.93636 44:-0.599317 45:-1 46:-0.621062 47:-0.733002 48:-1 49:-0.706371 50:-0.830326 51:-1 52:-1 53:-0.848846 54:-0.55808 55:-1 56:-0.257835 57:-0.373259 58:-1 59:-0.506292 60:-0.958561 61:-1 
1 1:-0.542289 2:-0.227952 3:-0.110153 4:-0.057458 5:-0.661538 6:0.309537 7:-0.623078 8:-0.643076 9:-1 10:-0.54872 11:-0.48718 12:-1 13:-0.430769 14:-1 15:-0.528206 16:-1 17:-1 18:-1 19:-1 20:-1 21:-1 22:-1 23:-1 24:-1 28:-1 30:-0.385708 31:-0.371354 32:-0.431267 33:-0.371354 34:-0.601249 35:-0.431267 36:-0.385708 37:-0.371354 38:-0.431267 39:-0.371354 40:-0.601249 41:-0.431267 42:0.18823 43:-0.134989 44:-0.134352 45:-0.272819 46:-0.413378 47:-0.454107 48:-0.388832 49:-0.549284 50:-0.941479 51:-1 52:-0.249577 53:-0.22643 54:-0.120828 55:-0.588296 56:-0.162298 57:-0.168328 58:0.0157968 59:-0.438803 60:-0.734388 61:-1 
1 1:-0.940299 2:0.626266 3:-0.414443 4:0.0453443 5:-1 6:0.80858 7:-1 8:-1 9:-1 10:-0.413335 11:-1 12:-1 13:-0.506666 14:-1 15:-1 16:-0.18 17:-1 18:-1 19:-1 20:-1 21:-1 22:-1 23:-1 24:-1 28:-1 30:-0.647139 31:0.10385 32:0.0135269 33:0.10385 34:-0.923773 35:0.0135269 36:-0.647139 37:0.10385 38:0.0135269 39:0.10385 40:-0.923773 41:0.0135269 42:-1 43:-0.789607 44:-0.153108 45:-1 46:-0.497997 47:-0.531795 48:-1 49:-0.692778 50:-1 51:-1 52:-1 53:-0.949575 54:-0.645936 55:-1 56:-0.500226 57:-0.657675 58:-1 59:-0.49353 60:-1 61:-1 
1 1:-0.552239 2:-0.211047 3:0.150845 4:0.174389 5:-0.828125 6:0.197703 7:-0.398438 8:-0.855 9:-0.867708 10:-0.770834 11:-0.21875 12:-0.700001 13:-0.807291 14:-1 15:0.197915 16:-1 17:-1 18:-1 19:-1 20:-1 21:-1 22:-1 23:-1 24:-1 28:-1 30:-0.476184 31:-0.344467 32:-0.440076 33:-0.344467 34:-0.440473 35:-0.440076 36:-0.476184 37:-0.344467 38:-0.440076 39:-0.344467 40:-0.440473 41:-0.440076 42:0.0340456 43:-0.309176 44:-0.126544 45:-0.338213 46:-0.129777 47:-0.56369 48:-0.59558 49:-0.414875 50:-0.714915 51:-1 52:-0.115838 53:-0.566265 54:-0.00985484 55:-0.189943 56:0.329832 57:0.0437985 58:-0.0711704 59:0.238906 60:-0.447648 61:-1 
1 1:-0.651741 2:-0.24732 3:-0.111548 4:0.0171768 5:-1 6:0.432353 7:-0.546295 8:-0.828148 9:-1 10:-0.456792 11:-0.691358 12:-0.644446 13:-1 14:-0.62963 15:-0.71605 16:-1 17:-0.622223 18:-1 19:-1 20:-1 21:-1 22:-1 23:-1 24:-1 28:-1 30:-0.459324 31:-0.40297 32:-0.405182 33:-0.40297 34:-0.436285 35:-0.405182 36:-0.459324 37:-0.40297 38:-0.405182 39:-0.40297 40:-0.436285 41:-0.405182 42:0.048325 43:-0.219798 44:-0.950362 45:-0.256523 46:-0.34292 47:-0.60015 48:-0.626574 49:-0.637608 50:-0.781453 51:-1 52:-0.344845 53:-0.207512 54:-0.670729 55:0.0410848 56:-0.0326028 57:0.0039972 58:-0.0310362 59:-0.286212 60:-0.990092 61:-1 
1 1:-0.970149 2:0.625258 3:-0.565161 4:-0.0198017 5:-1 6:0.870663 7:-1 8:-1 9:-1 10:-0.333336 11:-1 12:-1 13:-1 14:-1 15:-1 16:-0.068183 17:-1 18:-1 19:-1 20:-1 21:-1 22:-1 23:-1 24:-1 28:-1 30:-0.718944 31:-0.072569 32:0.0806203 33:-0.072569 34:-0.827904 35:0.0806203 36:-0.718944 37:-0.072569 38:0.0806203 39:-0.072569 40:-0.827904 41:0.0806203 42:-0.901 43:-0.93426 44:-0.56134 45:-1 46:-0.659269 47:-0.796199 48:-1 49:-0.829194 50:-1 51:-1 52:-0.929078 53:-0.862232 54:-0.537218 55:-1 56:-0.445547 57:-0.457247 58:-1 59:-0.405224 60:-1 61:-1 
1 1:-0.552239 2:-0.216593 3:-0.464987 4:-0.348219 5:-0.65625 6:0.464462 7:-0.507813 8:-0.7825 9:-1 10:-0.770834 11:-1 12:-0.400002 13:-1 14:-1 15:-0.760417 16:-1 17:-1 18:-1 19:-1 20:-1 21:-1 22:-1 23:-1 24:-1 28:-1 30:-0.451474 31:-0.365181 32:-0.480449 33:-0.365181 34:-0.382363 35:-0.480449 36:-0.451474 37:-0.365181 38:-0.480449 39:-0.365181 40:-0.382363 41:-0.480449 42:0.158064 43:-0.242879 44:-0.341308 45:-0.292592 46:-0.349471 47:-0.60013 48:-0.569171 49:-0.487632 50:-0.816397 51:-1 52:0.105028 53:-0.146257 54:-0.459875 55:0.0716277 56:-0.0011492 57:0.0793725 58:0.196053 59:0.223194 60:-0.534694 61:-1 
1 1:-0.940299 2:0.626212 3:-0.270685 4:0.223618 5:-1 6:0.723218 7:-0.86 8:-1 9:-1 10:-1 11:-1 12:-0.232002 13:-1 14:-1 15:-0.386668 16:-0.18 17:-1 18:-1 19:-1 20:-1 21:-1 22:-1 23:-1 24:-1 28:-1 30:-0.770654 31:-0.0491955 32:0.0373282 33:-0.0491955 34:-0.835699 35:0.0373282 36:-0.770654 37:-0.0491955 38:0.0373282 39:-0.0491955 40:-0.835699 41:0.0373282 42:-0.905011 43:-0.825782 44:-0.594395 45:-1 46:-0.559632 47:-0.761979 48:-1 49:-0.831007 50:-1 51:-1 52:-0.932284 53:-0.92611 54:-0.513218 55:-1 56:-0.44368 57:-0.387479 58:-1 59:-0.411432 60:-1 61:-1 
1 1:-0.412935 2:0.104003 3:-0.0607563 4:0.11684 5:-1 6:0.462752 7:-0.730769 8:-0.821538 9:-0.782906 10:-0.623933 11:-0.786325 12:-0.753847 13:-0.525641 14:-0.23077 15:-1 16:-1 17:-0.738462 18:-1 19:-1 20:-1 21:-1 22:-1 23:-1 24:-1 28:-1 30:-0.226841 31:0.541339 32:-0.0684096 33:0.541339 34:-0.387963 35:-0.0684096 36:-0.226841 37:0.541339 38:-0.0684096 39:0.541339 40:-0.387963 41:-0.0684096 42:0.199841 43:0.179842 44:-0.548837 45:0.0647951 46:0.229281 47:0.22268 48:-0.187093 49:0.220384 50:-0.644957 51:-1 52:0.219939 53:0.0208704 54:-0.609957 55:0.181821 56:-0.213908 57:-0.42149 58:-0.810813 59:-0.251878 60:-0.652751 61:-1 
1 1:-0.731343 2:0.378804 3:-0.331233 4:0.111694 5:-1 6:0.647134 7:-0.771739 8:-0.89913 9:-0.815942 10:-1 11:-0.637682 12:-1 13:-0.731884 14:-0.565218 15:-1 16:-1 17:-1 18:-1 19:-0.2029 20:-1 21:-1 22:-1 23:-1 24:-1 28:-1 30:-0.6672 31:-0.442653 32:-0.38115 33:-0.442653 34:-0.351599 35:-0.38115 36:-0.6672 37:-0.442653 38:-0.38115 39:-0.442653 40:-0.351599 41:-0.38115 42:-0.179385 43:-0.247167 44:-0.364774 45:-0.701166 46:-0.397026 47:-0.617361 48:-0.432636 49:-0.934442 50:-0.866898 51:-1 52:-0.0596743 53:-0.0182036 54:-0.351705 55:-0.303405 56:0.171599 57:-0.0119835 58:0.230518 59:-0.662822 60:-0.858542 61:-1 
0.6096746635537177 1:-0.422886 2:0.117056 3:-0.383961 4:-0.241915 5:-1 6:0.648941 7:-0.818182 8:-0.93974 9:-0.890043 10:-0.428574 11:-0.5671 12:-0.75065 13:-0.679654 14:-0.74026 15:-1 16:-1 17:-1 18:-1 19:-1 20:-1 21:-1 22:-1 23:-1 24:-1 28:-1 30:-0.295071 31:0.6549 32:0.00899344 33:0.6549 34:-0.21134 35:0.00899344 36:-0.295071 37:0.6549 38:0.00899344 39:0.6549 40:-0.21134 41:0.00899344 42:0.0179061 43:-0.0360256 44:-0.455829 45:-0.112013 46:0.109201 47:0.114345 48:0.212547 49:0.155337 50:-0.666023 51:-1 52:0.379011 53:0.214296 54:-0.0524208 55:0.370945 56:0.0221795 57:-0.237879 58:-0.238375 59:-0.125307 60:-0.641096 61:-1 
1 1:-0.562189 2:-0.215949 3:-0.393291 4:-0.282984 5:-0.825397 6:0.488809 7:-0.500001 8:-0.926349 9:-0.865608 10:-0.534393 11:-1 12:-0.390479 13:-1 14:-1 15:-1 16:-1 17:-0.676191 18:-1 19:-1 20:-1 21:-1 22:-1 23:-1 24:-1 28:-1 30:-0.439507 31:-0.355641 32:0.0658658 33:-0.355641 34:-0.551412 35:0.0658658 36:-0.439507 37:-0.355641 38:0.0658658 39:-0.355641 40:-0.551412 41:0.0658658 42:-0.0182595 43:-0.176879 44:-0.19017 45:-0.190868 46:-0.588148 47:-0.371026 48:-0.549989 49:-0.724127 50:-0.723599 51:-1 52:-0.139017 53:-0.22116 54:-0.026767 55:-0.0358678 56:-0.0243344 57:-0.187067 58:-0.0244802 59:-0.294124 60:-0.663255 61:-1 
1 1:-0.950249 2:0.620793 3:-0.346768 4:0.163723 5:-1 6:0.79791 7:-1 8:-1 9:-1 10:-0.38889 11:-1 12:-1 13:-1 14:-1 15:-0.361112 16:-0.145833 17:-1 18:-1 19:-1 20:-1 21:-1 22:-1 23:-1 24:-1 28:-1 30:-0.758893 31:-0.0577918 32:0.0365376 33:-0.0577918 34:-0.842503 35:0.0365376 36:-0.758893 37:-0.0577918 38:0.0365376 39:-0.0577918 40:-0.842503 41:0.0365376 42:-0.868336 43:-0.819877 44:-0.565622 45:-1 46:-0.568787 47:-0.708207 48:-1 49:-0.750548 50:-1 51:-1 52:-0.944844 53:-0.926263 54:-0.514005 55:-1 56:-0.449276 57:-0.399615 58:-1 59:-0.442048 60:-1 61:-1 
1 1:-0.552239 2:-0.220388 3:-0.46862 4:-0.264487 5:-0.65625 6:0.364427 7:-0.34375 8:-0.855 9:-0.603124 10:-0.770834 11:-1 12:-1 13:-1 14:-1 15:-1 16:-1 17:-1 18:-1 19:-0.427084 20:-1 21:-1 22:-1 23:-1 24:-1 28:-1 30:-0.3838 31:-0.353543 32:-0.461941 33:-0.353543 34:-0.533531 35:-0.461941 36:-0.3838 37:-0.353543 38:-0.461941 39:-0.353543 40:-0.533531 41:-0.461941 42:0.13805 43:-0.138731 44:-0.255759 45:-0.185083 46:-0.33032 47:-0.515502 48:-0.367552 49:-0.557621 50:-0.678852 51:-1 52:-0.209742 53:-0.281997 54:-0.326853 55:-0.0864808 56:-0.0603866 57:0.0369616 58:0.114771 59:-0.289698 60:-0.510879 61:-1 
1 1:-0.960199 2:0.618571 3:-0.324911 4:0.111085 5:-1 6:0.693526 7:-1 8:-0.79826 9:-0.631883 10:-1 11:-1 12:-1 13:-1 14:-1 15:0.333331 16:-1 17:-1 18:-1 19:-1 20:-1 21:-1 22:-1 23:-1 24:-1 28:-1 30:-0.744892 31:-0.0877115 32:-0.00523178 33:-0.0877115 34:-0.826274 35:-0.00523178 36:-0.744892 37:-0.0877115 38:-0.00523178 39:-0.0877115 40:-0.826274 41:-0.00523178 42:-1 43:-0.953481 44:-0.363354 45:-1 46:-0.615509 47:-0.744591 48:-1 49:-0.764754 50:-1 51:-1 52:-1 53:-0.844238 54:-0.507496 55:-1 56:-0.473584 57:-0.374497 58:-1 59:-0.462514 60:-1 61:-1 
1 1:-0.970149 2:0.637101 3:-0.250825 4:0.158629 5:-1 6:0.773658 7:-1 8:-1 9:-1 10:-1 11:-1 12:-0.127276 13:-1 14:-0.09091 15:-0.303032 16:-1 17:-1 18:-1 19:-1 20:-1 21:-1 22:-1 23:-1 24:-1 28:-1 30:-0.66134 31:-0.0713693 32:0.0939393 33:-0.0713693 34:-0.857258 35:0.0939393 36:-0.66134 37:-0.0713693 38:0.0939393 39:-0.0713693 40:-0.857258 41:0.0939393 42:-0.887931 43:-0.914497 44:-0.593319 45:-1 46:-0.585657 47:-0.695898 48:-1 49:-0.6787 50:-1 51:-1 52:-0.947482 53:-0.877863 54:-0.589669 55:-1 56:-0.522353 57:-0.388997 58:-1 59:-0.503569 60:-1 61:-1 
1 1:-0.850746 2:0.639766 3:-0.106796 4:0.185925 5:-1 6:0.437001 7:-0.794118 8:-0.590588 9:-0.75098 10:-1 11:-0.509803 12:-0.435295 13:-1 14:-0.411764 15:-1 16:-1 17:-1 18:-0.191176 19:-1 20:-1 21:-1 22:-1 23:-1 24:-1 28:-1 30:-0.529518 31:0.109146 32:0.0376556 33:0.109146 34:-0.931962 35:0.0376556 36:-0.529518 37:0.109146 38:0.0376556 39:0.109146 40:-0.931962 41:0.0376556 42:-0.583872 43:-0.63598 44:-0.341375 45:-1 46:0.0330212 47:-0.178136 48:-0.705674 49:-1 50:-0.99696 51:-0.864666 52:-0.891962 53:-0.887874 54:-0.558021 55:-1 56:-0.47612 57:-0.763774 58:-0.989591 59:-1 60:-0.939769 61:-0.630703 
1 1:-0.9801 2:0.627259 3:-0.456976 4:-0.0710206 5:-0.47619 6:0.65818 7:-1 8:-0.779048 9:-1 10:-1 11:-0.20635 12:-1 13:-1 14:-1 15:-0.269843 16:-1 17:-1 18:-1 19:-1 20:-1 21:-1 22:-1 23:-1 24:-1 28:-1 30:-0.746555 31:-0.057053 32:0.0538007 33:-0.057053 34:-0.864035 35:0.0538007 36:-0.746555 37:-0.057053 38:0.0538007 39:-0.057053 40:-0.864035 41:0.0538007 42:-0.889201 43:-1 44:-0.446146 45:-1 46:-0.674613 47:-0.71336 48:-1 49:-0.849458 50:-0.85086 51:-1 52:-0.919699 53:-1 54:-0.619654 55:-1 56:-0.448825 57:-0.43696 58:-1 59:-0.743118 60:-0.804041 61:-1 
1 1:-0.154229 2:-0.477923 3:-0.828991 4:-0.760661 5:-1 6:0.83895 7:-0.831731 8:-0.910769 9:-0.755768 10:-1 11:-0.839744 12:-1 13:-1 14:-1 15:-1 16:-1 17:-1 18:-1 19:-1 20:-1 21:-1 22:-1 23:-1 24:-1 28:-1 30:0.103135 31:0.0704689 32:-0.237305 33:0.0704689 34:-0.603812 35:-0.237305 36:0.103135 37:0.0704689 38:-0.237305 39:0.0704689 40:-0.603812 41:-0.237305 42:0.566728 43:0.420294 44:0.477376 45:0.410785 46:0.21411 47:0.288388 48:0.354777 49:-0.0443385 50:0.330073 51:-1 52:0.0413494 53:-0.19659 54:0.367097 55:-0.0354149 56:-0.22713 57:-0.185318 58:-0.322194 59:-0.170035 60:-0.528561 61:-1 
1 1:-0.970149 2:0.632314 3:-0.441991 4:-0.121872 5:-1 6:0.579652 7:-0.840909 8:-0.789091 9:-0.615151 10:-0.333336 11:-1 12:-1 13:-1 14:-1 15:-0.303032 16:-1 17:-1 18:-1 19:-1 20:-1 21:-1 22:-1 23:-1 24:-1 28:-1 30:-0.778657 31:-0.128312 32:-0.000218491 33:-0.128312 34:-0.850149 35:-0.000218491 36:-0.778657 37:-0.128312 38:-0.000218491 39:-0.128312 40:-0.850149 41:-0.000218491 42:-1 43:-0.912511 44:-0.590536 45:-1 46:-0.650248 47:-0.850321 48:-1 49:-0.640166 50:-0.751429 51:-1 52:-1 53:-0.825512 54:-0.49831 55:-1 56:-0.408725 57:-0.768979 58:-1 59:-0.489231 60:-0.771949 61:-1 
1 1:-0.830846 2:0.602745 3:-0.517319 4:-0.0263983 5:-1 6:0.76827 7:-1 8:-0.742222 9:-0.764814 10:-0.592593 11:-1 12:-1 13:-1 14:-1 15:-1 16:-1 17:-1 18:-1 19:0.0185185 20:-1 21:-1 22:-1 23:-1 24:-1 28:-1 30:-0.596372 31:0.107736 32:-0.03506 33:0.107736 34:-0.953238 35:-0.03506 36:-0.596372 37:0.107736 38:-0.03506 39:0.107736 40:-0.953238 41:-0.03506 42:-0.753455 43:-0.782531 44:-0.334444 45:-1 46:0.0878529 47:-0.220724 48:-1 49:-0.169332 50:-0.696013 51:-1 52:-0.895577 53:-0.907801 54:-0.640064 55:-1 56:-0.57584 57:-0.684113 58:-1 59:-0.677487 60:-0.919984 61:-1 
1 1:-0.641791 2:-0.238783 3:-0.302531 4:-0.103994 5:-1 6:0.48265 7:-0.554545 8:-0.831273 9:-0.692121 10:-0.733334 11:-0.39394 12:-1 13:-1 14:-1 15:-1 16:-1 17:-1 18:-1 19:-1 20:-0.2 21:-1 22:-1 23:-1 24:-1 28:-1 30:-0.381778 31:-0.332067 32:0.0717891 33:-0.332067 34:-0.542949 35:0.0717891 36:-0.381778 37:-0.332067 38:0.0717891 39:-0.332067 40:-0.542949 41:0.0717891 42:0.0800637 43:-0.172198 44:-0.890057 45:-0.210927 46:-0.338803 47:-0.527677 48:-0.395445 49:-0.593909 50:-0.785393 51:-0.735669 52:-0.153968 53:-0.233549 54:-0.709896 55:-0.0439684 56:-0.0462288 57:0.0148764 58:0.107824 59:-0.241018 60:-0.628533 61:-0.76037 
1 1:-0.621891 2:-0.241416 3:-0.195966 4:-0.0858898 5:-1 6:0.428191 7:-0.570176 8:-0.837193 9:-0.405847 10:-1 11:-0.415205 12:-0.663158 13:-1 14:-1 15:-1 16:-1 17:-1 18:-1 19:-1 20:-0.228068 21:-1 22:-1 23:-1 24:-1 28:-1 30:-0.463157 31:-0.32302 32:0.0344743 33:-0.32302 34:-0.592059 35:0.0344743 36:-0.463157 37:-0.32302 38:0.0344743 39:-0.32302 40:-0.592059 41:0.0344743 42:0.0681686 43:-0.151517 44:-0.125604 45:-0.227549 46:-0.452713 47:-0.497611 48:-0.410193 49:-0.852378 50:-0.689692 51:-1 52:0.0736533 53:-0.274702 54:-0.123268 55:-0.359409 56:-0.142087 57:-0.16553 58:0.076479 59:-0.94428 60:-0.501955 61:-1 
1 1:-0.621891 2:-0.215949 3:-0.320585 4:0.0242211 5:-0.614035 6:0.428191 7:-0.570176 8:-0.837193 9:-0.702924 10:-0.228072 11:-1 12:-1 13:-1 14:-1 15:-1 16:-1 17:-1 18:-1 19:-1 20:-1 21:-1 22:-1 23:-0.017542 24:-1 28:-1 30:-0.563067 31:-0.354816 32:-0.443924 33:-0.354816 34:-0.410493 35:-0.443924 36:-0.563067 37:-0.354816 38:-0.443924 39:-0.354816 40:-0.410493 41:-0.443924 42:-0.291473 43:-0.249523 44:-0.23104 45:-0.369568 46:-0.346133 47:-0.620957 48:-0.594212 49:-0.660326 50:-0.754766 51:-1 52:-0.0100595 53:-0.121535 54:0.19491 55:-0.396559 56:0.00634773 57:0.0664359 58:-0.0377059 59:-0.278585 60:-0.459609 61:-1 
1 1:0.0945274 2:-0.820106 3:-0.301476 4:-0.39058 5:-1 6:0.18788 7:-0.158916 8:-0.712248 9:-0.540567 10:-0.658916 11:-1 12:-0.851163 13:-0.808785 14:-1 15:-1 16:-0.841085 17:-1 18:-1 19:-1 20:-1 21:-1 22:-1 23:-1 24:-1 28:-1 30:-0.193363 31:0.364528 32:-0.42593 33:0.364528 34:-0.221408 35:-0.42593 36:-0.193363 37:0.364528 38:-0.42593 39:0.364528 40:-0.221408 41:-0.42593 42:-0.610177 43:-0.684417 44:0.0523474 45:0.193734 46:0.408814 47:0.403101 48:0.598802 49:0.235096 50:0.073823 51:-0.78849 52:-0.35405 53:-0.0154055 54:0.464171 55:0.369991 56:0.0716687 57:-0.245804 58:-0.134177 59:-0.281842 60:-0.505707 61:-0.836568 
1 1:-0.940299 2:0.638231 3:-0.658284 4:-0.526872 5:-1 6:0.552492 7:-0.44 8:-1 9:-0.661333 10:-1 11:-0.333333 12:-1 13:-1 14:-1 15:-1 16:-1 17:-1 18:-1 19:-1 20:-1 21:-1 22:-1 23:-1 24:-1 28:-1 30:-0.738811 31:-0.0611342 32:0.0388832 33:-0.0611342 34:-0.873119 35:0.0388832 36:-0.738811 37:-0.0611342 38:0.0388832 39:-0.0611342 40:-0.873119 41:0.0388832 42:-0.909314 43:-0.45573 44:-0.438147 45:-1 46:-0.729251 47:-0.55286 48:-1 49:-0.926897 50:-0.722234 51:-1 52:-0.904961 53:-0.613083 54:-0.426567 55:-1 56:-0.350226 57:-0.58484 58:-1 59:-0.683807 60:-0.872374 61:-1 
0.9588015570454413 1:-0.562189 2:-0.218863 3:0.0757953 4:0.284727 5:-0.825397 6:0.319439 7:-0.500001 8:-0.926349 9:-0.865608 10:-0.767197 11:-0.20635 12:-0.390479 13:-0.608466 14:-1 15:-0.756614 16:-1 17:-1 18:-1 19:-1 20:-1 21:-1 22:-1 23:-0.111112 24:-1 28:-1 30:-0.591201 31:-0.388167 32:-0.448208 33:-0.388167 34:-0.387533 35:-0.448208 36:-0.591201 37:-0.388167 38:-0.448208 39:-0.388167 40:-0.387533 41:-0.448208 42:-0.219338 43:-0.331461 44:-0.280978 45:-0.356412 46:-0.524022 47:-0.627207 48:-0.59281 49:-0.822943 50:-0.755001 51:-1 52:0.0206825 53:-0.0152439 54:0.117773 55:0.194603 56:-0.181153 57:0.0961147 58:-0.053693 59:-0.207341 60:-0.806937 61:-1 
1 1:-0.383085 2:0.100432 3:0.00353489 4:0.148656 5:-1 6:0.511392 7:-0.827161 8:-0.885432 9:-0.790946 10:-0.63786 11:-0.794238 12:-0.762963 13:-0.238682 14:-0.25926 15:-1 16:-1 17:-0.748148 18:-1 19:-1 20:-1 21:-1 22:-1 23:-1 24:-1 28:-1 30:-0.240731 31:0.563997 32:-0.0187099 33:0.563997 34:-0.381021 35:-0.0187099 36:-0.240731 37:0.563997 38:-0.0187099 39:0.563997 40:-0.381021 41:-0.0187099 42:0.186839 43:0.116291 44:-0.221533 45:0.125751 46:0.199828 47:0.311824 48:0.114839 49:0.21089 50:-0.644544 51:-0.717264 52:0.200433 53:0.0196639 54:0.0296164 55:-0.0182196 56:-0.249239 57:-0.357721 58:-0.479883 59:-0.219334 60:-0.742027 61:-0.797716 
1 1:-0.960199 2:0.636418 3:-0.338166 4:0.0181384 5:-0.521738 6:0.507954 7:-0.847826 8:-0.79826 9:-1 10:-0.36232 11:-1 12:-0.165219 13:-1 14:-1 15:-0.333334 16:-1 17:-1 18:-1 19:-1 20:-1 21:-1 22:-1 23:-1 24:-1 28:-1 30:-0.705763 31:-0.0540153 32:0.106179 33:-0.0540153 34:-0.8242 35:0.106179 36:-0.705763 37:-0.0540153 38:0.106179 39:-0.0540153 40:-0.8242 41:0.106179 42:-0.891811 43:-0.881964 44:-0.577829 45:-1 46:-0.615951 47:-0.808221 48:-1 49:-0.663078 50:-1 51:-1 52:-0.930838 53:-0.712881 54:-0.546239 55:-1 56:-0.443 57:-0.446064 58:-1 59:-0.501128 60:-1 61:-1 
1 1:-0.621891 2:-0.214359 3:-0.509758 4:-0.580765 5:-1 6:0.503071 7:-0.570176 8:-0.755789 9:-0.554385 10:-0.74269 11:-1 12:-0.663158 13:-1 14:-1 15:-1 16:-1 17:-1 18:-1 19:-1 20:-1 21:-1 22:-1 23:-1 24:-1 28:-1 30:-0.464756 31:-0.364154 32:-0.450763 33:-0.364154 34:-0.424051 35:-0.450763 36:-0.464756 37:-0.364154 38:-0.450763 39:-0.364154 40:-0.424051 41:-0.450763 42:0.124211 43:-0.21578 44:-0.347615 45:-0.294803 46:-0.096422 47:-0.754154 48:-0.420087 49:-0.683695 50:-0.788275 51:-1 52:0.0286115 53:-0.153442 54:-0.80499 55:0.04201 56:0.031513 57:0.0631132 58:-0.0506632 59:-0.0452465 60:-0.52325 61:-1 
1 1:-0.99005 2:0.614474 3:-0.352645 4:0.129764 5:-0.449999 6:0.637855 7:-0.825 8:-1 9:-1 10:-1 11:-1 12:-1 13:-1 14:-1 15:0.533331 16:-1 17:-1 18:-1 19:-1 20:-1 21:-1 22:-1 23:-1 24:-1 28:-1 30:-0.648889 31:-0.0312453 32:0.108203 33:-0.0312453 34:-0.961545 35:0.108203 36:-0.648889 37:-0.0312453 38:0.108203 39:-0.0312453 40:-0.961545 41:0.108203 42:-0.911199 43:-0.824849 44:-0.458266 45:-1 46:-0.75395 47:-0.747656 48:-1 49:-0.801313 50:-0.924391 51:-1 52:-0.903082 53:-0.982709 54:-0.670147 55:-1 56:-0.89209 57:-0.645994 58:-1 59:-0.781546 60:-0.73946 61:-1 
1 1:-0.830846 2:0.646455 3:-0.321256 4:0.0768738 5:-0.694444 6:0.531151 7:-0.708334 8:-1 9:-0.764814 10:-1 11:-0.537037 12:-0.466668 13:-0.657407 14:-1 15:-1 16:-1 17:-1 18:-0.236111 19:-1 20:-1 21:-1 22:-1 23:-1 24:-1 28:-1 30:-0.6269 31:0.143599 32:-0.0144505 33:0.143599 34:-0.915586 35:-0.0144505 36:-0.6269 37:0.143599 38:-0.0144505 39:0.143599 40:-0.915586 41:-0.0144505 42:-0.580559 43:-0.447418 44:-0.35217 45:-1 46:-0.16687 47:-0.193989 48:-0.728553 49:-0.114226 50:-1 51:-1 52:-0.833854 53:-0.868157 54:-0.630314 55:-1 56:-0.434973 57:-0.718783 58:-0.97382 59:-0.950954 60:-1 61:-1 
1 1:-0.631841 2:-0.203518 3:-0.37265 4:-0.269904 5:-0.803572 6:0.416827 7:-0.437501 8:-0.917143 9:-0.395237 10:-1 11:-1 12:-1 13:-1 14:-0.642858 15:-1 16:-0.63393 17:-1 18:-1 19:-1 20:-1 21:-1 22:-1 23:-1 24:-1 28:-1 30:-0.428 31:-0.328807 32:-0.448823 33:-0.328807 34:-0.45741 35:-0.448823 36:-0.428 37:-0.328807 38:-0.448823 39:-0.328807 40:-0.45741 41:-0.448823 42:0.0119301 43:-0.190462 44:-0.919199 45:-0.284959 46:-0.288631 47:-0.604402 48:-0.571239 49:-0.657575 50:-0.856818 51:-1 52:-0.0659617 53:-0.204973 54:-0.672326 55:-0.00410777 56:0.145433 57:0.0139395 58:0.0951204 59:-0.11594 60:-0.994973 61:-1 
1 1:-0.940299 2:0.623805 3:-0.632139 4:-0.21468 5:-1 6:0.80858 7:-0.86 8:-1 9:-1 10:-1 11:-1 12:-0.232002 13:-1 14:-0.2 15:-1 16:-1 17:-1 18:-1 19:-1 20:-1 21:-1 22:-1 23:-1 24:-1 28:-1 30:-0.672082 31:-0.0616549 32:0.0505781 33:-0.0616549 34:-0.87819 35:0.0505781 36:-0.672082 37:-0.0616549 38:0.0505781 39:-0.0616549 40:-0.87819 41:0.0505781 42:-0.810634 43:-0.867502 44:-0.42366 45:-1 46:-0.361707 47:-0.583173 48:-1 49:-0.947539 50:-1 51:-1 52:-0.981067 53:-0.865699 54:-0.568025 55:-1 56:-0.361644 57:-0.568435 58:-1 59:-0.340501 60:-1 61:-1 
1 1:-0.830846 2:0.642804 3:-0.206443 4:0.161357 5:-1 6:0.649712 7:-0.902778 8:-0.871111 9:-1 10:-0.592593 11:-1 12:-1 13:-0.314814 14:-0.444444 15:-1 16:-1 17:-0.433333 18:-1 19:-1 20:-1 21:-1 22:-1 23:-1 24:-1 28:-1 30:-0.619592 31:0.241853 32:-0.00157975 33:0.241853 34:-0.859146 35:-0.00157975 36:-0.619592 37:0.241853 38:-0.00157975 39:0.241853 40:-0.859146 41:-0.00157975 42:-0.560076 43:-0.369517 44:-0.215147 45:-1 46:-0.21946 47:-0.253158 48:-1 49:-0.562809 50:-0.725733 51:-1 52:-0.861444 53:-0.689294 54:-0.368307 55:-1 56:-0.269722 57:-0.672302 58:-1 59:-0.682943 60:-0.967857 61:-1 
1 1:-0.970149 2:0.623748 3:-0.592102 4:-0.0853319 5:-1 6:0.773658 7:-0.840909 8:-1 9:-1 10:-0.333336 11:-1 12:-1 13:-1 14:-1 15:-0.303032 16:-1 17:-1 18:-1 19:-1 20:-1 21:-1 22:-1 23:-1 24:-1 28:-1 30:-0.741784 31:-0.0674555 32:0.073263 33:-0.0674555 34:-0.808201 35:0.073263 36:-0.741784 37:-0.0674555 38:0.073263 39:-0.0674555 40:-0.808201 41:0.073263 42:-0.853475 43:-0.934048 44:-0.663443 45:-1 46:-0.532353 47:-0.767285 48:-1 49:-0.881538 50:-1 51:-1 52:-0.987683 53:-0.809957 54:-0.498931 55:-1 56:-0.448345 57:-0.422248 58:-1 59:-0.410468 60:-1 61:-1 
1 1:-0.631841 2:-0.227949 3:-0.582727 4:-0.660707 5:-0.803572 6:0.569259 7:-0.6875 8:-0.668571 9:-0.84881 10:-0.738097 11:-0.702382 12:-1 13:-1 14:-1 15:-1 16:-1 17:-1 18:-1 19:-1 20:-1 21:-1 22:-1 23:-1 24:-1 28:-1 30:-0.424895 31:-0.346845 32:0.0787418 33:-0.346845 34:-0.507263 35:0.0787418 36:-0.424895 37:-0.346845 38:0.0787418 39:-0.346845 40:-0.507263 41:0.0787418 42:0.0329184 43:-0.159987 44:-0.289692 45:-0.196694 46:-0.450599 47:-0.628826 48:-0.413813 49:-0.488171 50:-0.900761 51:-1 52:-0.108582 53:-0.246417 54:-0.678411 55:-0.0479912 56:-0.0360889 57:0.0463372 58:0.15452 59:-0.171445 60:-0.578801 61:-1 
1 1:-0.950249 2:0.64252 3:-0.369955 4:0.127249 5:-1 6:0.79791 7:-1 8:-1 9:-0.647221 10:-1 11:-1 12:-1 13:-1 14:-1 15:0.277775 16:-1 17:-1 18:-1 19:-1 20:-1 21:-1 22:-1 23:-1 24:-1 28:-1 30:-0.699037 31:-0.0608034 32:0.0866157 33:-0.0608034 34:-0.854193 35:0.0866157 36:-0.699037 37:-0.0608034 38:0.0866157 39:-0.0608034 40:-0.854193 41:0.0866157 42:-0.897321 43:-0.887465 44:-0.556125 45:-1 46:-0.567343 47:-0.762966 48:-1 49:-0.630911 50:-1 51:-1 52:-0.934922 53:-0.850889 54:-0.539895 55:-1 56:-0.455178 57:-0.439066 58:-1 59:-0.523963 60:-1 61:-1 
1 1:-0.442786 2:0.0951122 3:-0.347408 4:-0.139825 5:-1 6:0.524039 7:-0.626666 8:-0.690666 9:-0.887111 10:-1 11:-1 12:-0.744001 13:-1 14:-0.2 15:-1 16:-0.726667 17:-1 18:-1 19:-1 20:-1 21:-1 22:-1 23:-1 24:-1 28:-1 30:-0.331609 31:0.620896 32:-0.0116506 33:0.620896 34:-0.22153 35:-0.0116506 36:-0.331609 37:0.620896 38:-0.0116506 39:0.620896 40:-0.22153 41:-0.0116506 42:0.0410393 43:-0.0434236 44:-0.531401 45:0.0312758 46:0.130226 47:0.116706 48:0.210127 49:0.136796 50:-0.746449 51:-1 52:0.328611 53:0.188839 54:-0.705747 55:0.343823 56:-0.190841 57:-0.242287 58:-0.227513 59:-0.086817 60:-0.7958 61:-1 
1 1:-0.960199 2:0.623027 3:-0.352915 4:0.1725 5:-1 6:0.786311 7:-0.847826 8:-1 9:-1 10:-1 11:-1 12:-1 13:-1 14:-1 15:-0.333334 16:-0.108695 17:-1 18:-1 19:-1 20:-1 21:-1 22:-1 23:-1 24:-1 28:-1 30:-0.738432 31:-0.060468 32:0.044802 33:-0.060468 34:-0.858067 35:0.044802 36:-0.738432 37:-0.060468 38:0.044802 39:-0.060468 40:-0.858067 41:0.044802 42:-0.964069 43:-0.826198 44:-0.535764 45:-1 46:-0.594999 47:-0.709297 48:-1 49:-0.832395 50:-1 51:-1 52:-0.897373 53:-0.907947 54:-0.517619 55:-1 56:-0.382876 57:-0.421409 58:-1 59:-0.390136 60:-1 61:-1 
1 1:-0.542289 2:-0.227409 3:-0.528322 4:-0.572526 5:-1 6:0.473696 7:-0.407692 8:-0.857231 9:-0.60923 10:-1 11:-0.74359 12:-1 13:-0.810256 14:-1 15:-1 16:-1 17:-1 18:-1 19:-1 20:-1 21:-1 22:-1 23:-1 24:-1 28:-1 30:-0.350846 31:-0.298564 32:0.0654543 33:-0.298564 34:-0.580837 35:0.0654543 36:-0.350846 37:-0.298564 38:0.0654543 39:-0.298564 40:-0.580837 41:0.0654543 42:0.200419 43:-0.115046 44:-0.224645 45:-0.135387 46:-0.333567 47:-0.393342 48:-0.207277 49:-0.461502 50:-0.858493 51:-1 52:-0.215144 53:-0.329245 54:-0.658683 55:-0.149062 56:-0.0500105 57:0.0383187 58:0.167152 59:0.0157723 60:-0.571271 61:-1 
1 1:-0.422886 2:0.104884 3:-0.155983 4:0.0732428 5:-0.857143 6:0.538081 7:-0.863637 8:-0.819221 9:-0.67013 10:-0.619049 11:-1 12:-0.75065 13:-0.839827 14:-0.22078 15:-0.800866 16:-1 17:-0.735065 18:-1 19:-1 20:-1 21:-1 22:-1 23:-1 24:-1 28:-1 30:-0.325513 31:0.639862 32:0.028705 33:0.639862 34:-0.240015 35:0.028705 36:-0.325513 37:0.639862 38:0.028705 39:0.639862 40:-0.240015 41:0.028705 42:0.0551522 43:-0.0767296 44:-0.0559609 45:0.0882389 46:-0.539905 47:0.126694 48:0.210711 49:0.140634 50:-0.752982 51:-1 52:0.375589 53:0.162222 54:0.412833 55:0.0365984 56:-0.810371 57:-0.264517 58:-0.210769 59:-0.108836 60:-0.841108 61:-1 
1 1:-0.950249 2:0.617378 3:-0.793871 4:-0.657472 5:-1 6:0.79791 7:-0.854167 8:-1 9:-0.647221 10:-0.38889 11:-1 12:-1 13:-1 14:-1 15:-1 16:-1 17:-1 18:-1 19:-1 20:-1 21:-1 22:-1 23:-1 24:-1 28:-1 30:-0.652039 31:0.0934695 32:0.0442231 33:0.0934695 34:-0.929432 35:0.0442231 36:-0.652039 37:0.0934695 38:0.0442231 39:0.0934695 40:-0.929432 41:0.0442231 42:-0.886698 43:-0.778549 44:-0.204581 45:-1 46:-0.541968 47:-0.516589 48:-1 49:-0.683094 50:-1 51:-1 52:-0.961813 53:-0.996592 54:-0.614143 55:-1 56:-0.478798 57:-0.655201 58:-1 59:-0.553486 60:-1 61:-1 
1 1:-0.472637 2:0.0998865 3:-0.499509 4:-0.332544 5:-1 6:0.590432 7:-0.659723 8:-0.806666 9:-0.882407 10:-0.38889 11:-1 12:-1 13:-0.828703 14:-1 15:-1 16:-0.715278 17:-1 18:-1 19:-1 20:-1 21:-1 22:-1 23:-1 24:-1 28:-1 30:-0.456244 31:0.622922 32:-0.421954 33:0.622922 34:-0.0634462 35:-0.421954 36:-0.456244 37:0.622922 38:-0.421954 39:0.622922 40:-0.0634462 41:-0.421954 42:-0.00240617 43:-0.211186 44:-0.233349 45:-0.296309 46:-0.0546921 47:-0.0485774 48:0.0301638 49:-0.045726 50:-0.702281 51:-0.848039 52:0.520472 53:0.369332 54:0.419574 55:-0.0741663 56:-0.0299353 57:-0.041907 58:-0.00802923 59:0.154573 60:-0.827285 61:-0.724445 
1 1:-0.60199 2:-0.231858 3:-0.149428 4:0.0828 5:-0.813559 6:0.377426 7:-0.406778 8:-0.921356 9:-0.712994 10:-1 11:-1 12:-1 13:-0.581921 14:-0.661016 15:-0.740113 16:-1 17:-1 18:-0.533897 19:-1 20:-1 21:-1 22:-1 23:-1 24:-1 28:-1 30:-0.372911 31:-0.344921 32:-0.440766 33:-0.344921 34:-0.531278 35:-0.440766 36:-0.372911 37:-0.344921 38:-0.440766 39:-0.344921 40:-0.531278 41:-0.440766 42:0.0611574 43:-0.106584 44:-0.767219 45:-0.217595 46:-0.472737 47:-0.521752 48:-0.392196 49:-0.893622 50:-0.827059 51:-1 52:-0.165375 53:-0.321035 54:-0.524734 55:0.00436782 56:-0.141317 57:-0.0302985 58:0.110725 59:-0.281684 60:-0.987465 61:-1 
1 1:-0.263682 2:-0.509751 3:-0.516431 4:-0.520427 5:-1 6:0.353313 7:-0.0215057 8:-0.900215 9:-0.90896 10:-1 11:-1 12:-1 13:-0.867383 14:-1 15:-0.835126 16:-1 17:-1 18:-1 19:-1 20:-1 21:-1 22:-1 23:-1 24:-1 28:-1 30:0.151762 31:0.0206796 32:-0.192719 33:0.0206796 34:-0.702381 35:-0.192719 36:0.151762 37:0.0206796 38:-0.192719 39:0.0206796 40:-0.702381 41:-0.192719 42:0.46156 43:0.403196 44:0.433144 45:0.436777 46:0.292521 47:0.359914 48:0.402238 49:0.127634 50:-0.552493 51:-1 52:-0.0857549 53:-0.21314 54:-0.199375 55:-0.251326 56:-0.383019 57:-0.362707 58:-0.337751 59:-0.30434 60:-0.685441 61:-1 
1 1:-0.970149 2:0.618562 3:-0.275597 4:-0.0221996 5:-1 6:0.48265 7:-0.522726 8:-1 9:-0.615151 10:-1 11:-1 12:-0.127276 13:-1 14:-1 15:-0.303032 16:-1 17:-1 18:-1 19:-1 20:-1 21:-1 22:-1 23:-1 24:-1 28:-1 30:-0.688864 31:0.0991904 32:0.0196462 33:0.0991904 34:-0.940222 35:0.0196462 36:-0.688864 37:0.0991904 38:0.0196462 39:0.0991904 40:-0.940222 41:0.0196462 42:-1 43:-0.504275 44:-0.269095 45:-1 46:-0.53821 47:-0.628954 48:-1 49:-0.474214 50:-1 51:-1 52:-1 53:-0.907355 54:-0.624191 55:-1 56:-0.552316 57:-0.623956 58:-1 59:-0.722918 60:-1 61:-1 
1 1:-0.60199 2:-0.231134 3:-0.523211 4:-0.560968 5:-1 6:0.485939 7:-0.466103 8:-0.921356 9:-0.56949 10:-0.751412 11:-0.717513 12:-0.674576 13:-1 14:-1 15:-1 16:-1 17:-1 18:-1 19:-1 20:-1 21:-1 22:-1 23:-1 24:-1 28:-1 30:-0.375745 31:-0.366189 32:-0.423942 33:-0.366189 34:-0.545766 35:-0.423942 36:-0.375745 37:-0.366189 38:-0.423942 39:-0.366189 40:-0.545766 41:-0.423942 42:0.19933 43:-0.0917553 44:-0.624228 45:-0.210544 46:-0.290098 47:-0.482074 48:-0.395729 49:-0.47928 50:-0.865782 51:-0.791825 52:-0.21384 53:-0.285215 54:-0.671975 55:-0.0561749 56:-0.0909026 57:-0.0400959 58:0.0545189 59:-0.190228 60:-0.604781 61:-0.752747 
0.08330922503358955 1:-0.263682 2:-0.319182 3:0.194941 4:0.43063 5:-0.88172 6:0.169736 7:-0.322583 8:-0.850322 9:-0.726881 10:-0.684588 11:-0.103943 12:-0.587098 13:-0.867383 14:-1 15:-1 16:-0.77957 17:-1 18:-1 19:-1 20:-0.526881 21:-1 22:-1 23:0.204302 24:-1 28:-1 30:-0.311307 31:-0.464876 32:-0.442113 33:-0.464876 34:-0.462512 35:-0.442113 36:-0.311307 37:-0.464876 38:-0.442113 39:-0.464876 40:-0.462512 41:-0.442113 42:0.223691 43:0.0623505 44:0.0277652 45:0.00643459 46:-0.385162 47:-0.271511 48:-0.0892203 49:-0.398225 50:-0.625306 51:-0.951493 52:-0.124663 53:-0.0280371 54:0.0899214 55:0.0615564 56:-0.260044 57:0.0568623 58:0.282732 59:-0.295389 60:-0.560239 61:-0.978059 
1 1:-0.482587 2:-0.430501 3:-0.426856 4:-0.168176 5:-1 6:0.734037 7:-0.852113 8:-0.869296 9:-0.880751 10:-1 11:-0.765258 12:-0.729578 13:-0.826291 14:-1 15:-0.784038 16:-0.711268 17:-1 18:-1 19:-1 20:-1 21:-1 22:-1 23:-1 24:-1 28:-1 30:-0.188319 31:-0.0553456 32:0.310955 33:-0.0553456 34:-0.514277 35:0.310955 36:-0.188319 37:-0.0553456 38:0.310955 39:-0.0553456 40:-0.514277 41:0.310955 42:-0.225439 43:-0.490744 44:-0.406661 45:-0.321538 46:-0.365419 47:-0.545383 48:-0.189833 49:-0.54695 50:-0.79947 51:-0.611051 52:-0.331773 53:-0.261886 54:0.0611552 55:-0.262743 56:0.0631695 57:0.0133052 58:0.239533 59:-0.255639 60:-0.582132 61:-0.735918 
1 1:-0.960199 2:0.639332 3:-0.650521 4:-0.489431 5:-1 6:0.507954 7:-0.391305 8:-0.79826 9:-1 10:-1 11:-1 12:-0.165219 13:-1 14:-1 15:-1 16:-1 17:-1 18:-1 19:-1 20:-1 21:-1 22:-1 23:-1 24:-1 28:-1 30:-0.743692 31:-0.0777668 32:0.0359047 33:-0.0777668 34:-0.857129 35:0.0359047 36:-0.743692 37:-0.0777668 38:0.0359047 39:-0.0777668 40:-0.857129 41:0.0359047 42:-0.877167 43:-0.738738 44:-0.524754 45:-1 46:-0.659528 47:-0.636538 48:-1 49:-0.680194 50:-1 51:-1 52:-0.946644 53:-0.98632 54:-0.564865 55:-1 56:-0.444628 57:-0.469973 58:-1 59:-0.491858 60:-1 61:-1 
1 1:-0.60199 2:-0.221036 3:-0.490439 4:-0.354695 5:-1 6:0.63062 7:-0.644068 8:-0.921356 9:-0.56949 10:-0.751412 11:-1 12:-1 13:-1 14:-1 15:-1 16:-1 17:-0.654236 18:-1 19:-1 20:-1 21:-1 22:-1 23:-1 24:-1 28:-1 30:-0.479684 31:-0.320222 32:0.0983204 33:-0.320222 34:-0.418106 35:0.0983204 36:-0.479684 37:-0.320222 38:0.0983204 39:-0.320222 40:-0.418106 41:0.0983204 42:0.0196611 43:-0.248266 44:-0.280731 45:-0.361211 46:-0.560762 47:-0.65537 48:-0.557863 49:-0.574628 50:-0.791091 51:-0.797264 52:0.0915084 53:-0.115537 54:-0.58258 55:0.10587 56:0.0123229 57:0.0623904 58:0.191272 59:-0.0367455 60:-0.457399 61:-0.827411 
1 1:-0.502488 2:-0.432924 3:-0.20493 4:-0.20823 5:-1 6:-0.0796875 7:0.471014 8:-0.79826 9:-0.631883 10:-1 11:-1 12:-1 13:-1 14:-1 15:-1 16:-0.702898 17:-1 18:-0.601448 19:-1 20:-1 21:-1 22:-1 23:-1 24:-1 28:-1 30:-0.622767 31:0.0220424 32:0.182235 33:0.0220424 34:-0.453859 35:0.182235 36:-0.622767 37:0.0220424 38:0.182235 39:0.0220424 40:-0.453859 41:0.182235 42:-0.81121 43:-0.371085 44:-0.2422 45:-0.641944 46:-0.869723 47:-0.907637 48:-0.824095 49:-0.635744 50:-0.518168 51:-1 52:0.234474 53:-0.0300636 54:0.156809 55:-0.328165 56:-0.336691 57:-0.568552 58:-0.350678 59:-0.287195 60:-0.671658 61:-1 
1 1:-0.99005 2:0.64761 3:-0.269751 4:0.00323981 5:-1 6:0.424448 7:-0.65 8:-0.535999 9:-1 10:-0.266669 11:-1 12:-1 13:-1 14:-1 15:-1 16:0.0249997 17:-1 18:-1 19:-1 20:-1 21:-1 22:-1 23:-1 24:-1 28:-1 30:-0.672681 31:-0.0558395 32:0.135012 33:-0.0558395 34:-0.912008 35:0.135012 36:-0.672681 37:-0.0558395 38:0.135012 39:-0.0558395 40:-0.912008 41:0.135012 42:-0.868599 43:-0.896084 44:-0.490798 45:-1 46:-0.646737 47:-0.79334 48:-1 49:-0.750187 50:-0.784206 51:-1 52:-0.945066 53:-0.721381 54:-0.586114 55:-1 56:-0.807768 57:-0.778159 58:-1 59:-0.63233 60:-0.857815 61:-1 
1 1:-0.950249 2:0.626895 3:-0.108888 4:0.422452 5:-1 6:0.620072 7:-0.708334 8:-1 9:-1 10:-1 11:-1 12:-1 13:-1 14:-0.166666 15:-1 16:-0.145833 17:-0.149999 18:-1 19:-1 20:-1 21:-1 22:-1 23:-1 24:-1 28:-1 30:-0.744122 31:-0.0551897 32:0.0561636 33:-0.0551897 34:-0.835432 35:0.0561636 36:-0.744122 37:-0.0551897 38:0.0561636 39:-0.0551897 40:-0.835432 41:0.0561636 42:-0.896988 43:-0.841901 44:-0.587471 45:-1 46:-0.592074 47:-0.756631 48:-1 49:-0.697774 50:-1 51:-1 52:-0.936474 53:-0.908879 54:-0.570128 55:-1 56:-0.396087 57:-0.389155 58:-1 59:-0.490809 60:-1 61:-1 
1 1:-0.711443 2:-0.692603 3:-0.641015 4:-0.398182 5:-1 6:0.79791 7:-0.78125 8:-0.903333 9:-1 10:-1 11:-1 12:-0.600002 13:-1 14:-1 15:-0.680557 16:-1 17:-1 18:-1 19:-1 20:-1 21:-1 22:-1 23:-1 24:-1 28:-1 30:-0.822272 31:0.00854162 32:-0.0800527 33:0.00854162 34:-0.860518 35:-0.0800527 36:-0.822272 37:0.00854162 38:-0.0800527 39:0.00854162 40:-0.860518 41:-0.0800527 42:-0.356095 43:-0.424502 44:-0.654258 45:-0.697262 46:-0.845641 47:-0.792952 48:-0.97426 49:-0.399551 50:-0.794844 51:-1 52:-0.808248 53:-0.747175 54:-0.472193 55:-0.382824 56:-0.436328 57:-0.314016 58:-0.57242 59:-0.569001 60:-0.631168 61:-1 
1 1:-0.343284 2:-0.194595 3:-0.28894 4:-0.0913315 5:-1 6:0.437001 7:-0.423529 8:-0.945412 9:-0.800784 10:-0.309806 11:-1 12:-1 13:-0.854902 14:-1 15:-1 16:-0.517647 17:-0.76 18:-1 19:-1 20:-1 21:-1 22:-1 23:-1 24:-1 28:-1 30:-0.103054 31:0.494842 32:-0.0443372 33:0.494842 34:-0.452332 35:-0.0443372 36:-0.103054 37:0.494842 38:-0.0443372 39:0.494842 40:-0.452332 41:-0.0443372 42:0.298272 43:0.244049 44:0.297755 45:0.290703 46:0.40184 47:0.590677 48:0.550087 49:-0.281668 50:-0.186183 51:-1 52:0.034372 53:-0.146381 54:-0.0164862 55:-0.15842 56:-0.300626 57:-0.525178 58:-0.474255 59:-0.574191 60:-0.843153 61:-1 
1 1:-0.830846 2:0.65714 3:-0.445806 4:-0.0250036 5:-1 6:0.76827 7:-0.902778 8:-1 9:-1 10:-1 11:-0.0740733 12:-1 13:-0.657407 14:-1 15:-1 16:-0.430555 17:-1 18:-1 19:-1 20:-1 21:-1 22:-1 23:-1 24:-1 28:-1 30:-0.609223 31:0.241604 32:0.00668764 33:0.241604 34:-0.855408 35:0.00668764 36:-0.609223 37:0.241604 38:0.00668764 39:0.241604 40:-0.855408 41:0.00668764 42:-0.56687 43:-0.332842 44:-0.202832 45:-1 46:-0.212075 47:-0.250663 48:-1 49:-0.550023 50:-0.674542 51:-1 52:-0.852285 53:-0.714226 54:-0.403071 55:-1 56:-0.284791 57:-0.700196 58:-1 59:-0.68497 60:-0.95423 61:-1 
1 1:-0.641791 2:-0.232819 3:-0.466192 4:-0.412733 5:-0.6 6:0.443849 7:-0.554545 8:-0.831273 9:-0.692121 10:-0.733334 11:-1 12:-1 13:-0.551515 14:-1 15:-1 16:-1 17:-1 18:-1 19:-1 20:-1 21:-1 22:-1 23:-1 24:-1 28:-1 30:-0.414233 31:-0.345989 32:-0.451848 33:-0.345989 34:-0.509205 35:-0.451848 36:-0.414233 37:-0.345989 38:-0.451848 39:-0.345989 40:-0.509205 41:-0.451848 42:0.0662763 43:-0.134538 44:-0.312288 45:-0.260874 46:-0.329837 47:-0.548086 48:-0.571919 49:-0.608432 50:-0.860366 51:-1 52:-0.0651903 53:-0.246719 54:-0.636686 55:-0.00824031 56:-0.0459559 57:0.0416993 58:0.152006 59:-0.61251 60:-0.517741 61:-1 
1 1:-0.412935 2:0.10902 3:-0.007792 4:0.172179 5:-0.858974 6:0.490111 7:-0.865385 8:-0.881026 9:-0.565811 10:-0.623933 11:-1 12:-1 13:-0.683761 14:0.538462 15:-1 16:-1 17:-0.738462 18:-1 19:-1 20:-1 21:-1 22:-1 23:-1 24:-1 28:-1 30:-0.152389 31:0.550043 32:-0.0521661 33:0.550043 34:-0.406962 35:-0.0521661 36:-0.152389 37:0.550043 38:-0.0521661 39:0.550043 40:-0.406962 41:-0.0521661 42:0.285113 43:0.206573 44:-0.513764 45:0.138161 46:0.244701 47:0.257245 48:0.363098 49:0.276894 50:-0.648724 51:-0.822738 52:0.0722353 53:-0.116689 54:-0.239634 55:0.0884144 56:-0.0221742 57:-0.341053 58:-0.546472 59:-0.380916 60:-0.631736 61:-0.974213 
1 1:-0.452736 2:-0.265499 3:-0.314982 4:-0.36862 5:-0.851351 6:0.0553116 7:0.229728 8:-1 9:-0.771171 10:-0.405408 11:-0.774775 12:-0.740542 13:-1 14:-1 15:-1 16:-0.722973 17:-1 18:-1 19:-1 20:-1 21:-1 22:-1 23:-1 24:-1 28:-1 30:-0.690941 31:0.340994 32:0.00130719 33:0.340994 34:-0.296942 35:0.00130719 36:-0.690941 37:0.340994 38:0.00130719 39:0.340994 40:-0.296942 41:0.00130719 42:-0.346032 43:-0.410503 44:-0.498627 45:-0.206506 46:-0.597461 47:-0.145319 48:-0.177293 49:-0.603109 50:-0.470666 51:-1 52:0.249003 53:0.0792247 54:0.225081 55:0.215628 56:-0.307946 57:-0.354505 58:-0.174667 59:-0.708663 60:-0.618114 61:-1 
1 1:-0.960199 2:0.619574 3:-0.247196 4:0.234832 5:-1 6:0.600741 7:-0.695652 8:-1 9:-1 10:-0.36232 11:-1 12:-1 13:-1 14:-1 15:-1 16:0.782608 17:-1 18:-1 19:-1 20:-1 21:-1 22:-1 23:-1 24:-1 28:-1 30:-0.7539 31:-0.0603924 32:0.0430255 33:-0.0603924 34:-0.874061 35:0.0430255 36:-0.7539 37:-0.0603924 38:0.0430255 39:-0.0603924 40:-0.874061 41:0.0430255 42:-0.915029 43:-0.851069 44:-0.550911 45:-1 46:-0.567045 47:-0.806773 48:-1 49:-0.74561 50:-1 51:-1 52:-0.918784 53:-0.902921 54:-0.515359 55:-1 56:-0.461448 57:-0.43322 58:-1 59:-0.454968 60:-1 61:-1 
1 1:-0.960199 2:0.631675 3:-0.419444 4:-0.0776881 5:-0.521738 6:0.415169 7:-0.543478 8:-0.79826 9:-1 10:-0.36232 11:-1 12:-1 13:-1 14:-1 15:-1 16:-0.108695 17:-1 18:-1 19:-1 20:-1 21:-1 22:-1 23:-1 24:-1 28:-1 30:-0.758122 31:-0.0750137 32:0.0171429 33:-0.0750137 34:-0.828763 35:0.0171429 36:-0.758122 37:-0.0750137 38:0.0171429 39:-0.0750137 40:-0.828763 41:0.0171429 42:-0.893178 43:-1 44:-0.32228 45:-1 46:-0.691717 47:-0.78846 48:-1 49:-0.757136 50:-1 51:-1 52:-0.912927 53:-1 54:-0.533069 55:-1 56:-0.385727 57:-0.428687 58:-1 59:-0.417953 60:-1 61:-1 
1 1:-0.960199 2:0.630128 3:-0.305439 4:0.00095939 5:-1 6:0.693526 7:-1 8:-0.79826 9:-1 10:-0.36232 11:-0.275362 12:-1 13:-1 14:-1 15:-1 16:-0.108695 17:-1 18:-1 19:-1 20:-1 21:-1 22:-1 23:-1 24:-1 28:-1 30:-0.781061 31:-0.0548141 32:0.0277754 33:-0.0548141 34:-0.838699 35:0.0277754 36:-0.781061 37:-0.0548141 38:0.0277754 39:-0.0548141 40:-0.838699 41:0.0277754 42:-0.916846 43:-1 44:-0.484454 45:-1 46:-0.659174 47:-0.738217 48:-1 49:-0.808418 50:-0.73824 51:-1 52:-0.916674 53:-1 54:-0.603712 55:-1 56:-0.395608 57:-0.426593 58:-1 59:-0.407172 60:-0.757823 61:-1 
1 1:-0.721393 2:-0.250349 3:-0.214805 4:-0.104578 5:-1 6:0.474394 7:-0.55319 8:-0.802553 9:-0.639716 10:-1 11:-1 12:-1 13:-1 14:-0.574468 15:-0.347519 16:-1 17:-1 18:-1 19:-1 20:-1 21:-1 22:-1 23:-1 24:-1 28:-1 30:-0.509478 31:-0.399181 32:-0.438198 33:-0.399181 34:-0.376827 35:-0.438198 36:-0.509478 37:-0.399181 38:-0.438198 39:-0.399181 40:-0.376827 41:-0.438198 42:-0.0107635 43:-0.274659 44:-0.910619 45:-0.382113 46:-0.419278 47:-0.751218 48:-0.680551 49:-0.730767 50:-0.792135 51:-1 52:-0.232574 53:-0.0990245 54:-0.6621 55:0.151911 56:0.00356831 57:0.0496857 58:0.126092 59:-0.52524 60:-0.96333 61:-1 
0.02754975853123143 1:-0.661692 2:0.677108 3:-0.635131 4:-0.250266 5:-1 6:0.662015 7:-0.603772 8:-0.912453 9:-0.840251 10:-1 11:-1 12:-1 13:-1 14:-1 15:-0.710693 16:-0.613208 17:-1 18:-1 19:-1 20:-1 21:-1 22:-1 23:-1 24:-1 28:-1 30:-0.72169 31:0.27383 32:-0.477995 33:0.27383 34:0.199516 35:-0.477995 36:-0.72169 37:0.27383 38:-0.477995 39:0.27383 40:0.199516 41:-0.477995 42:-0.699916 43:-0.717494 44:-0.539411 45:-1 46:-0.518365 47:-0.364874 48:-0.315837 49:-1 50:-0.43003 51:-1 52:0.562717 53:0.323042 54:0.766226 55:-1 56:0.52749 57:0.16714 58:0.198775 59:-1 60:-0.567057 61:-1 
1 1:-0.61194 2:-0.22708 3:-0.41819 4:-0.395368 5:-1 6:0.549549 7:-0.637932 8:-0.76 9:-0.708045 10:-0.747127 11:-1 12:-0.668966 13:-1 14:-1 15:-0.735632 16:-1 17:-1 18:-1 19:-1 20:-1 21:-1 22:-1 23:-1 24:-1 28:-1 30:-0.441189 31:-0.34927 32:0.0699638 33:-0.34927 34:-0.485855 35:0.0699638 36:-0.441189 37:-0.34927 38:0.0699638 39:-0.34927 40:-0.485855 41:0.0699638 42:0.0145495 43:-0.18187 44:-0.268308 45:-0.254861 46:-0.393965 47:-0.459211 48:-0.545946 49:-0.517226 50:-0.871461 51:-0.847294 52:-0.0384735 53:-0.194426 54:-0.584906 55:0.0143188 56:-0.0218629 57:0.0394552 58:0.204833 59:0.110857 60:-0.559931 61:-0.83103 
1 1:-0.721393 2:-0.438416 3:-0.811052 4:-0.675852 5:-0.765957 6:0.883047 7:-0.925532 8:-1 9:-0.819858 10:-1 11:-1 12:-0.591491 13:-1 14:-1 15:-1 16:-1 17:-1 18:-1 19:-1 20:-1 21:-1 22:-1 23:-1 24:-1 28:-1 30:0.00781622 31:0.0163068 32:-0.819551 33:0.0163068 34:-0.852225 35:-0.819551 36:0.00781622 37:0.0163068 38:-0.819551 39:0.0163068 40:-0.852225 41:-0.819551 42:-0.628751 43:-0.583186 44:-0.22035 45:-0.410595 46:-0.148714 47:-0.53153 48:-0.506544 49:-0.652895 50:-1 51:-1 52:-0.785106 53:-0.69327 54:-0.726336 55:-0.659862 56:-0.343813 57:-0.251827 58:-0.721477 59:-0.68186 60:-1 61:-1 
0.6266802681102693 1:-0.960199 2:0.636459 3:-0.404447 4:-0.0297895 5:-1 6:0.600741 7:-0.695652 8:-1 9:-0.631883 10:-0.36232 11:-1 12:-1 13:-1 14:-1 15:-1 16:-0.108695 17:-1 18:-1 19:-1 20:-1 21:-1 22:-1 23:-1 24:-1 28:-1 30:-0.753 31:-0.0845228 32:0.0408744 33:-0.0845228 34:-0.813492 35:0.0408744 36:-0.753 37:-0.0845228 38:0.0408744 39:-0.0845228 40:-0.813492 41:0.0408744 42:-1 43:-0.891468 44:-0.583858 45:-1 46:-0.587385 47:-0.86886 48:-1 49:-0.707383 50:-0.875606 51:-1 52:-1 53:-0.840971 54:-0.49349 55:-1 56:-0.388401 57:-0.455795 58:-1 59:-0.487915 60:-0.888581 61:-1 
1 1:-0.950249 2:0.626212 3:-0.316518 4:0.155724 5:-1 6:0.70899 7:-0.854167 8:-1 9:-1 10:-0.38889 11:-1 12:-1 13:-1 14:-0.166666 15:-1 16:-0.145833 17:-1 18:-1 19:-1 20:-1 21:-1 22:-1 23:-1 24:-1 28:-1 30:-0.756743 31:-0.0499175 32:0.0550501 33:-0.0499175 34:-0.851763 35:0.0550501 36:-0.756743 37:-0.0499175 38:0.0550501 39:-0.0499175 40:-0.851763 41:0.0550501 42:-0.880568 43:-0.901558 44:-0.588227 45:-1 46:-0.555591 47:-0.819296 48:-1 49:-0.842626 50:-1 51:-1 52:-0.952932 53:-0.884519 54:-0.522527 55:-1 56:-0.48149 57:-0.428407 58:-1 59:-0.416052 60:-1 61:-1 
0.7763092344571069 1:-0.572139 2:-0.228998 3:-0.524019 4:-0.444769 5:-0.645161 6:0.445099 7:-0.491937 8:-0.775484 9:-0.863441 10:-0.526882 11:-1 12:-1 13:-1 14:-1 15:-1 16:-0.669356 17:-1 18:-1 19:-1 20:-1 21:-1 22:-1 23:-1 24:-1 28:-1 30:-0.466419 31:-0.345511 32:0.0628001 33:-0.345511 34:-0.457742 35:0.0628001 36:-0.466419 37:-0.345511 38:0.0628001 39:-0.345511 40:-0.457742 41:0.0628001 42:0.140155 43:-0.213081 44:-0.26453 45:-0.294221 46:-0.333073 47:-0.583778 48:-0.722513 49:-0.519632 50:-0.868353 51:-1 52:0.0303919 53:-0.156053 54:-0.629797 55:0.0567658 56:-0.00318874 57:0.0707712 58:0.198426 59:0.224049 60:-0.55835 61:-1 
1 1:-0.432836 2:0.0861954 3:-0.310371 4:-0.0771963 5:-1 6:0.531151 7:-0.677632 8:-0.694736 9:-0.888596 10:-0.807018 11:-1 12:-1 13:-0.837719 14:-0.473684 15:-0.798246 16:-0.730263 17:-1 18:-1 19:-1 20:-1 21:-1 22:-1 23:-1 24:-1 28:-1 30:-0.468558 31:0.67392 32:-0.400774 33:0.67392 34:0.00435974 35:-0.400774 36:-0.468558 37:0.67392 38:-0.400774 39:0.67392 40:0.00435974 41:-0.400774 42:0.0350268 43:-0.269545 44:-0.0876113 45:-0.0632048 46:-1 47:0.0481552 48:0.0137535 49:-0.047022 50:-0.828263 51:-0.787021 52:0.64758 53:0.350655 54:0.596843 55:0.0336954 56:-1 57:-0.0483109 58:0.00766728 59:-0.160787 60:-0.88681 61:-0.946643 
1 1:-0.950249 2:0.631366 3:-0.548445 4:-0.0940768 5:-1 6:0.70899 7:-0.854167 8:-0.806666 9:-0.647221 10:-1 11:-1 12:-1 13:-1 14:-1 15:-1 16:-0.145833 17:-1 18:-1 19:-1 20:-1 21:-1 22:-1 23:-1 24:-1 28:-1 30:-0.703269 31:-0.052981 32:0.0853536 33:-0.052981 34:-0.825274 35:0.0853536 36:-0.703269 37:-0.052981 38:0.0853536 39:-0.052981 40:-0.825274 41:0.0853536 42:-0.870407 43:-0.900882 44:-0.560561 45:-1 46:-0.630068 47:-0.75524 48:-1 49:-0.766626 50:-1 51:-1 52:-0.935711 53:-0.867835 54:-0.575587 55:-1 56:-0.298825 57:-0.465692 58:-1 59:-0.430076 60:-1 61:-1 
1 1:-0.671642 2:0.11286 3:-0.279992 4:0.162287 5:-1 6:0.65427 7:-0.798077 8:-0.910769 9:-0.674359 10:-1 11:-1 12:-0.63077 13:-1 14:-1 15:-1 16:-0.211539 17:-1 18:-0.471153 19:-1 20:-1 21:-1 22:-1 23:-1 24:-1 28:-1 30:-0.625141 31:0.0280923 32:0.148639 33:0.0280923 34:-0.454572 35:0.148639 36:-0.625141 37:0.0280923 38:0.148639 39:0.0280923 40:-0.454572 41:0.148639 42:-0.372047 43:-0.586243 44:-0.459202 45:-0.343665 46:-0.622784 47:-1 48:-0.512824 49:-0.764332 50:-0.942328 51:-1 52:0.21737 53:-0.126378 54:0.0352884 55:0.00372212 56:-0.339911 57:-1 58:-0.371893 59:-0.318525 60:-0.824782 61:-1 
1 1:-0.552239 2:-0.370334 3:-0.788436 4:-0.560199 5:-0.312499 6:0.531151 7:-0.5625 8:-1 9:-0.867708 10:-1 11:-0.479167 12:-0.700001 13:-1 14:-1 15:-1 16:-1 17:-1 18:-1 19:-1 20:-1 21:-1 22:-1 23:-1 24:-1 28:-1 30:-0.156308 31:-0.0318219 32:-0.456376 33:-0.0318219 34:-0.821908 35:-0.456376 36:-0.156308 37:-0.0318219 38:-0.456376 39:-0.0318219 40:-0.821908 41:-0.456376 42:-0.818822 43:0.219476 44:-0.012921 45:-0.226713 46:-0.187375 47:-0.174031 48:0.444781 49:-0.269244 50:-0.871318 51:-1 52:-0.817625 53:-0.373342 54:-0.494371 55:-0.608009 56:-0.283016 57:-0.541021 58:-0.695712 59:-0.470842 60:-0.791913 61:-1 
1 1:-0.452736 2:-0.175003 3:-0.315386 4:-0.21007 5:-1 6:0.487894 7:-0.527028 8:-0.811892 9:-1 10:-0.801803 11:-0.324325 12:-1 13:-1 14:-0.72973 15:-0.585587 16:-1 17:-1 18:-1 19:-1 20:-1 21:-1 22:-1 23:-1 24:-1 28:-1 30:-0.578213 31:-0.306368 32:-0.473002 33:-0.306368 34:-0.228104 35:-0.473002 36:-0.578213 37:-0.306368 38:-0.473002 39:-0.306368 40:-0.228104 41:-0.473002 42:0.0872238 43:-0.385635 44:-0.388152 45:-0.461733 46:-0.602766 47:-0.623514 48:-0.749911 49:-0.946898 50:-0.500634 51:-1 52:0.114588 53:0.0202045 54:0.225593 55:0.00751145 56:0.365853 57:0.314365 58:-0.079949 59:0.287627 60:-0.293847 61:-1 
1 1:-0.671642 2:-0.0497558 3:-0.13469 4:0.199573 5:-0.788461 6:0.613232 7:-0.932692 8:-0.910769 9:-0.837179 10:-0.717949 11:-0.0384617 12:-1 13:-0.76282 14:-1 15:-0.705128 16:-1 17:-1 18:-1 19:-1 20:-0.153844 21:-1 22:-1 23:-1 24:-1 28:-1 30:-0.551259 31:0.121429 32:0.0288274 33:0.121429 34:-0.894523 35:0.0288274 36:-0.551259 37:0.121429 38:0.0288274 39:0.121429 40:-0.894523 41:0.0288274 42:-0.442258 43:-0.431445 44:-0.212943 45:-0.18068 46:-0.0385045 47:0.0396391 48:-0.0135139 49:-0.514303 50:-0.919375 51:-1 52:-0.653316 53:-0.788593 54:-0.571309 55:-0.360674 56:-0.448298 57:-0.514868 58:-0.668788 59:-0.529243 60:-0.699297 61:-1 
1 1:-0.711443 2:-0.23377 3:-0.5198 4:-0.590591 5:-0.770833 6:0.397772 7:-0.489585 8:-0.806666 9:-0.470832 10:-0.694446 11:-0.652778 12:-1 13:-1 14:-1 15:-1 16:-1 17:-1 18:-1 19:-1 20:-1 21:-1 22:-1 23:-1 24:-1 28:-1 30:-0.567493 31:0.178097 32:-0.350972 33:0.178097 34:-0.880949 35:-0.350972 36:-0.567493 37:0.178097 38:-0.350972 39:0.178097 40:-0.880949 41:-0.350972 42:-0.416944 43:-0.45024 44:-0.937755 45:-0.390492 46:-0.168673 47:0.0655361 48:0.153424 49:-0.219805 50:-0.514052 51:-0.947809 52:-0.487608 53:-0.828665 54:-0.685445 55:-0.633952 56:-0.367807 57:-0.464519 58:-0.553159 59:-0.631612 60:-0.908319 61:-0.744129 
1 1:-0.343284 2:-0.347167 3:-0.146234 4:-0.239258 5:-1 6:0.336575 7:-0.588236 8:-0.617882 9:-0.701176 10:-0.827452 11:-0.0196083 12:-1 13:-1 14:-0.294118 15:-1 16:-1 17:-1 18:-1 19:-1 20:-1 21:-1 22:-1 23:-1 24:-1 28:-1 30:-0.350517 31:-0.431286 32:0.0279324 33:-0.431286 34:-0.555308 35:0.0279324 36:-0.350517 37:-0.431286 38:0.0279324 39:-0.431286 40:-0.555308 41:0.0279324 42:0.134613 43:-0.0452078 44:-0.0690478 45:-0.0910572 46:-0.133296 47:-0.131849 48:-0.203999 49:-0.42326 50:-0.518591 51:-0.818441 52:-0.267974 53:-0.349216 54:-0.239584 55:-0.0810834 56:0.0270177 57:0.235445 58:0.0266825 59:-0.0341713 60:-0.42021 61:-0.789603 
1 1:-0.940299 2:0.65916 3:-0.239814 4:0.234316 5:-1 6:0.552492 7:-0.58 8:-1 9:-1 10:-0.413335 11:-1 12:-1 13:-1 14:-1 15:-1 16:-0.18 17:-0.184 18:-1 19:-1 20:-1 21:-1 22:-1 23:-1 24:-1 28:-1 30:-0.729387 31:-0.00301637 32:0.0518463 33:-0.00301637 34:-0.810138 35:0.0518463 36:-0.729387 37:-0.00301637 38:0.0518463 39:-0.00301637 40:-0.810138 41:0.0518463 42:-0.912544 43:-0.875506 44:-0.57577 45:-1 46:-0.534343 47:-0.815587 48:-1 49:-0.744524 50:-1 51:-1 52:-0.926569 53:-0.891763 54:-0.499361 55:-1 56:-0.233574 57:-0.410899 58:-1 59:-0.460511 60:-1 61:-1 
1 1:-0.850746 2:0.658244 3:-0.361304 4:-0.0747495 5:-1 6:0.562535 7:-0.897059 8:-0.590588 9:-0.75098 10:-0.568628 11:-0.509803 12:-1 13:-1 14:-1 15:-1 16:-1 17:-0.399999 18:-1 19:-1 20:-1 21:-1 22:-1 23:-1 24:-1 28:-1 30:-0.613656 31:0.153438 32:0.0424827 33:0.153438 34:-0.918313 35:0.0424827 36:-0.613656 37:0.153438 38:0.0424827 39:0.153438 40:-0.918313 41:0.0424827 42:-0.596975 43:-0.621773 44:-0.376095 45:-1 46:-0.132935 47:-0.254018 48:-1 49:-0.119303 50:-0.993364 51:-1 52:-0.934087 53:-0.8922 54:-0.535457 55:-1 56:-0.356131 57:-0.686886 58:-1 59:-0.624681 60:-0.938423 61:-1 
1 1:-0.950249 2:0.611104 3:-0.133184 4:0.298224 5:-1 6:0.70899 7:-0.854167 8:-1 9:-1 10:-1 11:-1 12:-1 13:-1 14:0.666666 15:-1 16:-0.145833 17:-1 18:-1 19:-1 20:-1 21:-1 22:-1 23:-1 24:-1 28:-1 30:-0.762892 31:-0.0687563 32:0.0230918 33:-0.0687563 34:-0.861034 35:0.0230918 36:-0.762892 37:-0.0687563 38:0.0230918 39:-0.0687563 40:-0.861034 41:0.0230918 42:-0.893685 43:-0.879698 44:-0.531245 45:-1 46:-0.552977 47:-0.698681 48:-1 49:-0.710372 50:-1 51:-1 52:-0.919394 53:-0.876724 54:-0.582703 55:-1 56:-0.456215 57:-0.419762 58:-1 59:-0.465037 60:-1 61:-1 
1 1:-0.840796 2:0.654424 3:-0.214531 4:0.130559 5:-1 6:0.576882 7:-0.8 8:-1 9:-0.516189 10:-1 11:-0.52381 12:-1 13:-0.295237 14:-1 15:-1 16:-1 17:-1 18:-0.214287 19:-1 20:-1 21:-1 22:-1 23:-1 24:-1 28:-1 30:-0.594698 31:0.138585 32:0.0497868 33:0.138585 34:-0.932208 35:0.0497868 36:-0.594698 37:0.138585 38:0.0497868 39:0.138585 40:-0.932208 41:0.0497868 42:-0.592567 43:-0.601616 44:-0.341871 45:-1 46:-0.0921206 47:-0.179948 48:-0.680739 49:-0.39745 50:-0.985938 51:-1 52:-0.893095 53:-0.854855 54:-0.592037 55:-1 56:-0.446355 57:-0.745973 58:-0.981971 59:-0.979556 60:-0.887328 61:-1 
1 1:-0.0547264 2:-0.577214 3:0.430847 4:0.139221 5:-1 6:-0.470363 7:0.596489 8:-0.715087 9:-0.480116 10:-0.74269 11:-0.561403 12:-0.831579 13:-1 14:-0.824561 15:-0.596492 16:0.0789475 17:-1 18:-1 19:-1 20:-1 21:-1 22:-1 23:-1 24:-1 28:-1 30:0.0268028 31:0.246863 32:-0.251224 33:0.246863 34:-0.615347 35:-0.251224 36:0.0268028 37:0.246863 38:-0.251224 39:0.246863 40:-0.615347 41:-0.251224 42:0.390749 43:0.3549 44:0.590184 45:0.555188 46:0.451161 47:0.821953 48:0.694469 49:-0.0992613 50:-0.260943 51:-0.695447 52:-0.10166 53:-0.196456 54:-0.191751 55:-0.240963 56:-0.674726 57:-0.705233 58:-0.5239 59:-0.769042 60:-0.805133 61:-0.746866 
1 1:-0.880597 2:0.646404 3:-0.146855 4:0.23041 5:-1 6:0.651624 7:-0.887097 8:-1 9:-0.726881 10:-1 11:-1 12:0.238705 13:-1 14:-0.354838 15:-1 16:-1 17:-1 18:-0.112903 19:-1 20:-1 21:-1 22:-1 23:-1 24:-1 28:-1 30:-0.627841 31:0.163748 32:0.0418325 33:0.163748 34:-0.916782 35:0.0418325 36:-0.627841 37:0.163748 38:0.0418325 39:0.163748 40:-0.916782 41:0.0418325 42:-0.605683 43:-0.637653 44:-0.353907 45:-1 46:-0.111659 47:-0.225639 48:-0.719526 49:-0.722671 50:-0.940035 51:-1 52:-0.908531 53:-0.88657 54:-0.600449 55:-1 56:-0.439792 57:-0.740576 58:-0.953039 59:-0.981533 60:-0.859921 61:-1 
1 1:-0.59204 2:-0.222957 3:-0.260833 4:-0.116379 5:-1 6:0.531151 7:-0.591666 8:-1 9:-0.576666 10:-0.755556 11:-0.444445 12:-1 13:-1 14:-1 15:-0.744444 16:-1 17:-0.659999 18:-1 19:-1 20:-1 21:-1 22:-1 23:-1 24:-1 28:-1 30:-0.479451 31:-0.390773 32:-0.472087 33:-0.390773 34:-0.397142 35:-0.472087 36:-0.479451 37:-0.390773 38:-0.472087 39:-0.390773 40:-0.397142 41:-0.472087 42:0.00598331 43:-0.229307 44:-0.500812 45:-0.316942 46:-0.339865 47:-0.622515 48:-0.729612 49:-0.489279 50:-0.812139 51:-1 52:0.0302514 53:-0.144421 54:-0.692459 55:0.0774143 56:-0.0109743 57:0.0272849 58:0.119601 59:-0.36417 60:-0.528214 61:-1 
1 1:-0.631841 2:-0.442543 3:-0.102424 4:-0.0943043 5:-1 6:-0.040474 7:0.374998 8:-0.834285 9:-0.84881 10:-0.738097 11:-0.702382 12:-1 13:-1 14:-1 15:-1 16:-1 17:-0.271428 18:-1 19:-1 20:-1 21:-1 22:-1 23:-1 24:-1 28:-1 30:-0.633382 31:0.0169188 32:0.202144 33:0.0169188 34:-0.469447 35:0.202144 36:-0.633382 37:0.0169188 38:0.202144 39:0.0169188 40:-0.469447 41:0.202144 42:-0.865806 43:-0.496791 44:-0.551238 45:-0.572735 46:-0.873795 47:-0.945914 48:-0.812797 49:-0.671445 50:-0.819763 51:-1 52:0.279353 53:-0.0509898 54:0.0183977 55:-0.322191 56:-0.342207 57:-0.586939 58:-0.336373 59:-0.628604 60:-0.775746 61:-1 
1 1:-0.492537 2:-0.335531 3:-0.649209 4:-0.428699 5:-0.842857 6:0.698827 7:-0.85 8:-0.801143 9:-0.879047 10:-0.580954 11:-0.761905 12:-1 13:-1 14:-1 15:-0.780953 16:-1 17:-1 18:-1 19:-1 20:-1 21:-1 22:-1 23:-1 24:-1 28:-1 30:-0.0594508 31:-0.0287676 32:-0.655992 33:-0.0287676 34:-0.822852 35:-0.655992 36:-0.0594508 37:-0.0287676 38:-0.655992 39:-0.0287676 40:-0.822852 41:-0.655992 42:-0.216481 43:-0.226982 44:-0.645343 45:-0.0993895 46:-0.131924 47:0.165107 48:0.00583279 49:0.263423 50:-0.710641 51:-1 52:-0.650584 53:-0.694574 54:-0.318502 55:-0.274849 56:-0.120596 57:-0.392778 58:-0.462866 59:-0.365481 60:-0.702657 61:-1 
1 1:-0.9801 2:0.620212 3:-0.418228 4:-0.0924521 5:-1 6:0.65818 7:-0.833334 8:-1 9:-0.596825 10:-0.30159 11:-1 12:-1 13:-1 14:-1 15:-0.269843 16:-1 17:-1 18:-1 19:-1 20:-1 21:-1 22:-1 23:-1 24:-1 28:-1 30:-0.613551 31:-0.0761276 32:0.123349 33:-0.0761276 34:-0.969487 35:0.123349 36:-0.613551 37:-0.0761276 38:0.123349 39:-0.0761276 40:-0.969487 41:0.123349 42:-0.908881 43:-0.822458 44:-0.467158 45:-1 46:-0.646473 47:-0.782973 48:-1 49:-0.692292 50:-0.790701 51:-1 52:-0.911159 53:-0.838023 54:-0.668078 55:-1 56:-0.813437 57:-0.747169 58:-1 59:-0.867686 60:-0.842322 61:-1 
0.227347302830197 1:-0.462687 2:-0.177202 3:0.0685197 4:0.196941 5:-0.849315 6:0.333823 7:-0.616439 8:-0.809315 9:-0.536072 10:-1 11:-0.543378 12:-0.473974 13:-0.83105 14:-0.726028 15:-0.579909 16:-1 17:-1 18:-1 19:-1 20:-1 21:-0.31507 22:-1 23:-1 24:-1 28:-1 30:-0.626692 31:-0.325289 32:0.0469674 33:-0.325289 34:-0.316147 35:0.0469674 36:-0.626692 37:-0.325289 38:0.0469674 39:-0.325289 40:-0.316147 41:0.0469674 42:-0.0301151 43:-0.31501 44:-0.249224 45:-0.23546 46:-0.632207 47:-0.599156 48:-0.617347 49:-0.706383 50:-0.539833 51:-1 52:0.0511263 53:-0.0173958 54:0.175558 55:0.369997 56:0.307007 57:-0.00287193 58:0.198219 59:0.165928 60:-0.557647 61:-1 
1 1:-0.960199 2:0.622797 3:-0.299227 4:0.167347 5:-1 6:0.786311 7:-1 8:-1 9:-1 10:-0.36232 11:-1 12:-1 13:-1 14:-0.130434 15:-1 16:-0.108695 17:-1 18:-1 19:-1 20:-1 21:-1 22:-1 23:-1 24:-1 28:-1 30:-0.752718 31:-0.0578076 32:0.0437719 33:-0.0578076 34:-0.830922 35:0.0437719 36:-0.752718 37:-0.0578076 38:0.0437719 39:-0.0578076 40:-0.830922 41:0.0437719 42:-0.917451 43:-0.859833 44:-0.557647 45:-1 46:-0.624116 47:-0.738378 48:-1 49:-0.739779 50:-1 51:-1 52:-0.914669 53:-0.898819 54:-0.56415 55:-1 56:-0.427863 57:-0.377857 58:-1 59:-0.456049 60:-1 61:-1 
1 1:-0.960199 2:0.623346 3:-0.481334 4:-0.0608003 5:-1 6:0.786311 7:-1 8:-0.79826 9:-1 10:-0.36232 11:-1 12:-1 13:-1 14:-1 15:-1 16:-0.108695 17:-1 18:-1 19:-1 20:-1 21:-1 22:-1 23:-1 24:-1 28:-1 30:-0.740823 31:-0.0588205 32:0.0543038 33:-0.0588205 34:-0.825529 35:0.0543038 36:-0.740823 37:-0.0588205 38:0.0543038 39:-0.0588205 40:-0.825529 41:0.0543038 42:-0.928417 43:-0.837202 44:-0.52313 45:-1 46:-0.717797 47:-0.797572 48:-1 49:-0.821011 50:-1 51:-1 52:-0.9087 53:-0.88136 54:-0.535831 55:-1 56:-0.450408 57:-0.431132 58:-1 59:-0.409813 60:-1 61:-1 
1 1:-0.60199 2:0.607443 3:-0.673148 4:-0.265551 5:-1 6:0.702961 7:-0.70339 8:-0.842712 9:-0.856496 10:-1 11:-1 12:-1 13:-1 14:-0.661016 15:-1 16:-0.652541 17:-1 18:-1 19:-1 20:-1 21:-1 22:-1 23:-1 24:-1 28:-1 30:0.213632 31:0.291761 32:0.0634444 33:0.291761 34:-0.794086 35:0.0634444 36:0.213632 37:0.291761 38:0.0634444 39:0.291761 40:-0.794086 41:0.0634444 42:0.0771158 43:0.148115 44:-0.231482 45:0.566489 46:0.590444 47:0.0226585 48:0.932056 49:0.556079 50:-0.209529 51:-1 52:-0.621412 53:-0.596705 54:-0.434068 55:-0.264548 56:-0.576801 57:-0.891689 58:-0.788076 59:-0.58893 60:-0.950823 61:-1 
1 1:-0.960199 2:0.623078 3:-0.284146 4:0.197868 5:-1 6:0.693526 7:-0.847826 8:-1 9:-1 10:-0.36232 11:-1 12:-1 13:-1 14:-0.130434 15:-1 16:-0.108695 17:-1 18:-1 19:-1 20:-1 21:-1 22:-1 23:-1 24:-1 28:-1 30:-0.761103 31:-0.0560271 32:0.0376759 33:-0.0560271 34:-0.84706 35:0.0376759 36:-0.761103 37:-0.0560271 38:0.0376759 39:-0.0560271 40:-0.84706 41:0.0376759 42:-0.923387 43:-1 44:-0.57611 45:-1 46:-0.55754 47:-0.801486 48:-1 49:-0.712747 50:-1 51:-1 52:-0.908734 53:-1 54:-0.519747 55:-1 56:-0.449643 57:-0.429275 58:-1 59:-0.468777 60:-1 61:-1 
0.4661769743924469 1:-0.60199 2:-0.42784 3:-0.17957 4:-0.252935 5:-1 6:-0.237474 7:0.720336 8:-0.764067 9:-0.856496 10:-0.751412 11:-1 12:-1 13:-1 14:-1 15:-0.740113 16:-0.652541 17:-1 18:-1 19:-1 20:-1 21:-1 22:-1 23:-1 24:-1 28:-1 30:-0.541259 31:0.0863133 32:0.242928 33:0.0863133 34:-0.421944 35:0.242928 36:-0.541259 37:0.0863133 38:0.242928 39:0.0863133 40:-0.421944 41:0.242928 42:-0.75169 43:-0.830566 44:-0.638016 45:-0.513153 46:-0.798274 47:-0.92629 48:-0.594942 49:-0.743775 50:-0.519039 51:-1 52:0.229383 53:-0.0399393 54:0.100401 55:-0.289138 56:-0.300729 57:-0.397843 58:-0.345865 59:-0.285529 60:-0.689015 61:-1 
1 1:-0.512438 2:-0.436788 3:-0.257311 4:-0.250175 5:-1 6:-0.0337496 7:0.389705 8:-0.795294 9:-0.62647 10:-1 11:-1 12:-1 13:-1 14:-1 15:-1 16:-0.698529 17:-0.7 18:-1 19:-1 20:-1 21:-1 22:-1 23:-1 24:-1 28:-1 30:-0.591927 31:0.0699532 32:0.168034 33:0.0699532 34:-0.435067 35:0.168034 36:-0.591927 37:0.0699532 38:0.168034 39:0.0699532 40:-0.435067 41:0.168034 42:0.0147772 43:-0.382391 44:-0.502389 45:-0.575572 46:-0.884458 47:-0.836379 48:-0.722332 49:-0.997401 50:-0.796919 51:-1 52:0.310327 53:-0.0191973 54:0.0200193 55:-0.302112 56:-0.315727 57:-0.390505 58:-0.282333 59:-0.926048 60:-0.745302 61:-1 
1 1:-0.830846 2:0.847693 3:-0.440249 4:-0.371906 5:-1 6:0.412591 7:-0.513889 8:-0.742222 9:-0.529628 10:-1 11:-1 12:0.0666641 13:-1 14:-1 15:-1 16:-1 17:-1 18:-1 19:-1 20:-1 21:-1 22:-1 23:-1 24:-1 28:-1 30:-0.442876 31:0.25214 32:-0.0138273 33:0.25214 34:-0.747537 35:-0.0138273 36:-0.442876 37:0.25214 38:-0.0138273 39:0.25214 40:-0.747537 41:-0.0138273 42:-0.616307 43:-0.38727 44:-0.930288 45:-0.269579 46:-0.393795 47:-0.694403 48:-0.118364 49:-1 50:-0.780362 51:-1 52:-0.274213 53:-0.627489 54:-0.648463 55:-0.393016 56:-0.0893703 57:-0.540987 58:-0.697787 59:-1 60:-0.610911 61:-1 
1 1:-0.910448 2:0.629627 3:-0.650124 4:-0.185453 5:-1 6:0.759802 7:-0.75 8:-1 9:-1 10:-1 11:-1 12:-1 13:-0.559523 14:-0.285714 15:-1 16:-1 17:-1 18:-1 19:-1 20:-1 21:-1 22:-1 23:-1 24:-1 28:-1 30:-0.764319 31:0.100076 32:0.0632334 33:0.100076 34:-0.562878 35:0.0632334 36:-0.764319 37:0.100076 38:0.0632334 39:0.100076 40:-0.562878 41:0.0632334 42:-0.840657 43:-0.769075 44:-0.454073 45:-0.344214 46:-0.676899 47:-1 48:-0.955992 49:-0.912039 50:-1 51:-1 52:0.0999697 53:-0.234073 54:-0.159689 55:-0.185053 56:-0.421669 57:-1 58:-0.435138 59:-0.376394 60:-1 61:-1 
0.1722818333569879 1:-0.960199 2:0.628168 3:-0.664934 4:-0.485851 5:-1 6:0.693526 7:-0.847826 8:-0.79826 9:-1 10:-0.36232 11:-0.275362 12:-1 13:-1 14:-1 15:-1 16:-1 17:-1 18:-1 19:-1 20:-1 21:-1 22:-1 23:-1 24:-1 28:-1 30:-0.755056 31:-0.0567115 32:0.0544892 33:-0.0567115 34:-0.845879 35:0.0544892 36:-0.755056 37:-0.0567115 38:0.0544892 39:-0.0567115 40:-0.845879 41:0.0544892 42:-0.869077 43:-0.814001 44:-0.550013 45:-1 46:-0.631432 47:-0.849934 48:-1 49:-0.739415 50:-1 51:-1 52:-0.926771 53:-0.917452 54:-0.517052 55:-1 56:-0.470163 57:-0.45805 58:-1 59:-0.404146 60:-1 61:-1 
1 1:-0.940299 2:0.694629 3:-0.714842 4:-0.590276 5:-1 6:0.552492 7:-0.44 8:-1 9:-1 10:0.17333 11:-1 12:-1 13:-1 14:-1 15:-1 16:-1 17:-1 18:-1 19:-1 20:-1 21:-1 22:-1 23:-1 24:-1 28:-1 30:-0.766862 31:0.207988 32:-0.00382923 33:0.207988 34:-0.740785 35:-0.00382923 36:-0.766862 37:0.207988 38:-0.00382923 39:0.207988 40:-0.740785 41:-0.00382923 42:-0.608917 43:-0.633682 44:-0.416647 45:-0.54343 46:-0.52476 47:-0.888316 48:-1 49:-0.750555 50:-0.897659 51:-1 52:-0.559517 53:-0.251234 54:-0.847591 55:-0.16513 56:-0.519482 57:-0.771801 58:-1 59:-0.82893 60:-0.761902 61:-1 
0.3395232254242742 1:-0.60199 2:-0.219131 3:-0.597659 4:-0.677335 5:-1 6:0.666791 7:-0.762712 8:-0.842712 9:-0.56949 10:-0.502826 11:-1 12:-1 13:-1 14:-1 15:-1 16:-1 17:-1 18:-1 19:-1 20:-1 21:-1 22:-1 23:-1 24:-1 28:-1 30:-0.509122 31:-0.3245 32:-0.460711 33:-0.3245 34:-0.382479 35:-0.460711 36:-0.509122 37:-0.3245 38:-0.460711 39:-0.3245 40:-0.382479 41:-0.460711 42:0.152335 43:-0.309396 44:-0.23694 45:-0.373704 46:-0.182265 47:-0.669732 48:-0.566018 49:-0.675716 50:-0.858034 51:-0.896968 52:-0.114344 53:-0.265997 54:-0.0328757 55:0.139289 56:0.149507 57:0.0976279 58:0.00580653 59:0.269245 60:-0.560603 61:-0.786084 
1 1:-0.940299 2:0.638687 3:-0.0306554 4:0.267159 5:-1 6:0.381767 7:-0.44 8:-1 9:-1 10:-1 11:-1 12:-0.232002 13:-0.506666 14:-1 15:0.226665 16:-1 17:-1 18:-1 19:-1 20:-1 21:-1 22:-1 23:-1 24:-1 28:-1 30:-0.769041 31:-0.0423084 32:-0.435396 33:-0.0423084 34:-0.826998 35:-0.435396 36:-0.769041 37:-0.0423084 38:-0.435396 39:-0.0423084 40:-0.826998 41:-0.435396 42:-0.866172 43:-0.880945 44:-0.490959 45:-1 46:-0.669579 47:-0.721238 48:-1 49:-0.774295 50:-1 51:-1 52:-0.933977 53:-0.883347 54:-0.514077 55:-1 56:-0.400091 57:-0.386569 58:-1 59:-0.307337 60:-1 61:-1 
1 1:-0.542289 2:0.132034 3:-0.0279533 4:0.254431 5:-1 6:0.473696 7:-0.623078 8:-0.928615 9:-0.739487 10:-1 11:-0.74359 12:-1 13:-0.810256 14:-0.076924 15:-0.764103 16:-1 17:-0.372308 18:-1 19:-1 20:-1 21:-1 22:-1 23:-1 24:-1 28:-1 30:-0.717891 31:0.0244073 32:-0.505623 33:0.0244073 34:0.0173319 35:-0.505623 36:-0.717891 37:0.0244073 38:-0.505623 39:0.0244073 40:0.0173319 41:-0.505623 42:-0.572914 43:-0.498021 44:-0.444199 45:-0.499238 46:-0.671256 47:-0.639004 48:-0.563138 49:-0.780487 50:-0.535831 51:-1 52:0.593354 53:0.382856 54:0.638669 55:0.563147 56:0.238239 57:-0.385668 58:0.194032 59:-0.554725 60:-0.695189 61:-1 
1 1:-0.970149 2:0.622481 3:-0.381271 4:-0.042645 5:-0.5 6:0.579652 7:-1 8:-0.789091 9:-1 10:-0.333336 11:-0.242425 12:-1 13:-1 14:-1 15:-0.303032 16:-1 17:-1 18:-1 19:-1 20:-1 21:-1 22:-1 23:-1 24:-1 28:-1 30:-0.781152 31:-0.0706862 32:0.0139361 33:-0.0706862 34:-0.819307 35:0.0139361 36:-0.781152 37:-0.0706862 38:0.0139361 39:-0.0706862 40:-0.819307 41:0.0139361 42:-1 43:-0.926118 44:-0.640806 45:-1 46:-0.50081 47:-0.766683 48:-1 49:-0.87302 50:-1 51:-1 52:-1 53:-0.831157 54:-0.503188 55:-1 56:-0.447173 57:-0.431976 58:-1 59:-0.398426 60:-1 61:-1 
0.02307564869169184 1:-0.9801 2:0.621112 3:-0.433202 4:-0.0729658 5:-1 6:0.65818 7:-1 8:-0.558095 9:-1 10:-0.30159 11:-1 12:-1 13:-1 14:-1 15:-0.269843 16:-1 17:-1 18:-1 19:-1 20:-1 21:-1 22:-1 23:-1 24:-1 28:-1 30:-0.74257 31:-0.0953595 32:0.0183 33:-0.0953595 34:-0.853197 35:0.0183 36:-0.74257 37:-0.0953595 38:0.0183 39:-0.0953595 40:-0.853197 41:0.0183 42:-0.882195 43:-1 44:-0.277666 45:-1 46:-0.660197 47:-0.779823 48:-1 49:-0.855677 50:-1 51:-1 52:-0.902682 53:-1 54:-0.551728 55:-1 56:-0.458419 57:-0.490228 58:-1 59:-0.343763 60:-1 61:-1 
1 1:-0.492537 2:0.0903346 3:-0.32735 4:-0.0676146 5:-1 6:0.668342 7:-0.85 8:-0.933714 9:-0.879047 10:-0.161906 11:-1 12:-0.725715 13:-1 14:-0.714286 15:-0.780953 16:-1 17:-0.708572 18:-1 19:-1 20:-1 21:-1 22:-1 23:-1 24:-1 28:-1 30:-0.0132272 31:0.239561 32:-0.144626 33:0.239561 34:-0.662188 35:-0.144626 36:-0.0132272 37:0.239561 38:-0.144626 39:0.239561 40:-0.662188 41:-0.144626 42:0.460173 43:0.34049 44:0.333986 45:0.341131 46:-0.805156 47:0.344214 48:0.208142 49:0.184708 50:-0.816267 51:-1 52:-0.343245 53:-0.433993 54:-0.451452 55:-0.377032 56:-0.791408 57:-0.678983 58:-0.854688 59:-0.826799 60:-0.889782 61:-1 
1 1:-0.60199 2:-0.23495 3:0.11914 4:0.172206 5:-0.813559 6:0.268915 7:-0.525425 8:-0.685423 9:-1 10:-1 11:-0.152542 12:-1 13:-0.581921 14:-0.661016 15:-0.480227 16:-1 17:-0.654236 18:-1 19:-1 20:-1 21:-1 22:-1 23:-1 24:-1 28:-1 30:-0.444376 31:-0.383558 32:-0.403392 33:-0.383558 34:-0.507048 35:-0.403392 36:-0.444376 37:-0.383558 38:-0.403392 39:-0.383558 40:-0.507048 41:-0.403392 42:0.186384 43:-0.132736 44:-0.234612 45:-0.172564 46:-0.437953 47:-0.574613 48:-0.379324 49:-0.490637 50:-0.786251 51:-0.931354 52:-0.273163 53:-0.175428 54:-0.368834 55:0.156398 56:0.270467 57:0.220836 58:0.00235184 59:-0.555395 60:-0.631218 61:-0.893205 
1 1:-0.452736 2:0.0839678 3:-0.222088 4:-0.00182507 5:-1 6:0.516731 7:-0.763514 8:-0.686486 9:-0.885585 10:-0.801803 11:-0.774775 12:-0.481083 13:-1 14:-0.18919 15:-1 16:-1 17:-0.724325 18:-1 19:-1 20:-1 21:-1 22:-1 23:-1 24:-1 28:-1 30:-0.108411 31:0.529 32:-0.040945 33:0.529 34:-0.487405 35:-0.040945 36:-0.108411 37:0.529 38:-0.040945 39:0.529 40:-0.487405 41:-0.040945 42:0.293368 43:0.151576 44:0.161868 45:0.245108 46:-1 47:0.303133 48:0.347182 49:0.161475 50:-0.805964 51:-1 52:0.0304456 53:-0.129626 54:0.0529684 55:-0.257116 56:-1 57:-0.56946 58:-0.571647 59:-0.703371 60:-0.991227 61:-1 
1 1:-0.970149 2:0.634232 3:-0.276638 4:0.206432 5:-1 6:0.773658 7:-1 8:-1 9:-1 10:-0.333336 11:-1 12:-1 13:-1 14:-0.09091 15:-1 16:-0.068183 17:-1 18:-1 19:-1 20:-1 21:-1 22:-1 23:-1 24:-1 28:-1 30:-0.735771 31:-0.0736042 32:0.0588808 33:-0.0736042 34:-0.871612 35:0.0588808 36:-0.735771 37:-0.0736042 38:0.0588808 39:-0.0736042 40:-0.871612 41:0.0588808 42:-0.896378 43:-1 44:-0.559917 45:-1 46:-0.579615 47:-0.80802 48:-1 49:-0.616073 50:-1 51:-1 52:-0.887177 53:-1 54:-0.554298 55:-1 56:-0.45548 57:-0.473358 58:-1 59:-0.484359 60:-1 61:-1 
1 1:-0.59204 2:-0.241116 3:0.0166912 4:-0.0750358 5:-1 6:0.317744 7:-0.533335 8:-1 9:-0.576666 10:-0.266669 11:0.388888 12:-1 13:-1 14:-1 15:-0.744444 16:-0.658333 17:-1 18:-1 19:-1 20:-1 21:-1 22:-1 23:-1 24:-1 28:-1 30:-0.638243 31:-0.392914 32:-0.440266 33:-0.392914 34:-0.396299 35:-0.440266 36:-0.638243 37:-0.392914 38:-0.440266 39:-0.392914 40:-0.396299 41:-0.440266 42:-0.263134 43:-0.321171 44:-0.264523 45:-0.366767 46:-1 47:-0.682307 48:-0.666731 49:-0.719632 50:-0.753218 51:-1 52:0.029428 53:-0.035841 54:0.144 55:0.156923 56:-1 57:-0.0796236 58:0.123851 59:-0.344295 60:-0.814323 61:-1 
1 1:-0.641791 2:0.202484 3:-0.496197 4:-0.14831 5:-0.6 6:0.599053 7:-0.809091 8:-0.831273 9:-0.84606 10:-0.466669 11:-1 12:-1 13:-1 14:-1 15:-0.721213 16:-1 17:-0.629091 18:-1 19:-1 20:-1 21:-1 22:-1 23:-1 24:-1 28:-1 30:-0.686981 31:-0.188633 32:-0.475421 33:-0.188633 34:-0.171859 35:-0.475421 36:-0.686981 37:-0.188633 38:-0.475421 39:-0.188633 40:-0.171859 41:-0.475421 42:-0.209274 43:-0.470815 44:-0.481413 45:-0.894805 46:-0.610065 47:-0.679488 48:-0.555416 49:-0.765095 50:-0.689045 51:-1 52:0.136644 53:0.0541625 54:0.280577 55:-0.725257 56:0.292221 57:0.013426 58:0.324913 59:-0.532733 60:-0.760979 61:-1 
1 1:-0.870647 2:0.636207 3:-0.138505 4:0.136808 5:-0.65625 6:0.464462 7:-0.890625 8:-1 9:-0.206248 10:-0.0833358 11:-1 12:-1 13:-1 14:-0.375 15:-1 16:-1 17:-1 18:-0.140625 19:-1 20:-1 21:-1 22:-1 23:-1 24:-1 28:-1 30:-0.685955 31:0.136507 32:0.0225437 33:0.136507 34:-0.925201 35:0.0225437 36:-0.685955 37:0.136507 38:0.0225437 39:0.136507 40:-0.925201 41:0.0225437 42:-0.571589 43:-0.628606 44:-0.366746 45:-1 46:-0.328205 47:-0.182446 48:-0.718068 49:-0.652645 50:-0.979368 51:-1 52:-0.879685 53:-0.882294 54:-0.563052 55:-1 56:-0.413107 57:-0.769336 58:-0.955416 59:-0.92225 60:-0.887043 61:-1 
1 1:-0.970149 2:0.624354 3:-0.288849 4:0.159859 5:-1 6:0.773658 7:-1 8:-1 9:-0.615151 10:-1 11:-1 12:-1 13:-1 14:-1 15:0.393937 16:-1 17:-1 18:-1 19:-1 20:-1 21:-1 22:-1 23:-1 24:-1 28:-1 30:-0.749081 31:-0.0833793 32:0.0358964 33:-0.0833793 34:-0.846758 35:0.0358964 36:-0.749081 37:-0.0833793 38:0.0358964 39:-0.0833793 40:-0.846758 41:0.0358964 42:-0.884605 43:-1 44:-0.52791 45:-1 46:-0.644304 47:-0.697887 48:-1 49:-0.63923 50:-1 51:-1 52:-0.909859 53:-1 54:-0.563609 55:-1 56:-0.466939 57:-0.426245 58:-1 59:-0.492001 60:-1 61:-1 
1 1:-0.960199 2:0.66928 3:-0.396824 4:0.00243236 5:-1 6:0.600741 7:-0.695652 8:-1 9:-0.263767 10:-1 11:-1 12:-1 13:-1 14:-1 15:-1 16:-1 17:-0.113043 18:-1 19:-1 20:-1 21:-1 22:-1 23:-1 24:-1 28:-1 30:-0.67173 31:-0.0443318 32:0.133754 33:-0.0443318 34:-0.848165 35:0.133754 36:-0.67173 37:-0.0443318 38:0.133754 39:-0.0443318 40:-0.848165 41:0.133754 42:-0.954369 43:-0.864522 44:-0.61417 45:-1 46:-0.584887 47:-0.897769 48:-1 49:-0.609279 50:-0.705375 51:-1 52:-0.898863 53:-0.887439 54:-0.507256 55:-1 56:-0.407193 57:-0.447598 58:-1 59:-0.478483 60:-0.835224 61:-1 
1 1:-0.751244 2:-0.322855 3:-0.703199 4:-0.487901 5:-0.5 6:0.725157 7:-0.920455 8:-1 9:-0.807575 10:-0.666667 11:-0.242425 12:-1 13:-1 14:-1 15:-1 16:-1 17:-1 18:-1 19:-1 20:-1 21:-1 22:-1 23:-1 24:-1 28:-1 30:-0.696301 31:-0.133088 32:-0.400601 33:-0.133088 34:-0.888484 35:-0.400601 36:-0.696301 37:-0.133088 38:-0.400601 39:-0.133088 40:-0.888484 41:-0.400601 42:-0.617665 43:-0.279093 44:-0.629945 45:-0.841453 46:-0.841785 47:-0.424193 48:-0.0539724 49:-0.296059 50:-0.788356 51:-1 52:-0.868275 53:-0.638333 54:-0.773433 55:-0.765294 56:-0.707264 57:-0.570361 58:-0.287582 59:-0.54601 60:-0.84799 61:-1 
1 1:0.482587 2:-0.687551 3:-0.669005 4:-0.357487 5:-0.803572 6:0.759802 7:-0.791667 8:-0.834285 9:-0.949603 10:-1 11:-0.900794 12:-1 13:-1 14:-1 15:-1 16:-0.877976 17:-1 18:-0.83631 19:-0.781746 20:-1 21:-1 22:-1 23:-1 24:-1 28:-1 30:0.0489066 31:0.377699 32:-0.0413129 33:0.377699 34:-0.408813 35:-0.0413129 36:0.0489066 37:0.377699 38:-0.0413129 39:0.377699 40:-0.408813 41:-0.0413129 42:-0.0274199 43:0.573509 44:0.392864 45:0.33717 46:0.491228 47:0.465674 48:0.661469 49:-0.183546 50:-0.0266271 51:-1 52:0.0554549 53:0.358425 54:0.105724 55:0.253153 56:0.328643 57:-0.0498837 58:-0.110526 59:-0.010434 60:0.0603061 61:-1 
1 1:-0.691542 2:-0.237647 3:-0.25395 4:0.032665 5:-0.78 6:0.424448 7:-0.44 8:-0.9072 9:-0.830666 10:-0.706667 11:-1 12:-0.616001 13:-1 14:-1 15:-0.693334 16:-1 17:-1 18:-1 19:-0.266667 20:-1 21:-1 22:-1 23:-1 24:-1 28:-1 30:-0.410908 31:-0.375101 32:-0.42706 33:-0.375101 34:-0.506656 35:-0.42706 36:-0.410908 37:-0.375101 38:-0.42706 39:-0.375101 40:-0.506656 41:-0.42706 42:0.060915 43:-0.141188 44:-0.917053 45:-0.246758 46:-0.539177 47:-0.540678 48:-0.461732 49:-0.894182 50:-0.792733 51:-1 52:-0.0507138 53:-0.26404 54:-0.694704 55:-0.0410529 56:-0.0873972 57:-0.0252759 58:-0.0852831 59:-0.198639 60:-0.999122 61:-1 
1 1:-0.970149 2:0.621437 3:-0.384651 4:-0.00433304 5:-1 6:0.579652 7:-0.681818 8:-1 9:-0.615151 10:-1 11:-0.242425 12:-1 13:-1 14:-1 15:-1 16:-0.068183 17:-1 18:-1 19:-1 20:-1 21:-1 22:-1 23:-1 24:-1 28:-1 30:-0.781408 31:-0.0596662 32:0.0245867 33:-0.0596662 34:-0.81183 35:0.0245867 36:-0.781408 37:-0.0596662 38:0.0245867 39:-0.0596662 40:-0.81183 41:0.0245867 42:-1 43:-0.973211 44:-0.595647 45:-1 46:-0.631009 47:-0.802166 48:-1 49:-0.792683 50:-1 51:-1 52:-1 53:-0.825465 54:-0.504824 55:-1 56:-0.422895 57:-0.427024 58:-1 59:-0.37788 60:-1 61:-1 
1 1:-0.452736 2:0.104565 3:-0.107969 4:0.0990687 5:-1 6:0.487894 7:-0.763514 8:-0.874595 9:-0.656756 10:-0.405408 11:-0.774775 12:-1 13:-0.833333 14:-0.45946 15:-0.792793 16:-0.722973 17:-0.724325 18:-1 19:-1 20:-1 21:-1 22:-1 23:-1 24:-1 28:-1 30:-0.29363 31:0.637712 32:-0.00026204 33:0.637712 34:-0.216547 35:-0.00026204 36:-0.29363 37:0.637712 38:-0.00026204 39:0.637712 40:-0.216547 41:-0.00026204 42:0.0375322 43:0.0517501 44:-0.0473725 45:0.12594 46:-1 47:0.19545 48:0.203432 49:0.155343 50:-0.772427 51:-1 52:0.404999 53:0.152853 54:0.360071 55:-0.220396 56:-1 57:-0.289662 58:-0.226052 59:-0.102021 60:-0.798703 61:-1 
1 1:-0.452736 2:0.0986164 3:-0.380444 4:-0.157292 5:-1 6:0.574409 7:-0.716216 8:-0.749189 9:-0.771171 10:-0.801803 11:-1 12:-1 13:-0.833333 14:-0.45946 15:-1 16:-1 17:-0.724325 18:-1 19:-1 20:-1 21:-1 22:-1 23:-1 24:-1 28:-1 30:-0.568117 31:0.585436 32:-0.431048 33:0.585436 34:0.144947 35:-0.431048 36:-0.568117 37:0.585436 38:-0.431048 39:0.585436 40:0.144947 41:-0.431048 42:-0.352185 43:-0.324702 44:-0.642271 45:-0.210383 46:-0.132639 47:-0.163762 48:-0.107118 49:-0.168906 50:-0.675915 51:-1 52:0.649034 53:0.449058 54:-0.108953 55:0.667799 56:0.0871768 57:0.0686913 58:0.149775 59:0.280969 60:-0.86015 61:-1 
1 1:-0.61194 2:-0.223273 3:-0.146447 4:0.111758 5:-0.810344 6:0.439167 7:-0.517242 8:-0.84 9:-0.854023 10:-1 11:-0.712643 12:-1 13:-1 14:-1 15:-0.735632 16:-0.293103 17:-0.648275 18:-1 19:-1 20:-1 21:-1 22:-1 23:-1 24:-1 28:-1 30:-0.523312 31:-0.350307 32:-0.438927 33:-0.350307 34:-0.324305 35:-0.438927 36:-0.523312 37:-0.350307 38:-0.438927 39:-0.350307 40:-0.324305 41:-0.438927 42:0.0174433 43:-0.22063 44:-0.239839 45:-0.357598 46:-0.459821 47:-0.653276 48:-0.686301 49:-0.726204 50:-0.801169 51:-1 52:0.140568 53:-0.132554 54:-0.433962 55:0.311172 56:0.0320605 57:0.0732922 58:0.200284 59:-0.288733 60:-0.714653 61:-1 
1 1:-0.99005 2:0.625258 3:-0.429726 4:0.0203552 5:-1 6:0.744558 7:-0.825 8:-1 9:-1 10:-1 11:-0.166667 12:-1 13:-1 14:-1 15:-1 16:0.0249997 17:-1 18:-1 19:-1 20:-1 21:-1 22:-1 23:-1 24:-1 28:-1 30:-0.765362 31:-0.0580303 32:0.0908999 33:-0.0580303 34:-0.843738 35:0.0908999 36:-0.765362 37:-0.0580303 38:0.0908999 39:-0.0580303 40:-0.843738 41:0.0908999 42:-0.887744 43:-0.956807 44:-0.657706 45:-1 46:-0.8691 47:-0.781969 48:-1 49:-0.72602 50:-1 51:-1 52:-0.942405 53:-0.840611 54:-0.530778 55:-1 56:-0.455405 57:-0.485884 58:-1 59:-0.428782 60:-1 61:-1 
1 1:-0.691542 2:-0.0103035 3:-0.153532 4:0.235064 5:-1 6:0.595173 7:-0.72 8:-1 9:-0.830666 10:-0.706667 11:-0.333333 12:-1 13:-1 14:-1 15:-1 16:-1 17:-0.184 18:-0.45 19:-1 20:-1 21:-1 22:-1 23:-1 24:-1 28:-1 30:-0.668756 31:-0.00157413 32:0.0539569 33:-0.00157413 34:-0.535183 35:0.0539569 36:-0.668756 37:-0.00157413 38:0.0539569 39:-0.00157413 40:-0.535183 41:0.0539569 42:-0.19345 43:-0.191437 44:-0.568956 45:-0.549225 46:-0.528608 47:-0.563865 48:-0.589028 49:-0.80633 50:-1 51:-0.862857 52:0.0539988 53:-0.0227806 54:0.107943 55:-0.0418508 56:-0.182276 57:-0.295979 58:-0.44523 59:-0.377051 60:-1 61:-0.72722 
1 1:-0.661692 2:0.123742 3:-0.317867 4:-0.07806 5:-0.792453 6:0.380155 7:-0.4717 8:-0.737358 9:-0.840251 10:-1 11:-1 12:-0.637737 13:-1 14:-0.622642 15:-0.421385 16:-1 17:-1 18:-1 19:-1 20:-1 21:-1 22:-1 23:-1 24:-1 28:-1 30:-0.601054 31:-0.108316 32:0.066103 33:-0.108316 34:-0.585585 35:0.066103 36:-0.601054 37:-0.108316 38:0.066103 39:-0.108316 40:-0.585585 41:0.066103 42:0.031381 43:-0.373027 44:-0.247391 45:-0.22514 46:-0.61633 47:-0.696776 48:-0.521873 49:-0.813117 50:-0.575307 51:-1 52:0.0507744 53:-0.0656781 54:0.00620358 55:-0.238718 56:-0.874995 57:-0.378675 58:-0.419165 59:-0.568256 60:-0.672349 61:-1 
1 1:-0.462687 2:0.0903378 3:-0.420389 4:-0.256459 5:-1 6:0.567693 7:-0.664384 8:-0.745753 9:-1 10:-0.799088 11:-0.77169 12:-0.736988 13:-0.6621 14:-0.726028 15:-1 16:-1 17:-1 18:-1 19:-1 20:-1 21:-1 22:-1 23:-1 24:-1 28:-1 30:-0.251766 31:0.590386 32:-0.0295932 33:0.590386 34:-0.35823 35:-0.0295932 36:-0.251766 37:0.590386 38:-0.0295932 39:0.590386 40:-0.35823 41:-0.0295932 42:0.182333 43:0.109496 44:-0.565048 45:0.0334574 46:0.178895 47:0.185768 48:-0.121878 49:0.208208 50:-0.75474 51:-1 52:0.218545 53:0.0367274 54:-0.297872 55:0.231114 56:-0.324952 57:-0.307841 58:-0.462674 59:-0.284429 60:-0.843986 61:-1 
1 1:-0.970149 2:0.626576 3:-0.178587 4:0.232794 5:-1 6:0.48265 7:-0.522726 8:-1 9:-1 10:-0.333336 11:-1 12:-1 13:-1 14:-1 15:-0.303032 16:-0.068183 17:-1 18:-1 19:-1 20:-1 21:-1 22:-1 23:-1 24:-1 28:-1 30:-0.694842 31:-0.0272582 32:0.106289 33:-0.0272582 34:-0.90577 35:0.106289 36:-0.694842 37:-0.0272582 38:0.106289 39:-0.0272582 40:-0.90577 41:0.106289 42:-0.905436 43:-0.809596 44:-0.488489 45:-1 46:-0.654263 47:-0.787901 48:-1 49:-0.811485 50:-0.846994 51:-1 52:-0.90592 53:-0.924581 54:-0.658141 55:-1 56:-0.492904 57:-0.444872 58:-1 59:-0.722103 60:-0.797017 61:-1 
1 1:-0.59204 2:0.0547216 3:-0.361597 4:-0.127796 5:-1 6:0.637855 7:-0.766667 8:-0.845333 9:-0.858888 10:-0.755556 11:-1 12:-1 13:-0.794444 14:-0.666666 15:-0.48889 16:-1 17:-1 18:-1 19:-1 20:-1 21:-1 22:-1 23:-1 24:-1 28:-1 30:-0.845879 31:-0.0450225 32:-0.365654 33:-0.0450225 34:0.048032 35:-0.365654 36:-0.845879 37:-0.0450225 38:-0.365654 39:-0.0450225 40:0.048032 41:-0.365654 42:-0.230774 43:-0.578582 44:-0.489575 45:-0.498638 46:-0.618021 47:-0.500287 48:-0.501333 49:-0.710871 50:-0.646925 51:-0.816891 52:0.741569 53:0.412579 54:-0.000687298 55:0.331558 56:-0.0772241 57:-0.305078 58:-0.405946 59:0.051933 60:-0.784093 61:-0.728974 
1 1:-0.970149 2:0.630581 3:-0.601455 4:-0.165467 5:-1 6:0.773658 7:-0.840909 8:-1 9:-1 10:-1 11:-1 12:-0.127276 13:-1 14:-0.09091 15:-1 16:-1 17:-1 18:-1 19:-1 20:-1 21:-1 22:-1 23:-1 24:-1 28:-1 30:-0.669243 31:-0.039169 32:0.0259314 33:-0.039169 34:-0.869859 35:0.0259314 36:-0.669243 37:-0.039169 38:0.0259314 39:-0.039169 40:-0.869859 41:0.0259314 42:-1 43:-1 44:-0.264025 45:-0.426043 46:-0.555269 47:-1 48:-0.689679 49:-0.675634 50:-1 51:-1 52:-1 53:-1 54:-0.560826 55:-0.38548 56:-0.611952 57:-1 58:-0.522648 59:-0.493949 60:-1 61:-1 
1 1:-0.721393 2:-0.118722 3:-0.737999 4:-0.577366 5:-1 6:0.883047 7:-1 8:-0.703829 9:-1 10:-1 11:-1 12:-1 13:-1 14:-0.574468 15:-1 16:-1 17:-1 18:-1 19:-1 20:-1 21:-1 22:-1 23:-1 24:-1 28:-1 30:-0.627484 31:0.0465469 32:0.13867 33:0.0465469 34:-0.847884 35:0.13867 36:-0.627484 37:0.0465469 38:0.13867 39:0.0465469 40:-0.847884 41:0.13867 42:-0.462298 43:-0.978916 44:-0.38976 45:-0.51403 46:-0.297703 47:-0.825572 48:-0.850209 49:-0.91103 50:-0.805716 51:-0.834661 52:-0.69155 53:-0.726532 54:-0.509883 55:-0.799276 56:-0.245267 57:-0.501316 58:-0.234827 59:-0.790145 60:-0.736863 61:-0.846169 
1 1:-0.711443 2:-0.235477 3:-0.68683 4:-0.423847 5:-0.541666 6:0.620072 7:-0.5625 8:-1 9:-0.823611 10:-1 11:-1 12:-1 13:-1 14:-1 15:-1 16:-0.572917 17:-1 18:-1 19:-1 20:-1 21:-1 22:-1 23:-1 24:-1 28:-1 30:-0.579434 31:0.0722665 32:0.171067 33:0.0722665 34:-0.834867 35:0.171067 36:-0.579434 37:0.0722665 38:0.171067 39:0.0722665 40:-0.834867 41:0.171067 42:-0.37454 43:-0.32073 44:-0.297938 45:-0.616636 46:-0.704441 47:-0.810097 48:-0.778838 49:-0.836807 50:-0.830815 51:-1 52:-0.350248 53:-0.429334 54:-0.569918 55:-0.580455 56:-0.459836 57:-0.316928 58:-0.275045 59:-0.996389 60:-0.933566 61:-1 
1 1:0.383085 2:-0.678241 3:-0.689239 4:-0.470811 5:-1 6:0.645958 7:-0.534812 8:-0.823797 9:-1 10:-0.907173 11:-0.894515 12:-0.878481 13:-1 14:-1 15:-1 16:-1 17:-1 18:-1 19:-1 20:-0.721519 21:-1 22:-1 23:-1 24:-1 28:-1 30:-0.025478 31:0.499788 32:-0.25218 33:0.499788 34:-0.308588 35:-0.25218 36:-0.025478 37:0.499788 38:-0.25218 39:0.499788 40:-0.308588 41:-0.25218 42:0.0171411 43:0.399963 44:0.396452 45:0.502887 46:0.535117 47:0.592366 48:0.666902 49:0.748642 50:0.221945 51:0.16342 52:-0.193747 53:0.465488 54:0.321852 55:-0.129798 56:0.167946 57:0.150203 58:0.649999 59:0.626533 60:0.390942 61:-0.00798815 
1 1:-0.621891 2:-0.221853 3:-0.447559 4:-0.366501 5:-0.614035 6:0.465631 7:-0.570176 8:-0.837193 9:-0.554385 10:-1 11:-1 12:-0.663158 13:-1 14:-1 15:-1 16:-0.64035 17:-1 18:-1 19:-1 20:-1 21:-1 22:-1 23:-1 24:-1 28:-1 30:-0.511271 31:-0.334688 32:-0.448115 33:-0.334688 34:-0.398591 35:-0.448115 36:-0.511271 37:-0.334688 38:-0.448115 39:-0.334688 40:-0.398591 41:-0.448115 42:0.0188274 43:-0.25643 44:-0.39322 45:-0.347264 46:-0.398581 47:-0.672362 48:-0.684366 49:-0.645499 50:-0.703917 51:-1 52:0.00932801 53:-0.12213 54:-0.553926 55:0.289769 56:0.0240633 57:0.054219 58:-0.0113718 59:-0.250489 60:-0.553015 61:-1 
1 1:-0.691542 2:0.084855 3:-0.268162 4:0.002288 5:-1 6:0.552492 7:-0.65 8:-0.8144 9:-1 10:-0.706667 11:-1 12:-1 13:-0.753333 14:-0.6 15:-0.386668 16:-1 17:-1 18:-1 19:-1 20:-1 21:-1 22:-1 23:-1 24:-1 28:-1 30:-0.647873 31:-0.081015 32:0.0901311 33:-0.081015 34:-0.611082 35:0.0901311 36:-0.647873 37:-0.081015 38:0.0901311 39:-0.081015 40:-0.611082 41:0.0901311 42:-0.438639 43:-0.274108 44:-0.286622 45:-0.244863 46:-0.594441 47:-0.831927 48:-0.671707 49:-0.793185 50:-0.830976 51:-1 52:0.0319416 53:-0.189268 54:0.00368528 55:-0.309123 56:-0.390068 57:-0.439533 58:-0.427694 59:-0.552082 60:-0.736755 61:-1 
1 1:-0.432836 2:-0.410829 3:-0.693736 4:-0.552996 5:-0.855263 6:0.643472 7:-0.677632 8:-0.877895 9:-0.888596 10:-0.614036 11:-0.780702 12:-0.747369 13:-1 14:-1 15:-1 16:-1 17:-1 18:-1 19:-1 20:-1 21:-1 22:-1 23:-1 24:-1 28:-1 30:-0.162246 31:-0.0424021 32:-0.178008 33:-0.0424021 34:-0.659388 35:-0.178008 36:-0.162246 37:-0.0424021 38:-0.178008 39:-0.0424021 40:-0.659388 41:-0.178008 42:-0.258169 43:0.34245 44:0.363947 45:0.0625377 46:-0.0495529 47:0.197184 48:0.178354 49:-0.605746 50:-0.763908 51:-1 52:-0.579328 53:-0.565707 54:-0.301498 55:-0.51154 56:-0.500304 57:-0.665956 58:-0.200559 59:-0.0992667 60:-0.837768 61:-1 
1 1:-0.58209 2:-0.227731 3:-0.603871 4:-0.687438 5:-0.819672 6:0.504913 7:-0.483607 8:-0.847869 9:-0.722404 10:-0.519127 11:-1 12:-1 13:-1 14:-1 15:-1 16:-1 17:-1 18:-1 19:-1 20:-1 21:-1 22:-1 23:-1 24:-1 28:-1 30:-0.38688 31:-0.33129 32:-0.435769 33:-0.33129 34:-0.560618 35:-0.435769 36:-0.38688 37:-0.33129 38:-0.435769 39:-0.33129 40:-0.560618 41:-0.435769 42:0.0446047 43:-0.114508 44:-0.30172 45:-0.129091 46:-0.322888 47:-0.41603 48:-0.302726 49:-0.462647 50:-0.831064 51:-1 52:-0.398632 53:-0.297904 54:-0.634059 55:-0.146417 56:0.0388228 57:0.0335488 58:-0.194139 59:0.134378 60:-0.578816 61:-1 
1 1:-0.800995 2:0.652825 3:-0.292458 4:0.0420118 5:-1 6:0.626911 7:-0.820513 8:-0.881026 9:-1 10:-0.623933 11:-1 12:-0.0153868 13:-0.683761 14:-1 15:-1 16:-1 17:-0.476924 18:-1 19:-1 20:-1 21:-1 22:-1 23:-1 24:-1 28:-1 30:-0.560392 31:0.124713 32:0.0872427 33:0.124713 34:-0.901884 35:0.0872427 36:-0.560392 37:0.124713 38:0.0872427 39:0.124713 40:-0.901884 41:0.0872427 42:-0.597111 43:-0.61652 44:-0.214104 45:-1 46:-0.100248 47:-0.211156 48:-0.622637 49:-0.284757 50:-0.997004 51:-1 52:-0.361849 53:-0.624772 54:-0.443044 55:-1 56:-0.53591 57:-0.754439 58:-0.881429 59:-0.956389 60:-0.854295 61:-1 
1 1:-0.59204 2:-0.215007 3:-0.516728 4:-0.416156 5:-0.816666 6:0.460016 7:-0.358335 8:-0.845333 9:-1 10:-0.511113 11:-1 12:-1 13:-1 14:-1 15:-1 16:-0.658333 17:-1 18:-1 19:-1 20:-1 21:-1 22:-1 23:-1 24:-1 28:-1 30:-0.522207 31:-0.329621 32:0.0582576 33:-0.329621 34:-0.412094 35:0.0582576 36:-0.522207 37:-0.329621 38:0.0582576 39:-0.329621 40:-0.412094 41:0.0582576 42:0.0705806 43:-0.26718 44:-0.303587 45:-0.382682 46:-0.378631 47:-0.622441 48:-0.641302 49:-0.607899 50:-0.829545 51:-0.77491 52:-0.126888 53:-0.0732419 54:-0.53657 55:0.142941 56:0.0448032 57:0.091905 58:0.21684 59:-0.0561205 60:-0.56595 61:-0.745549 
1 1:-0.0845771 2:-0.41412 3:-0.380333 4:-0.424808 5:-0.900901 6:0.180281 7:-0.0855872 8:-0.749189 9:-0.694895 10:-0.471473 11:-0.84985 12:-1 13:-1 14:-1 15:-1 16:-1 17:-1 18:-0.752252 19:-1 20:-1 21:-1 22:-1 23:-1 24:-1 28:-1 30:-0.288788 31:0.208364 32:0.0149745 33:0.208364 34:-0.121018 35:0.0149745 36:-0.288788 37:0.208364 38:0.0149745 39:0.208364 40:-0.121018 41:0.0149745 42:0.339286 43:0.0786968 44:0.0870971 45:-0.532326 46:0.0135376 47:0.34419 48:0.428608 49:0.0575591 50:0.190263 51:-0.803204 52:-0.23786 53:-0.332434 54:-0.237171 55:-0.098797 56:0.418078 57:0.288463 58:0.222422 59:0.701188 60:0.308457 61:-0.720717 
1 1:-0.59204 2:-0.207252 3:-0.253435 4:-0.0968686 5:-0.816666 6:0.424448 7:-0.533335 8:-0.845333 9:-0.858888 10:-0.511113 11:-0.722222 12:-0.68 13:-1 14:-0.666666 15:-1 16:-1 17:-1 18:-0.541666 19:-1 20:-1 21:-1 22:-1 23:-1 24:-1 28:-1 30:-0.441396 31:-0.316565 32:0.0623804 33:-0.316565 34:-0.576849 35:0.0623804 36:-0.441396 37:-0.316565 38:0.0623804 39:-0.316565 40:-0.576849 41:0.0623804 42:-0.136016 43:-0.16352 44:-0.903766 45:-0.207078 46:-0.388638 47:-0.534342 48:-0.473775 49:-0.398557 50:-0.797516 51:-0.80731 52:-0.195387 53:-0.285417 54:-0.685543 55:-0.0440338 56:-0.0298566 57:0.0246094 58:-0.254385 59:0.320887 60:-0.583007 61:-0.809764 
1 1:-0.671642 2:0.410485 3:-0.509384 4:-0.0690044 5:-1 6:0.777391 7:-0.865385 8:-0.910769 9:-1 10:-0.717949 11:-1 12:-0.63077 13:-1 14:-1 15:-0.705128 16:-1 17:-1 18:-0.471153 19:-1 20:-1 21:-1 22:-1 23:-1 24:-1 28:-1 30:-0.338345 31:0.472591 32:-0.316653 33:0.472591 34:-0.563745 35:-0.316653 36:-0.338345 37:0.472591 38:-0.316653 39:0.472591 40:-0.563745 41:-0.316653 42:-0.00288945 43:-0.0259975 44:0.0424212 45:-0.259817 46:0.0590133 47:0.161568 48:0.0438208 49:-0.758771 50:-1 51:-1 52:0.329058 53:-0.380848 54:-0.0115802 55:-0.555044 56:-0.228602 57:-0.524607 58:-0.569864 59:-0.963057 60:-1 61:-1 
1 1:-0.412935 2:-0.0936058 3:-0.317486 4:-0.170422 5:-1 6:0.626911 7:-0.775641 8:-0.881026 9:-1 10:-0.623933 11:-0.358975 12:-0.507694 13:-1 14:-1 15:-0.803419 16:-0.73718 17:-1 18:-1 19:-1 20:-1 21:-1 22:-1 23:-1 24:-1 28:-1 30:-0.605337 31:0.525344 32:-0.443092 33:0.525344 34:0.196679 35:-0.443092 36:-0.605337 37:0.525344 38:-0.443092 39:0.525344 40:0.196679 41:-0.443092 42:-0.347981 43:-0.325392 44:-0.298944 45:-0.47251 46:-0.968397 47:-0.149041 48:-0.0776745 49:-0.766946 50:-0.704041 51:-1 52:0.655536 53:0.511529 54:0.818976 55:0.57052 56:-0.601611 57:-0.042295 58:0.163596 59:-0.406474 60:-0.497266 61:-1 
1 1:-0.21393 2:-0.411442 3:-0.103076 4:-0.152531 5:-0.887755 6:0.0411861 7:0.0357122 8:-0.857959 9:-0.82721 10:-0.700681 11:-0.319728 12:-0.804082 13:-0.748299 14:-0.795918 15:-0.687075 16:-1 17:-1 18:-1 19:-1 20:-1 21:-1 22:-1 23:-1 24:-1 28:-1 30:0.0934451 31:0.273055 32:-0.347062 33:0.273055 34:-0.729763 35:-0.347062 36:0.0934451 37:0.273055 38:-0.347062 39:0.273055 40:-0.729763 41:-0.347062 42:0.446655 43:0.455537 44:0.492301 45:0.577101 46:0.605816 47:0.532741 48:0.92417 49:-0.175481 50:-0.85024 51:-1 52:-0.0587434 53:-0.326763 54:-0.314242 55:-0.231404 56:-0.54852 57:-0.646635 58:-0.719016 59:-0.650577 60:-0.628073 61:-1 
